{"learner":{"attributes":{"best_iteration":"29","best_score":"0.01110593468241155"},"feature_names":["D1","D2","D3","D4","D5","D6","D7","D8","D9","E1","E10","E11","E12","E13","E14","E15","E16","E17","E18","E19","E2","E20","E3","E4","E5","E6","E7","E8","E9","I1","I2","I3","I4","I5","I6","I7","I8","I9","M1","M10","M11","M12","M13","M14","M15","M16","M17","M18","M2","M3","M4","M5","M6","M7","M8","M9","P1","P10","P11","P12","P13","P2","P3","P4","P5","P6","P7","P8","P9","S1","S10","S11","S12","S2","S3","S4","S5","S6","S7","S8","S9","V1","V10","V11","V12","V13","V2","V3","V4","V5","V6","V7","V8","V9","V1_ma5","V1_std5","V1_ma21","V1_std21","V1_ma63","V1_std63","V2_ma5","V2_std5","V2_ma21","V2_std21","V2_ma63","V2_std63","V3_ma5","V3_std5","V3_ma21","V3_std21","V3_ma63","V3_std63","M1_ma5","M1_std5","M1_ma21","M1_std21","M1_ma63","M1_std63","M2_ma5","M2_std5","M2_ma21","M2_std21","M2_ma63","M2_std63","S1_ma5","S1_std5","S1_ma21","S1_std21","S1_ma63","S1_std63","S2_ma5","S2_std5","S2_ma21","S2_std21","S2_ma63","S2_std63","E1_ma5","E1_std5","E1_ma21","E1_std21","E1_ma63","E1_std63","P1_ma5","P1_std5","P1_ma21","P1_std21","P1_ma63","P1_std63","I1_ma5","I1_std5","I1_ma21","I1_std21","I1_ma63","I1_std63","lagged_ret","cum_ret_5","vol_5","cum_ret_10","vol_10","cum_ret_21","vol_21"],"feature_types":["float","float","float","float","float","float","float","float","float","float","float","float","float","float","float","float","float","float","float","float","float","float","float","float","float","float","float","float","float","float","float","float","float","float","float","float","float","float","float","float","float","float","float","float","float","float","float","float","float","float","float","float","float","float","float","float","float","float","float","float","float","float","float","float","float","float","float","float","float","float","float","float","float","float","float","float","float","float","float","float","float","float","float","float","float","float","float","float","float","float","float","float","float","float","float","float","float","float","float","float","float","float","float","float","float","float","float","float","float","float","float","float","float","float","float","float","float","float","float","float","float","float","float","float","float","float","float","float","float","float","float","float","float","float","float","float","float","float","float","float","float","float","float","float","float","float","float","float","float","float","float","float","float","float","float","float","float","float","float","float","float"],"gradient_booster":{"model":{"cats":{"enc":[],"feature_segments":[],"sorted_idx":[]},"gbtree_model_param":{"num_parallel_tree":"1","num_trees":"80"},"iteration_indptr":[0,1,2,3,4,5,6,7,8,9,10,11,12,13,14,15,16,17,18,19,20,21,22,23,24,25,26,27,28,29,30,31,32,33,34,35,36,37,38,39,40,41,42,43,44,45,46,47,48,49,50,51,52,53,54,55,56,57,58,59,60,61,62,63,64,65,66,67,68,69,70,71,72,73,74,75,76,77,78,79,80],"tree_info":[0,0,0,0,0,0,0,0,0,0,0,0,0,0,0,0,0,0,0,0,0,0,0,0,0,0,0,0,0,0,0,0,0,0,0,0,0,0,0,0,0,0,0,0,0,0,0,0,0,0,0,0,0,0,0,0,0,0,0,0,0,0,0,0,0,0,0,0,0,0,0,0,0,0,0,0,0,0,0,0],"trees":[{"base_weights":[1.1039438E-5,8.199944E-3,-1.19628865E-4,-8.333263E-3,1.1838138E-2,-1.9293606E-4,6.5532555E-3,-1.6676255E-2,1.5025167E-2,-9.736141E-3,1.4927602E-2,-2.812436E-5,-3.7033793E-3,3.1343224E-3,1.9198902E-2,2.7618199E-3,-2.5622267E-2,2.0876665E-2,-4.190411E-5,1.3246104E-2,-1.7137466E-2,1.723797E-2,-3.977315E-3,2.0578413E-3,-2.3200043E-4,-1.7811123E-3,-1.1875954E-2,5.3252783E-3,-9.033855E-3,8.678587E-3,2.4689274E-4,6.407487E-5,-1.8044541E-3,-6.596582E-5,-3.0115806E-4,2.4111984E-4,5.5853532E-5,1.7372436E-4,2.496719E-5,-6.6308724E-3,-2.2115247E-4,1.3090592E-2,2.7565889E-2,2.8991147E-3,-1.6404403E-2,4.7298553E-3,-3.5827345E-4,-1.7088864E-2,-2.0789645E-4,-1.23616215E-2,-1.2349894E-3,-2.2787752E-2,-7.171923E-3,1.15026105E-2,8.438452E-4,-1.135401E-4,3.603617E-5,4.0224208E-5,1.19939454E-4,1.9693532E-6,-2.9036164E-5,-1.4139146E-5,-7.898553E-5,1.9222261E-4,6.0851828E-5,-1.2772421E-4,3.1106605E-4,-1.45526865E-5,5.4401233E-5,-5.033953E-5,-1.957265E-4,5.187538E-5,-2.2197264E-4,1.52003295E-5,-6.9930305E-5,-2.0189614E-4,7.5781877E-6,2.5026472E-7,-1.8297007E-5,-1.9528922E-4,-4.328601E-5,1.5008462E-6,-5.2030464E-5,-2.5716034E-4,-3.478703E-5,-8.679862E-5,1.1806052E-4,1.5456673E-4,3.0809853E-5,-9.307891E-5,2.5726757E-5],"categories":[],"categories_nodes":[],"categories_segments":[],"categories_sizes":[],"default_left":[0,0,0,0,0,0,0,0,0,0,0,0,0,0,0,0,0,0,0,0,0,0,0,0,0,0,0,0,0,0,0,0,0,0,0,0,0,0,0,0,0,0,0,0,0,0,0,0,0,0,0,0,0,0,0,0,0,0,0,0,0,0,0,0,0,0,0,0,0,0,0,0,0,0,0,0,0,0,0,0,0,0,0,0,0,0,0,0,0,0,0],"id":0,"left_children":[1,3,5,7,9,11,13,15,17,19,21,23,25,27,29,31,33,35,-1,37,39,41,43,45,47,49,51,53,55,57,-1,-1,59,-1,-1,-1,-1,-1,-1,61,-1,63,65,67,69,71,73,75,77,79,81,83,85,87,89,-1,-1,-1,-1,-1,-1,-1,-1,-1,-1,-1,-1,-1,-1,-1,-1,-1,-1,-1,-1,-1,-1,-1,-1,-1,-1,-1,-1,-1,-1,-1,-1,-1,-1,-1,-1],"loss_changes":[6.1996663E-3,5.572392E-3,2.7910033E-3,3.5635093E-3,5.14431E-3,3.2641436E-3,2.6203713E-3,2.3313765E-3,6.4968143E-4,1.927995E-3,2.9512635E-3,2.2927283E-3,3.953445E-3,1.3811047E-3,5.366178E-4,9.479759E-5,5.707727E-4,6.321503E-5,0E0,8.9692534E-5,2.7175294E-4,2.1663401E-3,7.311902E-4,3.1005235E-3,1.9918731E-3,1.1750548E-3,2.3003812E-3,1.1806756E-3,2.7548271E-4,4.4376502E-5,0E0,0E0,7.1713803E-6,0E0,0E0,0E0,0E0,0E0,0E0,1.528587E-5,0E0,1.7730431E-3,2.6825294E-3,7.4304E-5,9.545358E-6,2.9250393E-3,3.1635428E-3,4.0266663E-4,1.852936E-3,4.912177E-4,1.0835031E-3,7.021348E-4,1.1040922E-3,5.517716E-4,4.8026262E-4,0E0,0E0,0E0,0E0,0E0,0E0,0E0,0E0,0E0,0E0,0E0,0E0,0E0,0E0,0E0,0E0,0E0,0E0,0E0,0E0,0E0,0E0,0E0,0E0,0E0,0E0,0E0,0E0,0E0,0E0,0E0,0E0,0E0,0E0,0E0,0E0],"parents":[2147483647,0,0,1,1,2,2,3,3,4,4,5,5,6,6,7,7,8,8,9,9,10,10,11,11,12,12,13,13,14,14,15,15,16,16,17,17,19,19,20,20,21,21,22,22,23,23,24,24,25,25,26,26,27,27,28,28,29,29,32,32,39,39,41,41,42,42,43,43,44,44,45,45,46,46,47,47,48,48,49,49,50,50,51,51,52,52,53,53,54,54],"right_children":[2,4,6,8,10,12,14,16,18,20,22,24,26,28,30,32,34,36,-1,38,40,42,44,46,48,50,52,54,56,58,-1,-1,60,-1,-1,-1,-1,-1,-1,62,-1,64,66,68,70,72,74,76,78,80,82,84,86,88,90,-1,-1,-1,-1,-1,-1,-1,-1,-1,-1,-1,-1,-1,-1,-1,-1,-1,-1,-1,-1,-1,-1,-1,-1,-1,-1,-1,-1,-1,-1,-1,-1,-1,-1,-1,-1],"split_conditions":[-2.8860323E0,-1.1934836E0,2.025615E0,7.6611733E-1,-1.1950382E0,1.7036724E0,2.6432917E0,4.9239626E0,1.412853E-1,1.1245569E0,1.2039723E0,-9.4309926E-1,3.9378178E-1,5.1039785E-1,-1.6309744E0,-2.112676E-2,-5.410628E-1,0E0,-4.190411E-5,2.9987112E-1,-7.185629E-2,3.8066074E-1,2.6426187E0,-7.093228E-1,-2.8692765E0,-4.1745248E-1,-3.5744464E-1,8.178718E-1,-1.006192E-1,1E0,2.4689274E-4,6.407487E-5,0E0,-6.596582E-5,-3.0115806E-4,2.4111984E-4,5.5853532E-5,1.7372436E-4,2.496719E-5,-1.0619558E0,-2.2115247E-4,-2.1713881E0,-4.775171E-1,1.14285715E-1,-6.4322746E-1,4.9588766E0,6.478274E-1,4.2630386E-2,5.6901407E0,-1.4509122E-1,3.2194167E-1,5.6605977E-1,1.7009267E0,-2.565928E-1,-2.3170963E-1,-1.135401E-4,3.603617E-5,4.0224208E-5,1.19939454E-4,1.9693532E-6,-2.9036164E-5,-1.4139146E-5,-7.898553E-5,1.9222261E-4,6.0851828E-5,-1.2772421E-4,3.1106605E-4,-1.45526865E-5,5.4401233E-5,-5.033953E-5,-1.957265E-4,5.187538E-5,-2.2197264E-4,1.52003295E-5,-6.9930305E-5,-2.0189614E-4,7.5781877E-6,2.5026472E-7,-1.8297007E-5,-1.9528922E-4,-4.328601E-5,1.5008462E-6,-5.2030464E-5,-2.5716034E-4,-3.478703E-5,-8.679862E-5,1.1806052E-4,1.5456673E-4,3.0809853E-5,-9.307891E-5,2.5726757E-5],"split_indices":[50,64,122,89,33,50,158,65,9,156,55,132,121,31,48,12,63,3,0,9,35,121,27,64,155,157,153,18,28,4,0,0,3,0,0,0,0,0,0,18,0,155,56,13,9,101,19,15,12,68,37,72,91,50,103,0,0,0,0,0,0,0,0,0,0,0,0,0,0,0,0,0,0,0,0,0,0,0,0,0,0,0,0,0,0,0,0,0,0,0,0],"split_type":[0,0,0,0,0,0,0,0,0,0,0,0,0,0,0,0,0,0,0,0,0,0,0,0,0,0,0,0,0,0,0,0,0,0,0,0,0,0,0,0,0,0,0,0,0,0,0,0,0,0,0,0,0,0,0,0,0,0,0,0,0,0,0,0,0,0,0,0,0,0,0,0,0,0,0,0,0,0,0,0,0,0,0,0,0,0,0,0,0,0,0],"sum_hessian":[5.792E3,9E1,5.702E3,1.6E1,7.4E1,5.641E3,6.1E1,1.2E1,4E0,9E0,6.5E1,5.389E3,2.52E2,4.9E1,1.2E1,4E0,8E0,3E0,1E0,2E0,7E0,5.8E1,7E0,4.79E2,4.91E3,2.05E2,4.7E1,4.2E1,7E0,5E0,7E0,2E0,2E0,2E0,6E0,2E0,1E0,1E0,1E0,3E0,4E0,4.3E1,1.5E1,5E0,2E0,2.27E2,2.52E2,6E0,4.904E3,9E0,1.96E2,1.3E1,3.4E1,1.7E1,2.5E1,6E0,1E0,3E0,2E0,1E0,1E0,1E0,2E0,2.2E1,2.1E1,1E0,1.4E1,2E0,3E0,1E0,1E0,2.24E2,3E0,1.97E2,5.5E1,5E0,1E0,4.289E3,6.15E2,4E0,5E0,1.46E2,5E1,1.1E1,2E0,3.2E1,2E0,1.1E1,6E0,3E0,2.2E1],"tree_param":{"num_deleted":"0","num_feature":"161","num_nodes":"91","size_leaf_vector":"1"}},{"base_weights":[-1.3389042E-5,-6.1616054E-5,9.870182E-3,-9.880982E-5,9.606493E-3,2.0799922E-2,-2.5452678E-3,-6.947256E-5,-1.1246249E-2,1.4295624E-2,-2.4856543E-4,2.6145428E-2,4.879824E-3,-1.0558246E-2,9.898411E-3,-8.6941065E-5,1.9855024E-2,-2.4075348E-2,1.2009957E-2,1.943296E-4,2.8377483E-4,2.859832E-4,8.082551E-6,8.313761E-5,-4.4279634E-5,6.1720965E-4,-1.3839406E-2,1.2506267E-4,3.121799E-5,-3.6747773E-5,-6.3926326E-3,3.5231787E-5,2.305719E-4,-8.739491E-5,-2.939936E-2,-9.590619E-3,2.52079E-4,-6.095296E-3,1.8998429E-4,-1.9881914E-5,2.9140057E-5,-7.961924E-5,-1.9022074E-4,1.53223E-5,-2.4188066E-6,-9.641428E-6,-1.4481804E-4,-3.18113E-4,-7.463857E-5,-1.5602997E-4,1.2170683E-5,-1.5492378E-4,4.520845E-5],"categories":[],"categories_nodes":[],"categories_segments":[],"categories_sizes":[],"default_left":[0,0,0,0,0,0,0,0,0,0,0,0,0,0,0,0,0,0,0,0,0,0,0,0,0,0,0,0,0,0,0,0,0,0,0,0,0,0,0,0,0,0,0,0,0,0,0,0,0,0,0,0,0],"id":1,"left_children":[1,3,5,7,9,11,13,15,17,19,-1,21,23,25,27,29,31,33,35,37,-1,-1,-1,-1,-1,39,41,-1,-1,43,45,-1,-1,-1,47,49,-1,51,-1,-1,-1,-1,-1,-1,-1,-1,-1,-1,-1,-1,-1,-1,-1],"loss_changes":[2.7485245E-3,2.064296E-3,3.852475E-3,1.8688797E-3,3.910577E-3,1.1489294E-3,1.500463E-3,1.986662E-3,4.764486E-3,3.965935E-3,0E0,6.6052796E-4,1.9662484E-4,3.3855787E-4,6.6992536E-5,1.8035182E-3,1.802519E-4,5.59547E-4,1.9522584E-3,1.4167792E-3,0E0,0E0,0E0,0E0,0E0,2.3745826E-5,6.177509E-5,0E0,0E0,1.8204266E-3,1.9620764E-3,0E0,0E0,0E0,1.3291556E-4,2.139296E-4,0E0,9.678855E-4,0E0,0E0,0E0,0E0,0E0,0E0,0E0,0E0,0E0,0E0,0E0,0E0,0E0,0E0,0E0],"parents":[2147483647,0,0,1,1,2,2,3,3,4,4,5,5,6,6,7,7,8,8,9,9,11,11,12,12,13,13,14,14,15,15,16,16,17,17,18,18,19,19,25,25,26,26,29,29,30,30,34,34,35,35,37,37],"right_children":[2,4,6,8,10,12,14,16,18,20,-1,22,24,26,28,30,32,34,36,38,-1,-1,-1,-1,-1,40,42,-1,-1,44,46,-1,-1,-1,48,50,-1,52,-1,-1,-1,-1,-1,-1,-1,-1,-1,-1,-1,-1,-1,-1,-1],"split_conditions":[8.70561E0,7.401391E0,-7.963492E-3,3.7445314E0,3.7292166E0,-6.0240215E-1,-3.0831674E-1,3.0618109E1,2.7458065E0,1.4605892E0,-2.4856543E-4,1E0,5.80173E-1,-2.6064932E-1,2.0343581E-1,2.1077465E1,-2E-1,-1.404363E-1,-1.0326015E0,5.393992E-1,2.8377483E-4,2.859832E-4,8.082551E-6,8.313761E-5,-4.4279634E-5,0E0,1E0,1.2506267E-4,3.121799E-5,-8.8920575E-1,6.065494E-1,3.5231787E-5,2.305719E-4,-8.739491E-5,-7.204031E-1,1E0,2.52079E-4,1.2385769E-2,1.8998429E-4,-1.9881914E-5,2.9140057E-5,-7.961924E-5,-1.9022074E-4,1.53223E-5,-2.4188066E-6,-9.641428E-6,-1.4481804E-4,-3.18113E-4,-7.463857E-5,-1.5602997E-4,1.2170683E-5,-1.5492378E-4,4.520845E-5],"split_indices":[76,85,58,30,156,130,125,93,76,156,0,6,35,101,31,12,11,143,35,24,0,0,0,0,0,5,7,0,0,132,56,0,0,0,9,7,0,59,0,0,0,0,0,0,0,0,0,0,0,0,0,0,0],"split_type":[0,0,0,0,0,0,0,0,0,0,0,0,0,0,0,0,0,0,0,0,0,0,0,0,0,0,0,0,0,0,0,0,0,0,0,0,0,0,0,0,0,0,0,0,0,0,0,0,0,0,0,0,0],"sum_hessian":[5.764E3,5.737E3,2.7E1,5.716E3,2.1E1,1.4E1,1.3E1,5.702E3,1.4E1,1.9E1,2E0,1E1,4E0,8E0,5E0,5.698E3,4E0,9E0,5E0,1E1,9E0,9E0,1E0,3E0,1E0,2E0,6E0,3E0,2E0,5.654E3,4.4E1,1E0,3E0,3E0,6E0,2E0,3E0,8E0,2E0,1E0,1E0,4E0,2E0,6.53E2,5.001E3,2.7E1,1.7E1,5E0,1E0,1E0,1E0,4E0,4E0],"tree_param":{"num_deleted":"0","num_feature":"161","num_nodes":"53","size_leaf_vector":"1"}},{"base_weights":[7.771707E-5,2.0768906E-5,1.2291274E-2,8.337454E-5,-7.633545E-3,-1.1995059E-2,1.7036509E-2,4.9545157E-5,1.0845885E-2,-3.012011E-3,-2.4432018E-2,-3.3689957E-5,-1.6622768E-4,-1.6468205E-4,2.1011634E-2,-1.4874725E-4,1.6662143E-3,1.7091626E-2,-8.811372E-3,4.2358846E-3,-7.9230685E-3,1.210983E-5,-2.7415794E-4,3.2874788E-4,1.1182401E-2,-1.102092E-4,-1.23969605E-2,-1.6079461E-2,2.128186E-3,7.890518E-3,2.516552E-2,-1.2803184E-4,3.5779376E-5,-6.192341E-4,9.168408E-3,-1.017309E-2,5.307807E-3,1.3206004E-2,5.303435E-5,4.7640468E-5,-1.7225499E-6,-1.8277304E-4,1.9176965E-4,-2.5434024E-4,-4.1873395E-6,1.3763253E-5,9.139213E-5,3.0206871E-5,1.2005176E-4,2.850232E-4,2.5723482E-5,5.342704E-5,-6.457325E-5,1.1849826E-4,7.494355E-6,-1.2916469E-4,-3.2330317E-5,8.3053026E-5,1.5402078E-5,1.3996869E-4,3.4395398E-5],"categories":[],"categories_nodes":[],"categories_segments":[],"categories_sizes":[],"default_left":[0,0,0,0,0,0,0,0,0,0,0,0,0,0,0,0,0,0,0,0,0,0,0,0,0,0,0,0,0,0,0,0,0,0,0,0,0,0,0,0,0,0,0,0,0,0,0,0,0,0,0,0,0,0,0,0,0,0,0,0,0],"id":2,"left_children":[1,3,5,7,9,11,13,15,17,19,21,-1,-1,-1,23,25,27,29,31,33,35,-1,-1,-1,37,39,41,43,45,47,49,-1,-1,51,53,55,57,59,-1,-1,-1,-1,-1,-1,-1,-1,-1,-1,-1,-1,-1,-1,-1,-1,-1,-1,-1,-1,-1,-1,-1],"loss_changes":[4.0463945E-3,2.7761813E-3,3.3159507E-3,2.0915186E-3,3.5752424E-3,1.4359248E-4,3.4092893E-3,1.8368119E-3,2.3605358E-3,1.3861649E-3,7.983297E-4,0E0,0E0,0E0,2.0811008E-3,2.4078356E-3,5.166166E-3,8.414737E-4,2.93088E-4,3.8884516E-4,7.387012E-4,0E0,0E0,0E0,8.461985E-5,1.5398721E-3,3.321152E-3,2.3333388E-3,3.2081946E-3,1.2403762E-4,4.5440486E-4,0E0,0E0,3.4775666E-4,1.717176E-4,3.3902517E-4,3.2381555E-5,2.1372805E-5,0E0,0E0,0E0,0E0,0E0,0E0,0E0,0E0,0E0,0E0,0E0,0E0,0E0,0E0,0E0,0E0,0E0,0E0,0E0,0E0,0E0,0E0,0E0],"parents":[2147483647,0,0,1,1,2,2,3,3,4,4,5,5,6,6,7,7,8,8,9,9,10,10,14,14,15,15,16,16,17,17,18,18,19,19,20,20,24,24,25,25,26,26,27,27,28,28,29,29,30,30,33,33,34,34,35,35,36,36,37,37],"right_children":[2,4,6,8,10,12,14,16,18,20,22,-1,-1,-1,24,26,28,30,32,34,36,-1,-1,-1,38,40,42,44,46,48,50,-1,-1,52,54,56,58,60,-1,-1,-1,-1,-1,-1,-1,-1,-1,-1,-1,-1,-1,-1,-1,-1,-1,-1,-1,-1,-1,-1,-1],"split_conditions":[4.1607203E0,3.1809082E0,-5.840043E-1,2.3407655E0,2.673975E0,1.5302325E0,-1.4074717E-1,1.2821991E0,5.1039785E-1,-4.8087955E-1,-1.0326015E0,-3.3689957E-5,-1.6622768E-4,-1.6468205E-4,-2.2492244E0,1.7747176E0,-8.118572E-1,2.1641372E-1,5.3333336E-1,-3.1361014E-1,4.3144992E-1,1.210983E-5,-2.7415794E-4,3.2874788E-4,8.3960927E-1,-1.987465E0,1E0,8.045067E-1,5.6605977E-1,-8.761707E-1,-1.6486436E-1,-1.2803184E-4,3.5779376E-5,-2.5641027E-1,1.3489074E0,2.857143E-1,-1.6486436E-1,4.314266E-1,5.303435E-5,4.7640468E-5,-1.7225499E-6,-1.8277304E-4,1.9176965E-4,-2.5434024E-4,-4.1873395E-6,1.3763253E-5,9.139213E-5,3.0206871E-5,1.2005176E-4,2.850232E-4,2.5723482E-5,5.342704E-5,-6.457325E-5,1.1849826E-4,7.494355E-6,-1.2916469E-4,-3.2330317E-5,8.3053026E-5,1.5402078E-5,1.3996869E-4,3.4395398E-5],"split_indices":[118,50,63,122,40,11,68,85,31,36,35,0,0,0,157,30,60,78,23,49,59,0,0,0,41,157,4,41,72,73,9,0,0,62,49,13,9,29,0,0,0,0,0,0,0,0,0,0,0,0,0,0,0,0,0,0,0,0,0,0,0],"split_type":[0,0,0,0,0,0,0,0,0,0,0,0,0,0,0,0,0,0,0,0,0,0,0,0,0,0,0,0,0,0,0,0,0,0,0,0,0,0,0,0,0,0,0,0,0,0,0,0,0,0,0,0,0,0,0,0,0,0,0,0,0],"sum_hessian":[5.817E3,5.791E3,2.6E1,5.745E3,4.6E1,4E0,2.2E1,5.728E3,1.7E1,3.7E1,9E0,2E0,2E0,2E0,2E1,5.103E3,6.25E2,1.3E1,4E0,1.5E1,2.2E1,1E0,8E0,8E0,1.2E1,5.088E3,1.5E1,1.5E1,6.1E2,7E0,6E0,3E0,1E0,8E0,7E0,1.9E1,3E0,8E0,4E0,6.3E1,5.025E3,1.3E1,2E0,9E0,6E0,5.52E2,5.8E1,4E0,3E0,5E0,1E0,4E0,4E0,5E0,2E0,1.3E1,6E0,1E0,2E0,7E0,1E0],"tree_param":{"num_deleted":"0","num_feature":"161","num_nodes":"61","size_leaf_vector":"1"}},{"base_weights":[-1.1278885E-5,5.064588E-3,-1.2946717E-4,6.486489E-3,-2.5639424E-4,8.075785E-3,-2.0894935E-4,4.7383253E-3,2.6291352E-2,-4.351646E-3,1.441038E-2,-1.2692017E-4,-1.1552461E-2,2.721396E-3,2.0664424E-2,9.19316E-5,2.9416753E-2,-1.2820759E-2,1.1998371E-2,2.0757219E-2,-1.9012744E-3,1.16309886E-4,-1.7931248E-3,-1.7458852E-2,7.9125995E-3,-5.1957006E-3,5.810758E-3,2.6387125E-4,6.230675E-3,3.147992E-4,7.487291E-5,-2.102163E-2,-2.7883502E-3,1.4558261E-4,-1.6804841E-5,6.673069E-3,2.3792824E-2,1.0942329E-4,-1.0803666E-2,6.0718013E-3,6.280061E-5,-6.835933E-4,-3.981214E-3,-7.3766713E-3,-2.6449855E-2,-2.2911916E-4,1.8482719E-2,9.24677E-5,-1.2879274E-4,-2.0530149E-4,7.174495E-5,9.277791E-6,7.324454E-5,-2.2442323E-4,-6.248736E-5,-5.4014E-5,2.4961828E-5,3.3343815E-5,1.1683253E-4,2.6206832E-4,1.0826619E-4,-3.6619902E-5,-1.5244423E-4,-5.2070554E-5,1.0605779E-4,1.109975E-6,-5.3860906E-5,5.889488E-5,-1.2601986E-5,-4.565698E-5,1.1333013E-4,-1.319003E-4,1.3360914E-4,1.0058646E-5,-3.0443948E-4,2.5497942E-5,2.3368727E-4],"categories":[],"categories_nodes":[],"categories_segments":[],"categories_sizes":[],"default_left":[0,0,0,0,0,0,0,0,0,0,0,0,0,0,0,0,0,0,0,0,0,0,0,0,0,0,0,0,0,0,0,0,0,0,0,0,0,0,0,0,0,0,0,0,0,0,0,0,0,0,0,0,0,0,0,0,0,0,0,0,0,0,0,0,0,0,0,0,0,0,0,0,0,0,0,0,0],"id":3,"left_children":[1,3,5,7,-1,9,11,13,15,17,19,21,23,25,27,-1,29,31,33,35,37,39,41,43,45,47,49,-1,51,-1,-1,53,55,-1,-1,57,59,-1,61,63,65,67,69,71,73,-1,75,-1,-1,-1,-1,-1,-1,-1,-1,-1,-1,-1,-1,-1,-1,-1,-1,-1,-1,-1,-1,-1,-1,-1,-1,-1,-1,-1,-1,-1,-1],"loss_changes":[3.4537264E-3,5.8855144E-3,3.6708033E-3,4.237812E-3,0E0,4.313737E-3,5.1842034E-3,3.7020165E-3,2.639545E-4,2.7847607E-3,3.766453E-3,2.2429787E-3,4.7368766E-3,2.5983625E-3,9.0939086E-4,0E0,1.2625381E-4,1.010953E-3,2.6957947E-4,9.5283054E-4,1.3759438E-3,1.5388144E-3,1.7088451E-3,2.6150048E-3,3.6816625E-3,3.4481857E-3,2.8773725E-3,0E0,2.220551E-5,0E0,0E0,6.6782814E-6,1.1014413E-4,0E0,0E0,6.140824E-5,3.735805E-4,0E0,1.661763E-4,2.254163E-3,1.2580205E-3,1.7849667E-3,2.1731113E-3,2.1051113E-3,1.7851936E-3,0E0,5.6320196E-4,0E0,0E0,0E0,0E0,0E0,0E0,0E0,0E0,0E0,0E0,0E0,0E0,0E0,0E0,0E0,0E0,0E0,0E0,0E0,0E0,0E0,0E0,0E0,0E0,0E0,0E0,0E0,0E0,0E0,0E0],"parents":[2147483647,0,0,1,1,2,2,3,3,5,5,6,6,7,7,8,8,9,9,10,10,11,11,12,12,13,13,14,14,16,16,17,17,18,18,19,19,20,20,21,21,22,22,23,23,24,24,25,25,26,26,28,28,31,31,32,32,35,35,36,36,38,38,39,39,40,40,41,41,42,42,43,43,44,44,46,46],"right_children":[2,4,6,8,-1,10,12,14,16,18,20,22,24,26,28,-1,30,32,34,36,38,40,42,44,46,48,50,-1,52,-1,-1,54,56,-1,-1,58,60,-1,62,64,66,68,70,72,74,-1,76,-1,-1,-1,-1,-1,-1,-1,-1,-1,-1,-1,-1,-1,-1,-1,-1,-1,-1,-1,-1,-1,-1,-1,-1,-1,-1,-1,-1,-1,-1],"split_conditions":[-2.0982122E0,8.7554115E-1,-1.5691651E0,2.6585352E0,-2.5639424E-4,-3.9242426E-1,2.2133253E0,1.4909478E0,-2.8951487E-1,7.4732333E-1,-1.3547456E0,6.21831E0,1.7212735E0,-3.9469698E-1,-9.001E-3,9.19316E-5,4.344644E-1,1.0526316E-1,1E0,1.3305682E-1,-1.2453033E-1,-1.4460405E0,3.3843213E-1,-8.5663444E-1,-2.8169014E-2,-2.1537828E0,-1.0652537E0,2.6387125E-4,-1.12676054E-1,3.147992E-4,7.487291E-5,2.2140567E0,-5.6338027E-2,1.4558261E-4,-1.6804841E-5,1E0,-1.143846E0,1.0942329E-4,6.0650223E-1,-1.05894625E-1,5.4466295E0,-1.0121399E0,3.7189682E0,4.692709E-1,-1.2401863E0,-2.2911916E-4,-4.8948374E-1,9.24677E-5,-1.2879274E-4,-2.0530149E-4,7.174495E-5,9.277791E-6,7.324454E-5,-2.2442323E-4,-6.248736E-5,-5.4014E-5,2.4961828E-5,3.3343815E-5,1.1683253E-4,2.6206832E-4,1.0826619E-4,-3.6619902E-5,-1.5244423E-4,-5.2070554E-5,1.0605779E-4,1.109975E-6,-5.3860906E-5,5.889488E-5,-1.2601986E-5,-4.565698E-5,1.1333013E-4,-1.319003E-4,1.3360914E-4,1.0058646E-5,-3.0443948E-4,2.5497942E-5,2.3368727E-4],"split_indices":[157,87,58,120,0,46,30,143,54,86,57,12,76,46,57,0,35,28,7,133,63,58,36,33,12,154,148,0,12,0,0,19,12,0,0,7,79,0,34,54,59,132,59,120,35,0,36,0,0,0,0,0,0,0,0,0,0,0,0,0,0,0,0,0,0,0,0,0,0,0,0,0,0,0,0,0,0],"split_type":[0,0,0,0,0,0,0,0,0,0,0,0,0,0,0,0,0,0,0,0,0,0,0,0,0,0,0,0,0,0,0,0,0,0,0,0,0,0,0,0,0,0,0,0,0,0,0,0,0,0,0,0,0,0,0,0,0,0,0,0,0,0,0,0,0,0,0,0,0,0,0,0,0,0,0,0,0],"sum_hessian":[5.755E3,1.3E2,5.625E3,1.25E2,5E0,5.3E1,5.572E3,1.16E2,9E0,1.8E1,3.5E1,5.533E3,3.9E1,1.04E2,1.2E1,2E0,7E0,1.2E1,6E0,2.5E1,1E1,4.829E3,7.04E2,3E1,9E0,2.9E1,7.5E1,8E0,4E0,6E0,1E0,6E0,6E0,5E0,1E0,5E0,2E1,4E0,6E0,4.2E1,4.787E3,4.68E2,2.36E2,1.5E1,1.5E1,2E0,7E0,1E1,1.9E1,3E0,7.2E1,1E0,3E0,5E0,1E0,4E0,2E0,4E0,1E0,1.6E1,4E0,3E0,3E0,1.2E1,3E1,4.746E3,4.1E1,3.7E1,4.31E2,2.28E2,8E0,1.2E1,3E0,2E0,1.3E1,2E0,5E0],"tree_param":{"num_deleted":"0","num_feature":"161","num_nodes":"77","size_leaf_vector":"1"}},{"base_weights":[-1.3372106E-4,1.2699248E-2,-1.8507433E-4,2.1008829E-2,-1.4346032E-2,-7.823837E-3,-1.2609667E-4,2.7465908E-2,-2.0431873E-4,1.8801946E-4,-2.4736018E-4,1.3250384E-2,-1.2875062E-2,3.2310036E-3,-3.0789044E-4,3.0125147E-2,-6.211346E-5,3.690863E-4,2.3481604E-2,-1.6934441E-2,3.44957E-3,-1.06472345E-2,3.8101096E-3,-6.686058E-5,-2.0100866E-3,3.243178E-2,1.00880134E-4,-5.0865794E-5,5.7017234E-5,2.7689605E-4,3.324795E-5,-8.302524E-3,-2.4437398E-2,-7.327342E-3,1.1381186E-2,-2.4671337E-4,-5.5126473E-4,4.147656E-3,-2.0686265E-2,-1.4361985E-5,-7.7902675E-3,-2.5885296E-3,4.647096E-3,3.361063E-4,9.142795E-5,-1.2603265E-4,2.4913536E-6,-2.8798144E-4,2.604974E-5,-2.9494606E-5,-1.02304926E-4,6.69718E-6,1.3891622E-4,6.4699445E-5,-6.057979E-5,-3.5670444E-5,5.161572E-5,-2.5651467E-4,-2.8953256E-5,1.01735815E-4,-6.653789E-7,-1.6798864E-5,-1.7834245E-4,-2.3317169E-5,-1.3501609E-4,1.442458E-5,1.3700173E-4],"categories":[],"categories_nodes":[],"categories_segments":[],"categories_sizes":[],"default_left":[0,0,0,0,0,0,0,0,0,0,0,0,0,0,0,0,0,0,0,0,0,0,0,0,0,0,0,0,0,0,0,0,0,0,0,0,0,0,0,0,0,0,0,0,0,0,0,0,0,0,0,0,0,0,0,0,0,0,0,0,0,0,0,0,0,0,0],"id":4,"left_children":[1,3,5,7,9,11,13,15,-1,-1,-1,17,19,21,23,25,-1,27,29,31,33,35,37,39,41,43,-1,-1,-1,-1,-1,45,47,49,51,-1,53,55,57,59,61,63,65,-1,-1,-1,-1,-1,-1,-1,-1,-1,-1,-1,-1,-1,-1,-1,-1,-1,-1,-1,-1,-1,-1,-1,-1],"loss_changes":[3.80289E-3,5.470297E-3,2.58723E-3,5.3777248E-3,2.531527E-3,4.8544286E-3,3.4809248E-3,1.6200123E-3,0E0,0E0,0E0,1.1774556E-3,2.4440596E-3,2.3953991E-3,2.219481E-3,3.6610384E-4,0E0,1.744677E-4,3.3203722E-4,1.675291E-3,7.6722045E-4,1.6854428E-3,2.4175607E-3,1.9218064E-3,2.5959169E-3,4.960876E-5,0E0,0E0,0E0,0E0,0E0,5.5481715E-4,1.843893E-3,2.066417E-5,1.2514886E-4,0E0,3.4850513E-4,2.2007683E-3,2.7907314E-4,2.5038174E-3,1.9339614E-3,1.700535E-3,1.5468771E-3,0E0,0E0,0E0,0E0,0E0,0E0,0E0,0E0,0E0,0E0,0E0,0E0,0E0,0E0,0E0,0E0,0E0,0E0,0E0,0E0,0E0,0E0,0E0,0E0],"parents":[2147483647,0,0,1,1,2,2,3,3,4,4,5,5,6,6,7,7,11,11,12,12,13,13,14,14,15,15,17,17,18,18,19,19,20,20,21,21,22,22,23,23,24,24,25,25,31,31,32,32,33,33,34,34,36,36,37,37,38,38,39,39,40,40,41,41,42,42],"right_children":[2,4,6,8,10,12,14,16,-1,-1,-1,18,20,22,24,26,-1,28,30,32,34,36,38,40,42,44,-1,-1,-1,-1,-1,46,48,50,52,-1,54,56,58,60,62,64,66,-1,-1,-1,-1,-1,-1,-1,-1,-1,-1,-1,-1,-1,-1,-1,-1,-1,-1,-1,-1,-1,-1,-1,-1],"split_conditions":[-4.485699E0,8.7554115E-1,-2.5670795E0,7.435763E-1,-1.7209302E-1,6.6118765E-1,-1.6940358E0,5.7220095E-1,-2.0431873E-4,1.8801946E-4,-2.4736018E-4,1.447447E0,1.1428572E0,-6.9195044E-1,6.21831E0,-2.5166366E-1,-6.211346E-5,-9.8362094E-1,-6.32778E-1,3.1936128E-2,3.5941574E-1,-8.0089664E-1,1.4218929E0,3.1809082E0,3.9269853E0,1E0,1.00880134E-4,-5.0865794E-5,5.7017234E-5,2.7689605E-4,3.324795E-5,-1.8773735E-1,-2.5415444E-1,7.0422534E-3,4.3255815E-1,-2.4671337E-4,-4.8480725E-1,-4.0961522E-1,3.6101222E0,-2.4353402E0,1.9070373E-1,1.8546523E0,-1.0255443E-1,3.361063E-4,9.142795E-5,-1.2603265E-4,2.4913536E-6,-2.8798144E-4,2.604974E-5,-2.9494606E-5,-1.02304926E-4,6.69718E-6,1.3891622E-4,6.4699445E-5,-6.057979E-5,-3.5670444E-5,5.161572E-5,-2.5651467E-4,-2.8953256E-5,1.01735815E-4,-6.653789E-7,-1.6798864E-5,-1.7834245E-4,-2.3317169E-5,-1.3501609E-4,1.442458E-5,1.3700173E-4],"split_indices":[50,87,16,101,11,102,50,39,0,0,0,49,13,101,12,60,0,39,9,70,54,124,16,50,65,2,0,0,0,0,0,101,56,12,11,0,15,127,19,67,68,91,53,0,0,0,0,0,0,0,0,0,0,0,0,0,0,0,0,0,0,0,0,0,0,0,0],"split_type":[0,0,0,0,0,0,0,0,0,0,0,0,0,0,0,0,0,0,0,0,0,0,0,0,0,0,0,0,0,0,0,0,0,0,0,0,0,0,0,0,0,0,0,0,0,0,0,0,0,0,0,0,0,0,0,0,0,0,0,0,0,0,0,0,0,0,0],"sum_hessian":[5.766E3,2.2E1,5.744E3,1.7E1,5E0,4.3E1,5.701E3,1.5E1,2E0,1E0,4E0,8E0,3.5E1,2.92E2,5.409E3,1.4E1,1E0,4E0,4E0,2.8E1,7E0,1.1E1,2.81E2,4.739E3,6.7E2,1.2E1,2E0,2E0,2E0,3E0,1E0,1.4E1,1.4E1,3E0,4E0,4E0,7E0,2.78E2,3E0,4.708E3,3.1E1,6.17E2,5.3E1,1.1E1,1E0,9E0,5E0,1.2E1,2E0,2E0,1E0,1E0,3E0,3E0,4E0,3.2E1,2.46E2,2E0,1E0,2.3E1,4.685E3,2E1,1.1E1,6.04E2,1.3E1,4E1,1.3E1],"tree_param":{"num_deleted":"0","num_feature":"161","num_nodes":"67","size_leaf_vector":"1"}},{"base_weights":[-3.0919313E-5,6.2099863E-3,-1.3811963E-4,-1.055087E-2,1.0113065E-2,-1.4296291E-2,-1.057651E-4,2.2552023E-4,-1.8167162E-2,1.293469E-2,-1.0931783E-2,-2.689715E-2,2.0779924E-2,1.1323708E-2,-1.5210122E-4,3.473255E-3,-2.5670074E-2,1.5943648E-2,-1.7163268E-3,-2.3621228E-4,1.4647178E-3,-3.0916522E-4,-7.213104E-5,3.430663E-5,2.5419457E-4,-8.919358E-3,1.8992987E-2,-1.0751451E-4,-8.260538E-3,-4.683111E-3,1.8049359E-4,-2.86214E-4,-7.275629E-5,2.037608E-2,6.9527663E-3,8.293136E-3,-1.9390095E-2,-5.2625506E-5,3.8626818E-3,1.1078682E-2,-1.9134311E-2,2.1208595E-2,-8.228373E-5,-1.8294922E-4,4.298211E-3,-7.565341E-4,-1.6214373E-2,-1.5007313E-5,-7.115125E-5,2.9280374E-4,1.5334159E-4,-6.8185844E-5,1.5951949E-4,1.8969295E-4,4.587454E-5,-2.4814214E-4,-7.5026095E-5,7.75604E-6,5.6621986E-5,1.5722934E-4,8.950891E-6,-2.4863624E-4,-7.026893E-5,2.693764E-4,7.170579E-5,-1.5421984E-6,-1.3421524E-4,3.178342E-5,2.3820184E-4,2.8651068E-5,-1.3243144E-4,-2.101353E-4,-5.5133816E-5],"categories":[],"categories_nodes":[],"categories_segments":[],"categories_sizes":[],"default_left":[0,0,0,0,0,0,0,0,0,0,0,0,0,0,0,0,0,0,0,0,0,0,0,0,0,0,0,0,0,0,0,0,0,0,0,0,0,0,0,0,0,0,0,0,0,0,0,0,0,0,0,0,0,0,0,0,0,0,0,0,0,0,0,0,0,0,0,0,0,0,0,0,0],"id":5,"left_children":[1,3,5,7,9,11,13,-1,15,17,19,21,23,25,27,29,31,33,35,-1,37,-1,-1,-1,-1,39,41,43,45,47,-1,-1,-1,49,51,53,55,-1,57,59,61,63,-1,65,67,69,71,-1,-1,-1,-1,-1,-1,-1,-1,-1,-1,-1,-1,-1,-1,-1,-1,-1,-1,-1,-1,-1,-1,-1,-1,-1,-1],"loss_changes":[3.8825532E-3,6.5177577E-3,2.6118401E-3,5.2000117E-3,4.891854E-3,6.304795E-3,3.01672E-3,0E0,2.6870165E-3,3.1573493E-3,1.6076453E-3,5.6817103E-4,2.3476419E-4,3.7401496E-3,2.0493402E-3,6.7896734E-4,4.432164E-4,2.2095675E-3,2.460569E-3,0E0,1.17118034E-4,0E0,0E0,0E0,0E0,1.6419361E-3,1.199814E-3,1.8755427E-3,1.837987E-3,2.0280473E-5,0E0,0E0,0E0,1.3019051E-3,2.7113194E-3,2.6904122E-4,1.3622444E-4,0E0,2.3384622E-5,1.2781206E-4,1.7212203E-4,1.0936325E-3,0E0,2.1076545E-3,2.001186E-3,8.067173E-4,6.544804E-4,0E0,0E0,0E0,0E0,0E0,0E0,0E0,0E0,0E0,0E0,0E0,0E0,0E0,0E0,0E0,0E0,0E0,0E0,0E0,0E0,0E0,0E0,0E0,0E0,0E0,0E0],"parents":[2147483647,0,0,1,1,2,2,3,3,4,4,5,5,6,6,8,8,9,9,10,10,11,11,12,12,13,13,14,14,15,15,16,16,17,17,18,18,20,20,25,25,26,26,27,27,28,28,29,29,33,33,34,34,35,35,36,36,38,38,39,39,40,40,41,41,43,43,44,44,45,45,46,46],"right_children":[2,4,6,8,10,12,14,-1,16,18,20,22,24,26,28,30,32,34,36,-1,38,-1,-1,-1,-1,40,42,44,46,48,-1,-1,-1,50,52,54,56,-1,58,60,62,64,-1,66,68,70,72,-1,-1,-1,-1,-1,-1,-1,-1,-1,-1,-1,-1,-1,-1,-1,-1,-1,-1,-1,-1,-1,-1,-1,-1,-1,-1],"split_conditions":[-2.8860323E0,-6.330615E-1,-1.9772893E0,-2.2920021E-1,1.1398289E0,1.2833477E0,-2.9477391E0,2.2552023E-4,4.5127053E0,1.0297146E0,-1.180891E-1,8.944939E0,-2E-1,-4.0190447E-2,2.1077465E1,3.846154E-1,-3.6928532E-1,-1.9876235E0,3.9667204E-1,-2.3621228E-4,0E0,-3.0916522E-4,-7.213104E-5,3.430663E-5,2.5419457E-4,2.1449602E0,1E0,1.8166084E0,5.1466274E-1,1E0,1.8049359E-4,-2.86214E-4,-7.275629E-5,-2.9826704E-1,-2.501613E-1,-1.8139535E-1,3.906977E-1,-5.2625506E-5,-3.7300625E0,0E0,2.356046E0,1.1029971E0,-8.228373E-5,2.5166965E0,3.9205816E0,1.8466859E-1,-1.0997747E0,-1.5007313E-5,-7.115125E-5,2.9280374E-4,1.5334159E-4,-6.8185844E-5,1.5951949E-4,1.8969295E-4,4.587454E-5,-2.4814214E-4,-7.5026095E-5,7.75604E-6,5.6621986E-5,1.5722934E-4,8.950891E-6,-2.4863624E-4,-7.026893E-5,2.693764E-4,7.170579E-5,-1.5421984E-6,-1.3421524E-4,3.178342E-5,2.3820184E-4,2.8651068E-5,-1.3243144E-4,-2.101353E-4,-5.5133816E-5],"split_indices":[50,107,22,63,101,131,159,0,65,55,63,65,11,135,12,14,20,155,63,0,5,0,0,0,0,19,0,122,56,4,0,0,0,129,127,11,11,0,50,5,19,66,0,30,19,130,130,0,0,0,0,0,0,0,0,0,0,0,0,0,0,0,0,0,0,0,0,0,0,0,0,0,0],"split_type":[0,0,0,0,0,0,0,0,0,0,0,0,0,0,0,0,0,0,0,0,0,0,0,0,0,0,0,0,0,0,0,0,0,0,0,0,0,0,0,0,0,0,0,0,0,0,0,0,0,0,0,0,0,0,0,0,0,0,0,0,0,0,0,0,0,0,0,0,0,0,0,0,0],"sum_hessian":[5.801E3,9.7E1,5.704E3,1.8E1,7.9E1,1.2E1,5.692E3,3E0,1.5E1,7E1,9E0,9E0,3E0,2.2E1,5.67E3,4E0,1.1E1,5.8E1,1.2E1,4E0,5E0,7E0,2E0,1E0,2E0,6E0,1.6E1,5.64E3,3E1,3E0,1E0,9E0,2E0,3.8E1,2E1,8E0,4E0,1E0,4E0,2E0,4E0,1.5E1,1E0,5.546E3,9.4E1,1.6E1,1.4E1,2E0,1E0,1.2E1,2.6E1,8E0,1.2E1,1E0,7E0,2E0,2E0,2E0,2E0,1E0,1E0,2E0,2E0,1E1,5E0,5.535E3,1.1E1,9E1,4E0,1.3E1,3E0,9E0,5E0],"tree_param":{"num_deleted":"0","num_feature":"161","num_nodes":"73","size_leaf_vector":"1"}},{"base_weights":[-6.4908854E-5,-1.2680078E-4,7.5936094E-3,-5.4153423E-3,2.67518E-6,-1.227348E-2,1.088051E-2,-1.3981994E-2,-1.7002579E-3,5.8670263E-3,-1.3337913E-4,7.307954E-5,-1.6755045E-4,4.871381E-3,2.6279906E-2,1.4432699E-2,-1.6605068E-2,-4.3174787E-3,1.3937568E-2,2.259158E-2,4.5417044E-3,-6.234987E-5,-6.1845332E-3,-4.920463E-3,9.302193E-3,3.1347745E-4,9.574251E-5,1.8502447E-4,1.11172785E-5,1.8186138E-4,-1.9043082E-2,-9.578133E-4,-1.3589377E-2,-6.927095E-3,2.2976143E-2,2.59213E-4,1.1949104E-4,6.6561904E-3,-9.354155E-3,-2.827033E-5,-1.019187E-2,2.4180126E-3,-8.923204E-3,-1.1924203E-2,1.7360637E-3,1.089654E-2,-3.896066E-3,-4.5363442E-5,-2.3025853E-4,5.3494674E-5,-4.5605542E-5,-2.535857E-4,-8.636169E-5,-1.0502648E-4,3.6875586E-5,2.9830876E-4,5.2363237E-5,3.749019E-5,1.5576603E-4,-1.6025142E-4,8.527048E-5,-1.9931501E-6,1.7162298E-5,8.073021E-5,-1.783783E-4,-2.971734E-5,4.4622393E-5,-6.024976E-5,-2.266122E-4,-1.5082862E-4,-4.7908095E-5,4.394514E-5,-6.9178996E-6,1.2932767E-4,4.3292548E-5,-5.863787E-5,1.968806E-7],"categories":[],"categories_nodes":[],"categories_segments":[],"categories_sizes":[],"default_left":[0,0,0,0,0,0,0,0,0,0,0,0,0,0,0,0,0,0,0,0,0,0,0,0,0,0,0,0,0,0,0,0,0,0,0,0,0,0,0,0,0,0,0,0,0,0,0,0,0,0,0,0,0,0,0,0,0,0,0,0,0,0,0,0,0,0,0,0,0,0,0,0,0,0,0,0,0],"id":6,"left_children":[1,3,5,7,9,11,13,15,17,19,21,-1,-1,23,25,27,29,31,33,35,37,39,41,43,45,-1,-1,-1,-1,-1,47,49,51,53,55,-1,-1,57,59,61,63,65,67,69,71,73,75,-1,-1,-1,-1,-1,-1,-1,-1,-1,-1,-1,-1,-1,-1,-1,-1,-1,-1,-1,-1,-1,-1,-1,-1,-1,-1,-1,-1,-1,-1],"loss_changes":[2.7198296E-3,3.8968637E-3,3.1373943E-3,4.3045403E-3,4.4337497E-3,7.367332E-4,3.573459E-3,3.2955427E-3,3.9892285E-3,2.6902384E-3,2.333907E-3,0E0,0E0,1.3473458E-3,6.311466E-4,1.9628229E-4,3.5695368E-3,2.5724731E-3,2.7993734E-3,9.191688E-6,3.5294094E-3,1.8531411E-3,1.5058275E-3,4.8690703E-4,4.8434816E-4,0E0,0E0,0E0,0E0,0E0,1.9755196E-3,1.4332534E-3,1.063495E-3,2.2849541E-4,1.0598134E-3,0E0,0E0,2.6127193E-3,2.045212E-3,1.5973118E-3,2.657753E-3,1.8954641E-4,1.7746303E-3,4.0400715E-5,4.1766052E-5,1.9808789E-4,2.3230787E-5,0E0,0E0,0E0,0E0,0E0,0E0,0E0,0E0,0E0,0E0,0E0,0E0,0E0,0E0,0E0,0E0,0E0,0E0,0E0,0E0,0E0,0E0,0E0,0E0,0E0,0E0,0E0,0E0,0E0,0E0],"parents":[2147483647,0,0,1,1,2,2,3,3,4,4,5,5,6,6,7,7,8,8,9,9,10,10,13,13,14,14,15,15,16,16,17,17,18,18,19,19,20,20,21,21,22,22,23,23,24,24,30,30,31,31,32,32,33,33,34,34,37,37,38,38,39,39,40,40,41,41,42,42,43,43,44,44,45,45,46,46],"right_children":[2,4,6,8,10,12,14,16,18,20,22,-1,-1,24,26,28,30,32,34,36,38,40,42,44,46,-1,-1,-1,-1,-1,48,50,52,54,56,-1,-1,58,60,62,64,66,68,70,72,74,76,-1,-1,-1,-1,-1,-1,-1,-1,-1,-1,-1,-1,-1,-1,-1,-1,-1,-1,-1,-1,-1,-1,-1,-1,-1,-1,-1,-1,-1,-1],"split_conditions":[2.1482856E0,-2.5210352E0,2.2216368E-2,-3.277635E-1,-1.9876235E0,5.7142857E-2,1.2846798E0,-5.128094E-1,5.2938616E-1,-4.485699E0,1.32E1,7.307954E-5,-1.6755045E-4,-7.268151E-1,2.090593E0,1E0,2.571778E-1,-9.139733E-1,-2.5863032E0,6.2937066E-2,4.355968E0,3.1460578E0,8.226221E-2,-7.2410256E-1,6.131528E-1,3.1347745E-4,9.574251E-5,1.8502447E-4,1.11172785E-5,1.8186138E-4,-6.266816E-1,-3.8415524E-1,3.0270794E-1,-6.624123E-1,3.1809082E0,2.59213E-4,1.1949104E-4,1.2481606E0,1E0,1.2821991E0,-1.2658514E0,-5.798733E-1,-1.5551694E-1,7.935658E-1,7.4535936E-1,1.2579362E-1,0E0,-4.5363442E-5,-2.3025853E-4,5.3494674E-5,-4.5605542E-5,-2.535857E-4,-8.636169E-5,-1.0502648E-4,3.6875586E-5,2.9830876E-4,5.2363237E-5,3.749019E-5,1.5576603E-4,-1.6025142E-4,8.527048E-5,-1.9931501E-6,1.7162298E-5,8.073021E-5,-1.783783E-4,-2.971734E-5,4.4622393E-5,-6.024976E-5,-2.266122E-4,-1.5082862E-4,-4.7908095E-5,4.394514E-5,-6.9178996E-6,1.2932767E-4,4.3292548E-5,-5.863787E-5,1.968806E-7],"split_indices":[122,79,119,44,155,13,61,144,24,50,11,0,0,48,50,7,156,130,48,71,85,158,44,106,80,0,0,0,0,0,34,101,80,9,50,0,0,91,8,85,157,85,68,49,10,109,5,0,0,0,0,0,0,0,0,0,0,0,0,0,0,0,0,0,0,0,0,0,0,0,0,0,0,0,0,0,0],"split_type":[0,0,0,0,0,0,0,0,0,0,0,0,0,0,0,0,0,0,0,0,0,0,0,0,0,0,0,0,0,0,0,0,0,0,0,0,0,0,0,0,0,0,0,0,0,0,0,0,0,0,0,0,0,0,0,0,0,0,0,0,0,0,0,0,0,0,0,0,0,0,0,0,0,0,0,0,0],"sum_hessian":[5.735E3,5.69E3,4.5E1,1.35E2,5.555E3,6E0,3.9E1,4E1,9.5E1,1.25E2,5.43E3,1E0,5E0,2.9E1,1E1,3E0,3.7E1,8.2E1,1.3E1,8E0,1.17E2,5.368E3,6.2E1,9E0,2E1,7E0,3E0,2E0,1E0,2E0,3.5E1,6.1E1,2.1E1,4E0,9E0,5E0,3E0,1.02E2,1.5E1,5.351E3,1.7E1,1.5E1,4.7E1,4E0,5E0,1.8E1,2E0,8E0,2.7E1,2.2E1,3.9E1,5E0,1.6E1,3E0,1E0,6E0,3E0,7.8E1,2.4E1,1.1E1,4E0,4.874E3,4.77E2,5E0,1.2E1,4E0,1.1E1,4E1,7E0,2E0,2E0,2E0,3E0,1.3E1,5E0,1E0,1E0],"tree_param":{"num_deleted":"0","num_feature":"161","num_nodes":"77","size_leaf_vector":"1"}},{"base_weights":[1.01496495E-4,4.7124515E-5,1.2598642E-2,1.10047484E-4,-8.112481E-3,2.2479102E-2,2.1552221E-5,6.647748E-3,-2.0866442E-5,2.8083174E-4,-1.14458995E-2,2.5445974E-2,3.1185875E-5,-1.4153967E-4,6.319388E-3,-7.1342205E-5,1.187484E-2,4.154467E-5,-5.1699374E-3,-7.506355E-4,-2.650094E-2,3.315424E-5,2.7156439E-2,1.0675933E-2,-5.9523463E-5,-4.5863437E-3,2.1006592E-2,-2.045152E-4,1.3269991E-2,7.328595E-3,-3.5511011E-6,-1.763519E-2,-3.421738E-3,2.0731512E-2,-4.622361E-3,-2.9542428E-2,-2.4598583E-3,6.1692896E-5,2.8638225E-2,3.5097357E-5,1.2840464E-4,4.5773257E-5,-1.3125013E-4,2.5175713E-4,-6.173185E-5,1.5848358E-4,-1.4645214E-5,1.3644913E-4,-2.6693548E-5,1.1035524E-6,-2.413942E-5,-2.1637577E-4,5.190758E-5,2.103922E-6,-7.8688005E-5,2.3799819E-4,5.763296E-5,-1.0050376E-4,1.5842968E-4,-3.2551188E-4,-6.656995E-5,-7.055426E-5,3.365639E-5,3.1198282E-4,1.2265328E-4],"categories":[],"categories_nodes":[],"categories_segments":[],"categories_sizes":[],"default_left":[0,0,0,0,0,0,0,0,0,0,0,0,0,0,0,0,0,0,0,0,0,0,0,0,0,0,0,0,0,0,0,0,0,0,0,0,0,0,0,0,0,0,0,0,0,0,0,0,0,0,0,0,0,0,0,0,0,0,0,0,0,0,0,0,0],"id":7,"left_children":[1,3,5,7,9,11,13,15,17,-1,19,21,-1,-1,23,25,27,29,31,33,35,-1,37,39,-1,41,43,-1,45,47,49,51,53,55,57,59,61,-1,63,-1,-1,-1,-1,-1,-1,-1,-1,-1,-1,-1,-1,-1,-1,-1,-1,-1,-1,-1,-1,-1,-1,-1,-1,-1,-1],"loss_changes":[3.921449E-3,2.9520688E-3,3.1062015E-3,4.8829117E-3,5.630268E-3,7.2480645E-4,1.1607455E-3,3.934432E-3,1.7978984E-3,0E0,6.581831E-3,3.6420673E-4,0E0,0E0,5.4470816E-4,4.854689E-3,3.1127026E-3,1.8166106E-3,1.3997044E-3,2.1751532E-3,1.17038E-3,0E0,1.6540661E-4,6.351364E-5,0E0,3.34639E-3,1.1752564E-3,0E0,2.3406604E-3,2.1835314E-3,1.5089673E-3,8.4318174E-4,9.707941E-4,4.6542962E-5,2.603123E-3,8.161571E-4,1.04060426E-4,0E0,3.649853E-5,0E0,0E0,0E0,0E0,0E0,0E0,0E0,0E0,0E0,0E0,0E0,0E0,0E0,0E0,0E0,0E0,0E0,0E0,0E0,0E0,0E0,0E0,0E0,0E0,0E0,0E0],"parents":[2147483647,0,0,1,1,2,2,3,3,4,4,5,5,6,6,7,7,8,8,10,10,11,11,14,14,15,15,16,16,17,17,18,18,19,19,20,20,22,22,23,23,25,25,26,26,28,28,29,29,30,30,31,31,32,32,33,33,34,34,35,35,36,36,38,38],"right_children":[2,4,6,8,10,12,14,16,18,-1,20,22,-1,-1,24,26,28,30,32,34,36,-1,38,40,-1,42,44,-1,46,48,50,52,54,56,58,60,62,-1,64,-1,-1,-1,-1,-1,-1,-1,-1,-1,-1,-1,-1,-1,-1,-1,-1,-1,-1,-1,-1,-1,-1,-1,-1,-1,-1],"split_conditions":[2.3407655E0,2.5166965E0,4.6564195E-1,-2.0982122E0,-5.82394E-1,7.57087E-1,-1.1635386E0,-7.692308E-2,1.32E1,2.8083174E-4,-6.0260557E-2,-5.6390136E-1,3.1185875E-5,-1.4153967E-4,-2.8945554E-2,6.8644934E0,-1.1124785E0,-2.2864485E0,-6.5891474E-1,2.1449602E0,1.313358E0,3.315424E-5,-2.0930232E-1,1.0154347E0,-5.9523463E-5,-5.3846157E-1,6.653201E0,-2.045152E-4,1E0,5.5744255E-1,1.7036724E0,1E0,5.27635E-1,1E0,8.701299E-1,3.0013347E-1,0E0,6.1692896E-5,-1.4389777E-1,3.5097357E-5,1.2840464E-4,4.5773257E-5,-1.3125013E-4,2.5175713E-4,-6.173185E-5,1.5848358E-4,-1.4645214E-5,1.3644913E-4,-2.6693548E-5,1.1035524E-6,-2.413942E-5,-2.1637577E-4,5.190758E-5,2.103922E-6,-7.8688005E-5,2.3799819E-4,5.763296E-5,-1.0050376E-4,1.5842968E-4,-3.2551188E-4,-6.656995E-5,-7.055426E-5,3.365639E-5,3.1198282E-4,1.2265328E-4],"split_indices":[122,30,31,157,63,56,64,14,11,0,143,34,0,0,29,76,48,159,77,19,119,0,11,19,0,14,19,0,7,71,50,8,44,2,87,143,3,0,16,0,0,0,0,0,0,0,0,0,0,0,0,0,0,0,0,0,0,0,0,0,0,0,0,0,0],"split_type":[0,0,0,0,0,0,0,0,0,0,0,0,0,0,0,0,0,0,0,0,0,0,0,0,0,0,0,0,0,0,0,0,0,0,0,0,0,0,0,0,0,0,0,0,0,0,0,0,0,0,0,0,0,0,0,0,0,0,0,0,0,0,0,0,0],"sum_hessian":[5.771E3,5.747E3,2.4E1,5.704E3,4.3E1,1.3E1,1.1E1,1.11E2,5.593E3,3E0,4E1,1.1E1,2E0,3E0,8E0,4.9E1,6.2E1,5.527E3,6.6E1,2.4E1,1.6E1,1E0,1E1,6E0,2E0,4.1E1,8E0,2E0,6E1,3.3E1,5.494E3,7E0,5.9E1,3E0,2.1E1,1.4E1,2E0,1E0,9E0,2E0,4E0,2E1,2.1E1,7E0,1E0,5.1E1,9E0,2E1,1.3E1,5.247E3,2.47E2,6E0,1E0,3.3E1,2.6E1,2E0,1E0,1.7E1,4E0,1.2E1,2E0,1E0,1E0,7E0,2E0],"tree_param":{"num_deleted":"0","num_feature":"161","num_nodes":"65","size_leaf_vector":"1"}},{"base_weights":[-6.2453844E-5,1.3138443E-2,-1.17696094E-4,1.9199464E-2,-1.3733331E-2,-5.8647493E-5,-8.967227E-3,2.6246704E-2,-1.6185462E-3,-2.062436E-4,6.915392E-5,-1.3777064E-4,6.3970457E-3,8.799962E-3,-1.7505929E-2,3.17046E-2,3.311335E-3,5.1826127E-3,-6.3147787E-3,1.21597885E-4,-1.9672534E-3,-9.2116585E-3,1.0184988E-2,2.009949E-2,-7.732737E-3,6.1563393E-3,-2.8364511E-2,3.294849E-4,9.010916E-5,1.804365E-4,-7.613986E-5,6.939744E-5,8.341746E-6,-7.686206E-5,-1.1002485E-5,1.5627967E-4,-1.6960938E-2,-1.3938863E-3,-7.0190937E-3,1.1268706E-3,-1.9711169E-4,1.2204299E-2,-1.911712E-4,-6.951239E-5,2.4956914E-2,-1.6291885E-4,6.257039E-5,-1.6253542E-4,1.4881097E-2,-3.185052E-2,-3.1761607E-4,4.1627878E-5,1.6435935E-7,-2.1918508E-4,1.3828606E-4,-1.1146615E-5,-1.1380404E-4,-4.729608E-5,-1.7881596E-4,7.915612E-5,-4.529497E-5,1.924954E-4,2.8892346E-5,2.7204907E-4,5.7344794E-5,2.5908195E-4,1.3372535E-6,-4.7570928E-5,-3.333961E-4,5.741973E-5,-6.218397E-5],"categories":[],"categories_nodes":[],"categories_segments":[],"categories_sizes":[],"default_left":[0,0,0,0,0,0,0,0,0,0,0,0,0,0,0,0,0,0,0,0,0,0,0,0,0,0,0,0,0,0,0,0,0,0,0,0,0,0,0,0,0,0,0,0,0,0,0,0,0,0,0,0,0,0,0,0,0,0,0,0,0,0,0,0,0,0,0,0,0,0,0],"id":8,"left_children":[1,3,5,7,9,11,13,15,17,-1,-1,19,21,23,25,27,29,31,33,35,37,39,41,43,45,47,49,-1,-1,-1,-1,-1,-1,-1,-1,51,53,55,57,59,-1,61,-1,-1,63,-1,-1,-1,65,67,69,-1,-1,-1,-1,-1,-1,-1,-1,-1,-1,-1,-1,-1,-1,-1,-1,-1,-1,-1,-1],"loss_changes":[4.199823E-3,4.172562E-3,2.99579E-3,2.9766713E-3,8.540803E-4,2.9108792E-3,5.9189824E-3,1.772699E-3,2.2436601E-4,0E0,0E0,2.6712571E-3,4.173437E-3,2.5839764E-3,6.8550278E-3,4.1844323E-5,7.8120525E-4,1.7133374E-5,2.0148655E-5,2.9240355E-3,2.0149108E-3,1.5419048E-3,3.5468345E-3,1.2246566E-3,8.203824E-4,2.0015577E-3,1.7497754E-3,0E0,0E0,0E0,0E0,0E0,0E0,0E0,0E0,2.7576548E-3,1.8295161E-3,1.7412697E-3,1.6811644E-3,3.4305072E-4,0E0,3.4226077E-3,0E0,0E0,1.4647702E-4,0E0,0E0,0E0,1.1348804E-3,4.869122E-4,1.429748E-4,0E0,0E0,0E0,0E0,0E0,0E0,0E0,0E0,0E0,0E0,0E0,0E0,0E0,0E0,0E0,0E0,0E0,0E0,0E0,0E0],"parents":[2147483647,0,0,1,1,2,2,3,3,4,4,5,5,6,6,7,7,8,8,11,11,12,12,13,13,14,14,15,15,16,16,17,17,18,18,19,19,20,20,21,21,22,22,23,23,24,24,25,25,26,26,35,35,36,36,37,37,38,38,39,39,41,41,44,44,48,48,49,49,50,50],"right_children":[2,4,6,8,10,12,14,16,18,-1,-1,20,22,24,26,28,30,32,34,36,38,40,42,44,46,48,50,-1,-1,-1,-1,-1,-1,-1,-1,52,54,56,58,60,-1,62,-1,-1,64,-1,-1,-1,66,68,70,-1,-1,-1,-1,-1,-1,-1,-1,-1,-1,-1,-1,-1,-1,-1,-1,-1,-1,-1,-1],"split_conditions":[-3.3869464E0,4.8664945E-1,2.5166965E0,-3.229132E0,0E0,2.5018997E0,-7.4593127E-1,5.1974815E-1,-4.0011448E-1,-2.062436E-4,6.915392E-5,6.21831E0,-2.5385818E-2,-1.4366014E0,-5.9885657E-1,1E0,3.906977E-1,0E0,0E0,4.2549734E0,1.3299626E-1,2.6809867E-2,6.8644934E0,-4.0152964E-1,7.1336555E-1,-1.5535587E0,1.5018828E-1,3.294849E-4,9.010916E-5,1.804365E-4,-7.613986E-5,6.939744E-5,8.341746E-6,-7.686206E-5,-1.1002485E-5,-1.674407E0,4.3255815E-1,1.2293952E0,5.2414924E-1,-2.3470051E0,-1.9711169E-4,-1.0482762E0,-1.911712E-4,-6.951239E-5,1E0,-1.6291885E-4,6.257039E-5,-1.6253542E-4,5.903326E-1,-7.5971526E-1,0E0,4.1627878E-5,1.6435935E-7,-2.1918508E-4,1.3828606E-4,-1.1146615E-5,-1.1380404E-4,-4.729608E-5,-1.7881596E-4,7.915612E-5,-4.529497E-5,1.924954E-4,2.8892346E-5,2.7204907E-4,5.7344794E-5,2.5908195E-4,1.3372535E-6,-4.7570928E-5,-3.333961E-4,5.741973E-5,-6.218397E-5],"split_indices":[155,128,30,50,3,158,31,32,32,0,0,12,149,57,132,2,11,3,3,27,39,50,76,36,63,17,72,0,0,0,0,0,0,0,0,155,11,125,141,79,0,64,0,0,2,0,0,0,66,9,5,0,0,0,0,0,0,0,0,0,0,0,0,0,0,0,0,0,0,0,0],"split_type":[0,0,0,0,0,0,0,0,0,0,0,0,0,0,0,0,0,0,0,0,0,0,0,0,0,0,0,0,0,0,0,0,0,0,0,0,0,0,0,0,0,0,0,0,0,0,0,0,0,0,0,0,0,0,0,0,0,0,0,0,0,0,0,0,0,0,0,0,0,0,0],"sum_hessian":[5.756E3,2.3E1,5.733E3,1.9E1,4E0,5.696E3,3.7E1,1.4E1,5E0,3E0,1E0,5.628E3,6.8E1,1.2E1,2.5E1,1.1E1,3E0,2E0,3E0,4.93E3,6.98E2,1.3E1,5.5E1,7E0,5E0,8E0,1.7E1,1E1,1E0,1E0,2E0,1E0,1E0,2E0,1E0,4.921E3,9E0,6.28E2,7E1,7E0,6E0,5.2E1,3E0,1E0,6E0,3E0,2E0,2E0,6E0,1.5E1,2E0,1.65E2,4.756E3,8E0,1E0,6.12E2,1.6E1,5.9E1,1.1E1,3E0,4E0,2.9E1,2.3E1,5E0,1E0,3E0,3E0,1E0,1.4E1,1E0,1E0],"tree_param":{"num_deleted":"0","num_feature":"161","num_nodes":"71","size_leaf_vector":"1"}},{"base_weights":[3.4646426E-5,3.864637E-3,-8.0005506E-5,5.9517664E-3,-9.46138E-3,1.5669359E-2,-1.1676888E-4,8.654179E-3,-3.125351E-3,-2.0461824E-2,1.3722179E-2,2.3186721E-3,3.0858716E-4,-1.2416288E-2,-7.0183945E-5,1.0148357E-2,-5.9876656E-3,5.272191E-3,-1.2902098E-2,5.2198847E-3,-2.6789902E-2,2.9242868E-4,-9.109228E-3,-8.902534E-5,7.54283E-3,-2.664193E-3,-2.793042E-2,-1.3654867E-4,7.2286846E-3,2.8654458E-2,8.268535E-3,-1.5835373E-2,4.857986E-3,7.818551E-3,-6.231295E-5,-2.1395017E-3,-2.3397256E-2,6.3781175E-5,8.7259305E-6,-2.8443247E-2,-3.474873E-5,-1.7953712E-4,-1.7649571E-4,3.1179923E-3,1.483351E-4,-1.9143109E-4,5.8416836E-3,-3.03654E-4,-5.4427728E-5,3.784675E-5,-2.6708082E-3,9.320372E-3,-1.3460577E-2,6.905046E-5,3.0510005E-4,6.848808E-5,1.8358404E-4,-1.8687834E-4,-7.865324E-6,-1.4977089E-5,8.41026E-5,2.3553665E-5,1.6531297E-4,3.1554064E-5,-7.006509E-5,-2.7414729E-4,-7.563227E-5,-4.041112E-5,-3.0294247E-4,-1.0947473E-5,8.300038E-6,-1.772757E-5,4.7838686E-5,1.1391507E-5,1.2610696E-4,-1.2467787E-6,3.608866E-5,-7.0844464E-5,-7.3014517E-6,2.2194936E-4,5.1275783E-5,1.2165572E-5,-2.3650852E-4],"categories":[],"categories_nodes":[],"categories_segments":[],"categories_sizes":[],"default_left":[0,0,0,0,0,0,0,0,0,0,0,0,0,0,0,0,0,0,0,0,0,0,0,0,0,0,0,0,0,0,0,0,0,0,0,0,0,0,0,0,0,0,0,0,0,0,0,0,0,0,0,0,0,0,0,0,0,0,0,0,0,0,0,0,0,0,0,0,0,0,0,0,0,0,0,0,0,0,0,0,0,0,0],"id":9,"left_children":[1,3,5,7,9,11,13,15,17,19,21,23,-1,25,27,29,31,33,35,37,39,-1,41,-1,43,45,47,49,51,53,55,57,59,61,-1,63,65,-1,-1,67,-1,-1,69,71,-1,-1,73,-1,-1,75,77,79,81,-1,-1,-1,-1,-1,-1,-1,-1,-1,-1,-1,-1,-1,-1,-1,-1,-1,-1,-1,-1,-1,-1,-1,-1,-1,-1,-1,-1,-1,-1],"loss_changes":[2.5230295E-3,4.701103E-3,3.2320702E-3,3.5839141E-3,6.146458E-3,2.564697E-3,3.1888662E-3,2.5110468E-3,2.8594441E-3,2.740094E-3,3.1012534E-3,5.3612114E-4,0E0,3.1027887E-3,2.687884E-3,3.3114636E-3,1.2517809E-3,6.05268E-4,1.7572236E-3,1.4575206E-5,4.022848E-4,0E0,3.1285285E-4,0E0,1.473097E-4,2.0741748E-3,2.7278392E-4,2.4300148E-3,2.289231E-3,1.525404E-4,1.2208037E-3,2.4285878E-4,1.4805915E-4,7.226522E-4,0E0,2.5404163E-4,3.0155852E-4,0E0,0E0,4.19599E-4,0E0,0E0,3.6813037E-6,4.9217568E-5,0E0,0E0,3.0394952E-4,0E0,0E0,2.9864975E-3,3.0269732E-3,2.369292E-3,7.76593E-4,0E0,0E0,0E0,0E0,0E0,0E0,0E0,0E0,0E0,0E0,0E0,0E0,0E0,0E0,0E0,0E0,0E0,0E0,0E0,0E0,0E0,0E0,0E0,0E0,0E0,0E0,0E0,0E0,0E0,0E0],"parents":[2147483647,0,0,1,1,2,2,3,3,4,4,5,5,6,6,7,7,8,8,9,9,10,10,11,11,13,13,14,14,15,15,16,16,17,17,18,18,19,19,20,20,22,22,24,24,25,25,26,26,27,27,28,28,29,29,30,30,31,31,32,32,33,33,35,35,36,36,39,39,42,42,43,43,46,46,49,49,50,50,51,51,52,52],"right_children":[2,4,6,8,10,12,14,16,18,20,22,24,-1,26,28,30,32,34,36,38,40,-1,42,-1,44,46,48,50,52,54,56,58,60,62,-1,64,66,-1,-1,68,-1,-1,70,72,-1,-1,74,-1,-1,76,78,80,82,-1,-1,-1,-1,-1,-1,-1,-1,-1,-1,-1,-1,-1,-1,-1,-1,-1,-1,-1,-1,-1,-1,-1,-1,-1,-1,-1,-1,-1,-1],"split_conditions":[-1.9198213E0,2.0330236E0,-2.6662161E0,5.029138E-1,1.6958041E-1,-1.4285715E-1,-2.5670795E0,1.1855779E0,3.2935542E-1,1.3692962E0,1.7600897E-1,2.2133253E0,3.0858716E-4,-1.4793056E0,3.8608646E0,-3.3869464E0,3.4648633E-1,-1.9876235E0,5.8976374E0,-6.32778E-1,1E0,2.9242868E-4,0E0,-8.902534E-5,1E0,-3.6514547E-1,-6.500904E-1,1.4865745E0,8.916084E-1,-9.41053E-1,1.7775925E0,1E0,-1.4160839E-1,1.1714286E0,-6.231295E-5,4.293381E-1,1.173654E1,6.3781175E-5,8.7259305E-6,-1.9272518E0,-3.474873E-5,-1.7953712E-4,1E0,6.001904E-1,1.483351E-4,-1.9143109E-4,7.186147E-1,-3.03654E-4,-5.4427728E-5,1.4907719E0,-1.970825E-1,-1.146591E0,5.378391E-1,6.905046E-5,3.0510005E-4,6.848808E-5,1.8358404E-4,-1.8687834E-4,-7.865324E-6,-1.4977089E-5,8.41026E-5,2.3553665E-5,1.6531297E-4,3.1554064E-5,-7.006509E-5,-2.7414729E-4,-7.563227E-5,-4.041112E-5,-3.0294247E-4,-1.0947473E-5,8.300038E-6,-1.772757E-5,4.7838686E-5,1.1391507E-5,1.2610696E-4,-1.2467787E-6,3.608866E-5,-7.0844464E-5,-7.3014517E-6,2.2194936E-4,5.1275783E-5,1.2165572E-5,-2.3650852E-4],"split_indices":[155,30,67,62,62,75,16,101,149,19,34,30,0,57,85,155,148,155,65,9,0,0,3,0,2,125,31,50,62,9,131,8,62,13,0,77,65,0,0,21,0,0,6,10,0,0,87,0,0,160,159,64,10,0,0,0,0,0,0,0,0,0,0,0,0,0,0,0,0,0,0,0,0,0,0,0,0,0,0,0,0,0,0],"split_type":[0,0,0,0,0,0,0,0,0,0,0,0,0,0,0,0,0,0,0,0,0,0,0,0,0,0,0,0,0,0,0,0,0,0,0,0,0,0,0,0,0,0,0,0,0,0,0,0,0,0,0,0,0,0,0,0,0,0,0,0,0,0,0,0,0,0,0,0,0,0,0,0,0,0,0,0,0,0,0,0,0,0,0],"sum_hessian":[5.744E3,1.66E2,5.578E3,1.44E2,2.2E1,1.2E1,5.566E3,1.11E2,3.3E1,1.5E1,7E0,7E0,5E0,2E1,5.546E3,1.01E2,1E1,1.8E1,1.5E1,3E0,1.2E1,4E0,3E0,2E0,5E0,1.3E1,7E0,5.497E3,4.9E1,8E0,9.3E1,5E0,5E0,1.5E1,3E0,8E0,7E0,2E0,1E0,1.1E1,1E0,1E0,2E0,4E0,1E0,4E0,9E0,6E0,1E0,5.144E3,3.53E2,4.5E1,4E0,1E0,7E0,8.3E1,1E1,4E0,1E0,2E0,3E0,1E1,5E0,4E0,4E0,5E0,2E0,1E0,1E1,1E0,1E0,1E0,3E0,6E0,3E0,4.921E3,2.23E2,1.07E2,2.46E2,1E1,3.5E1,2E0,2E0],"tree_param":{"num_deleted":"0","num_feature":"161","num_nodes":"83","size_leaf_vector":"1"}},{"base_weights":[6.495302E-5,5.117656E-3,-9.653579E-5,6.898223E-4,1.0347048E-2,-5.9206257E-5,-8.0985725E-3,-5.91822E-4,2.4646772E-2,1.1631067E-2,-7.855709E-3,-2.7415896E-4,1.2827897E-3,1.2517927E-2,-1.1331939E-2,-8.821879E-3,4.0051243E-3,2.7627483E-4,6.361961E-5,-1.7964136E-4,1.2256848E-2,1.1578103E-4,-1.4058092E-4,-7.651546E-5,-2.260414E-3,-2.1842277E-2,1.5235731E-3,1.7049619E-4,-5.3857666E-6,-6.8620364E-3,-2.2852988E-4,-1.4411959E-2,1.4798712E-2,-8.048347E-3,8.469655E-3,1.9051548E-2,8.552552E-3,1.8141303E-2,-1.0152242E-4,-1.8445157E-3,-1.0798075E-2,-2.8631708E-4,-9.826546E-4,8.760165E-3,8.710355E-4,3.1815947E-4,-9.648124E-3,1.0132796E-4,-2.0188332E-4,2.717202E-4,-1.2742744E-5,1.2329494E-4,-1.5266874E-4,2.846087E-4,4.664318E-5,2.0465508E-4,-8.148728E-5,9.837997E-5,-9.010925E-5,2.2725875E-5,2.0860528E-4,-5.503787E-7,-5.6936344E-5,-2.407445E-5,3.507207E-5,-1.5573284E-4,2.9396257E-5,4.5614957E-5,-6.0354778E-5,2.5930553E-4,5.4182383E-5,6.0594493E-6,1.2182352E-4,-4.2106305E-5,2.0660435E-5,-9.859747E-6,-1.3388414E-4],"categories":[],"categories_nodes":[],"categories_segments":[],"categories_sizes":[],"default_left":[0,0,0,0,0,0,0,0,0,0,0,0,0,0,0,0,0,0,0,0,0,0,0,0,0,0,0,0,0,0,0,0,0,0,0,0,0,0,0,0,0,0,0,0,0,0,0,0,0,0,0,0,0,0,0,0,0,0,0,0,0,0,0,0,0,0,0,0,0,0,0,0,0,0,0,0,0],"id":10,"left_children":[1,3,5,7,9,11,13,15,17,19,21,23,25,27,29,31,33,-1,-1,-1,35,-1,-1,37,39,41,43,-1,-1,45,-1,47,49,51,53,55,57,59,61,63,65,-1,67,69,71,73,75,-1,-1,-1,-1,-1,-1,-1,-1,-1,-1,-1,-1,-1,-1,-1,-1,-1,-1,-1,-1,-1,-1,-1,-1,-1,-1,-1,-1,-1,-1],"loss_changes":[4.715898E-3,4.1375854E-3,1.6726083E-3,3.0236067E-3,2.0079315E-3,1.6088363E-3,1.8750306E-3,3.591647E-3,9.674393E-5,1.6462328E-3,8.859817E-4,1.8869129E-3,4.3207402E-3,2.4585478E-4,1.0276353E-3,4.7026733E-3,3.3507654E-3,0E0,0E0,0E0,1.7499477E-3,0E0,0E0,1.994059E-3,1.5246801E-3,1.104865E-3,3.595369E-3,0E0,0E0,3.6315346E-4,0E0,4.174394E-3,1.4267568E-3,2.6888992E-3,3.2905487E-3,1.1667311E-3,1.2400707E-3,2.114966E-4,1.1351344E-3,1.2617026E-3,1.3577873E-3,0E0,1.1157165E-4,3.4745792E-3,2.094583E-3,5.619414E-5,4.0798564E-4,0E0,0E0,0E0,0E0,0E0,0E0,0E0,0E0,0E0,0E0,0E0,0E0,0E0,0E0,0E0,0E0,0E0,0E0,0E0,0E0,0E0,0E0,0E0,0E0,0E0,0E0,0E0,0E0,0E0,0E0],"parents":[2147483647,0,0,1,1,2,2,3,3,4,4,5,5,6,6,7,7,8,8,9,9,10,10,11,11,12,12,13,13,14,14,15,15,16,16,20,20,23,23,24,24,25,25,26,26,29,29,31,31,32,32,33,33,34,34,35,35,36,36,37,37,38,38,39,39,40,40,42,42,43,43,44,44,45,45,46,46],"right_children":[2,4,6,8,10,12,14,16,18,20,22,24,26,28,30,32,34,-1,-1,-1,36,-1,-1,38,40,42,44,-1,-1,46,-1,48,50,52,54,56,58,60,62,64,66,-1,68,70,72,74,76,-1,-1,-1,-1,-1,-1,-1,-1,-1,-1,-1,-1,-1,-1,-1,-1,-1,-1,-1,-1,-1,-1,-1,-1,-1,-1,-1,-1,-1,-1],"split_conditions":[-1.9213141E0,-4.6014148E-1,3.999213E0,9.0245175E-1,2.652096E0,8.44793E-1,-6E-1,-9.554482E-2,1E0,-1.6987909E0,0E0,8.786047E0,-1.1415375E0,6.001904E-1,2.1372719E-1,7.9545456E-1,-3.4700954E-1,2.7627483E-4,6.361961E-5,-1.7964136E-4,-2.6697695E0,1.1578103E-4,-1.4058092E-4,-2.9649458E0,1.429328E-2,-3.5266227E-1,-4.057304E-1,1.7049619E-4,-5.3857666E-6,-3.973607E-1,-2.2852988E-4,-1.7313644E-1,3.1428573E-1,1.798175E-1,-3.5475295E0,1E0,7.767745E-1,-9.0971746E-2,1.9318861E0,7.359098E-1,-1.0165074E-1,-2.8631708E-4,-1.2279867E-1,-2.1720922E0,7.0212764E-1,-1.3622291E-1,4.283135E-2,1.0132796E-4,-2.0188332E-4,2.717202E-4,-1.2742744E-5,1.2329494E-4,-1.5266874E-4,2.846087E-4,4.664318E-5,2.0465508E-4,-8.148728E-5,9.837997E-5,-9.010925E-5,2.2725875E-5,2.0860528E-4,-5.503787E-7,-5.6936344E-5,-2.407445E-5,3.507207E-5,-1.5573284E-4,2.9396257E-5,4.5614957E-5,-6.0354778E-5,2.5930553E-4,5.4182383E-5,6.0594493E-6,1.2182352E-4,-4.2106305E-5,2.0660435E-5,-9.859747E-6,-1.3388414E-4],"split_indices":[157,69,50,54,125,85,23,63,7,20,5,11,109,10,68,62,144,0,0,0,50,0,0,79,39,55,55,0,0,56,0,149,13,63,157,6,144,29,160,63,68,0,10,79,80,28,150,0,0,0,0,0,0,0,0,0,0,0,0,0,0,0,0,0,0,0,0,0,0,0,0,0,0,0,0,0,0],"split_type":[0,0,0,0,0,0,0,0,0,0,0,0,0,0,0,0,0,0,0,0,0,0,0,0,0,0,0,0,0,0,0,0,0,0,0,0,0,0,0,0,0,0,0,0,0,0,0,0,0,0,0,0,0,0,0,0,0,0,0,0,0,0,0,0,0,0,0,0,0,0,0,0,0,0,0,0,0],"sum_hessian":[5.778E3,1.78E2,5.6E3,9.7E1,8.1E1,5.575E3,2.5E1,9.3E1,4E0,7.6E1,5E0,4.806E3,7.69E2,3E0,2.2E1,3.3E1,6E1,3E0,1E0,1E0,7.5E1,1E0,4E0,4.372E3,4.34E2,7E0,7.62E2,2E0,1E0,1.7E1,5E0,2.7E1,6E0,1.6E1,4.4E1,2.5E1,5E1,5E0,4.367E3,4.15E2,1.9E1,5E0,2E0,6.2E1,7E2,5E0,1.2E1,5E0,2.2E1,3E0,3E0,4E0,1.2E1,6E0,3.8E1,2.4E1,1E0,4.7E1,3E0,1E0,4E0,4.332E3,3.5E1,3.76E2,3.9E1,1.4E1,5E0,1E0,1E0,9E0,5.3E1,6.85E2,1.5E1,1E0,4E0,4E0,8E0],"tree_param":{"num_deleted":"0","num_feature":"161","num_nodes":"77","size_leaf_vector":"1"}},{"base_weights":[-3.237377E-5,5.512323E-3,-1.6010339E-4,1.0574925E-2,1.1564307E-3,-7.273563E-5,-4.4740173E-3,5.0532166E-3,1.8103186E-2,1.759313E-2,-2.8309869E-3,-8.922E-6,-5.8923904E-3,-1.0400651E-3,-1.08750025E-2,-1.2453295E-2,8.278566E-3,2.0269446E-2,-1.6943515E-4,2.7831124E-2,-6.4014853E-3,-7.844641E-3,7.873073E-3,4.1020135E-3,-1.097125E-4,-1.4241926E-2,-1.9749242E-3,-2.1425081E-2,7.4761844E-4,-6.368459E-3,-2.5189205E-4,6.82133E-5,-1.7672487E-2,1.5290839E-2,7.4888405E-4,2.243488E-2,-2.366877E-3,5.678623E-5,2.9661555E-2,6.9252267E-3,-1.7594369E-4,-1.7806545E-2,1.1153973E-3,-1.302463E-4,1.2605432E-2,-9.916577E-3,4.973358E-3,1.9984253E-5,-2.9670405E-3,3.4370234E-5,-1.5415036E-2,-3.971727E-3,4.8120166E-3,-4.050108E-5,-2.4090052E-4,6.5643075E-3,-3.8950734E-3,-9.659537E-3,8.954288E-3,-2.159645E-4,-9.8831615E-6,1.7947573E-4,2.8337388E-5,-3.795285E-5,8.955047E-5,-3.125276E-5,2.380085E-4,-6.1687606E-5,2.6184453E-5,3.1614862E-4,7.0175425E-5,1.6298398E-5,8.7579996E-5,-2.2168105E-4,4.091327E-5,1.2342063E-4,-6.181416E-5,-2.4483266E-5,1.7827378E-4,-1.3219411E-4,-5.3822294E-8,8.264217E-5,2.050326E-5,7.589697E-5,-3.970597E-7,-1.11708396E-4,-1.922278E-5,-2.0896654E-4,-1.00270365E-4,-7.552229E-5,-1.5759325E-6,-3.3667577E-5,7.277555E-5,1.100128E-4,-1.3776722E-5,1.3670749E-4,-6.293189E-5,-1.314723E-4,4.15731E-5,8.863501E-6,1.276667E-4],"categories":[],"categories_nodes":[],"categories_segments":[],"categories_sizes":[],"default_left":[0,0,0,0,0,0,0,0,0,0,0,0,0,0,0,0,0,0,0,0,0,0,0,0,0,0,0,0,0,0,0,0,0,0,0,0,0,0,0,0,0,0,0,0,0,0,0,0,0,0,0,0,0,0,0,0,0,0,0,0,0,0,0,0,0,0,0,0,0,0,0,0,0,0,0,0,0,0,0,0,0,0,0,0,0,0,0,0,0,0,0,0,0,0,0,0,0,0,0,0,0],"id":11,"left_children":[1,3,5,7,9,11,13,15,17,19,21,23,25,27,29,31,33,35,-1,37,39,41,43,45,47,49,51,53,55,57,-1,-1,59,61,63,65,67,-1,69,71,-1,73,75,-1,77,79,81,83,85,-1,87,89,91,-1,-1,93,95,97,99,-1,-1,-1,-1,-1,-1,-1,-1,-1,-1,-1,-1,-1,-1,-1,-1,-1,-1,-1,-1,-1,-1,-1,-1,-1,-1,-1,-1,-1,-1,-1,-1,-1,-1,-1,-1,-1,-1,-1,-1,-1,-1],"loss_changes":[4.0887403E-3,2.8545498E-3,2.126504E-3,2.402653E-3,4.7031445E-3,2.0543847E-3,2.4505253E-3,2.1358223E-3,2.241441E-3,3.6173547E-3,3.1744153E-3,2.268151E-3,1.9344147E-3,2.7127226E-3,2.3553795E-3,7.241376E-4,1.6253544E-3,1.22952E-3,0E0,2.3705E-4,8.676667E-4,3.5902234E-3,2.0431946E-3,1.6494864E-3,1.9801015E-3,4.4702948E-4,5.8830366E-4,1.8025562E-4,1.8889201E-3,1.6497734E-3,0E0,0E0,3.0599628E-4,4.7866465E-4,6.306301E-4,8.4250234E-4,7.301341E-5,0E0,1.762174E-4,1.48416E-5,0E0,1.9053654E-3,1.8785069E-3,0E0,1.3014062E-3,2.618092E-4,1.1758467E-3,2.3100963E-3,1.9670033E-3,0E0,3.220979E-4,4.4947484E-4,2.261526E-4,0E0,0E0,1.1075448E-3,1.7289023E-3,1.307569E-3,1.7323258E-4,0E0,0E0,0E0,0E0,0E0,0E0,0E0,0E0,0E0,0E0,0E0,0E0,0E0,0E0,0E0,0E0,0E0,0E0,0E0,0E0,0E0,0E0,0E0,0E0,0E0,0E0,0E0,0E0,0E0,0E0,0E0,0E0,0E0,0E0,0E0,0E0,0E0,0E0,0E0,0E0,0E0,0E0],"parents":[2147483647,0,0,1,1,2,2,3,3,4,4,5,5,6,6,7,7,8,8,9,9,10,10,11,11,12,12,13,13,14,14,15,15,16,16,17,17,19,19,20,20,21,21,22,22,23,23,24,24,25,25,26,26,27,27,28,28,29,29,32,32,33,33,34,34,35,35,36,36,38,38,39,39,41,41,42,42,44,44,45,45,46,46,47,47,48,48,50,50,51,51,52,52,55,55,56,56,57,57,58,58],"right_children":[2,4,6,8,10,12,14,16,18,20,22,24,26,28,30,32,34,36,-1,38,40,42,44,46,48,50,52,54,56,58,-1,-1,60,62,64,66,68,-1,70,72,-1,74,76,-1,78,80,82,84,86,-1,88,90,92,-1,-1,94,96,98,100,-1,-1,-1,-1,-1,-1,-1,-1,-1,-1,-1,-1,-1,-1,-1,-1,-1,-1,-1,-1,-1,-1,-1,-1,-1,-1,-1,-1,-1,-1,-1,-1,-1,-1,-1,-1,-1,-1,-1,-1,-1,-1],"split_conditions":[-2.0982122E0,1.1766754E0,7.2230654E0,1.2167785E0,-2.7386156E-1,1.32E1,1.6829695E-1,-2.8692765E0,8.926608E-1,-2.7550619E0,7.027768E-1,-1.5237026E0,-3.6337805E-1,-9.1222E-1,1.7973816E0,-3.3869464E0,2.2590055E-1,6.65392E-1,-1.6943515E-4,-2.0930232E-1,2.1957E0,-2.6731968E0,-6.233933E-1,-1.6582485E0,1.7841252E0,-3.6055657E-1,4.9275362E-1,-1.5813954E-1,2.8735974E-1,2.8260117E0,-2.5189205E-4,6.82133E-5,1.0695054E-2,3.5778967E-1,8.4368366E-1,-9.721602E-1,0E0,5.678623E-5,-8.137707E-2,1E0,-1.7594369E-4,8.70561E0,-1.9979091E0,-1.302463E-4,5.378195E-1,4.4948858E-1,-8.9560044E-1,-1.5691651E0,-9.2045164E-1,3.4370234E-5,5.560863E-1,2.1068731E-1,-2.2067995E-1,-4.050108E-5,-2.4090052E-4,-7.851641E-1,-7.1128106E-1,1.1077865E0,1.427222E0,-2.159645E-4,-9.8831615E-6,1.7947573E-4,2.8337388E-5,-3.795285E-5,8.955047E-5,-3.125276E-5,2.380085E-4,-6.1687606E-5,2.6184453E-5,3.1614862E-4,7.0175425E-5,1.6298398E-5,8.7579996E-5,-2.2168105E-4,4.091327E-5,1.2342063E-4,-6.181416E-5,-2.4483266E-5,1.7827378E-4,-1.3219411E-4,-5.3822294E-8,8.264217E-5,2.050326E-5,7.589697E-5,-3.970597E-7,-1.11708396E-4,-1.922278E-5,-2.0896654E-4,-1.00270365E-4,-7.552229E-5,-1.5759325E-6,-3.3667577E-5,7.277555E-5,1.100128E-4,-1.3776722E-5,1.3670749E-4,-6.293189E-5,-1.314723E-4,4.15731E-5,8.863501E-6,1.276667E-4],"split_indices":[157,27,65,91,55,11,125,155,20,79,133,73,111,43,156,155,48,36,0,11,48,159,44,41,50,60,63,11,133,120,0,0,21,145,131,30,3,0,17,2,0,76,159,0,54,30,64,58,72,0,131,19,125,0,0,64,36,131,48,0,0,0,0,0,0,0,0,0,0,0,0,0,0,0,0,0,0,0,0,0,0,0,0,0,0,0,0,0,0,0,0,0,0,0,0,0,0,0,0,0,0],"split_type":[0,0,0,0,0,0,0,0,0,0,0,0,0,0,0,0,0,0,0,0,0,0,0,0,0,0,0,0,0,0,0,0,0,0,0,0,0,0,0,0,0,0,0,0,0,0,0,0,0,0,0,0,0,0,0,0,0,0,0,0,0,0,0,0,0,0,0,0,0,0,0,0,0,0,0,0,0,0,0,0,0,0,0,0,0,0,0,0,0,0,0,0,0,0,0,0,0,0,0,0,0],"sum_hessian":[5.771E3,1.29E2,5.642E3,5.9E1,7E1,5.531E3,1.11E2,3.5E1,2.4E1,1.3E1,5.7E1,5.472E3,5.9E1,7.3E1,3.8E1,5E0,3E1,2.3E1,1E0,9E0,4E0,3.9E1,1.8E1,1.3E2,5.342E3,1.8E1,4.1E1,5E0,6.8E1,3E1,8E0,1E0,4E0,1.5E1,1.5E1,2.1E1,2E0,1E0,8E0,2E0,2E0,1.8E1,2.1E1,3E0,1.5E1,7E0,1.23E2,5.111E3,2.31E2,1E0,1.7E1,3.2E1,9E0,1E0,4E0,3E1,3.8E1,2.5E1,5E0,3E0,1E0,1.2E1,3E0,1E1,5E0,1E0,2E1,1E0,1E0,7E0,1E0,1E0,1E0,1.5E1,3E0,8E0,1.3E1,4E0,1.1E1,5E0,2E0,5.7E1,6.6E1,3.9E1,5.072E3,2.5E1,2.06E2,7E0,1E1,1.6E1,1.6E1,2E0,7E0,1.9E1,1.1E1,4E0,3.4E1,2E1,5E0,2E0,3E0],"tree_param":{"num_deleted":"0","num_feature":"161","num_nodes":"101","size_leaf_vector":"1"}},{"base_weights":[1.060991E-6,3.1450295E-3,-1.9779943E-4,3.5915913E-3,-1.8739223E-2,-2.3096192E-4,1.3579845E-2,-1.1906699E-2,4.1527846E-3,-2.8542594E-5,-2.4522358E-4,-2.0061551E-4,-1.3827129E-2,1.9780274E-2,-1.3681673E-4,-4.7052666E-3,-2.1047652E-4,5.012886E-3,-5.149466E-3,-2.279892E-4,1.1126465E-2,-2.6101729E-2,1.7247503E-4,1.2962164E-3,2.6549768E-2,5.844192E-5,-7.047217E-3,4.4155153E-3,2.019743E-2,-1.9505419E-2,1.5681863E-3,-3.000032E-4,3.318306E-3,1.7645117E-2,-1.6484076E-4,-7.067756E-5,-2.7597506E-4,4.019069E-5,-3.4361707E-5,5.6502297E-5,2.872824E-4,-2.1769616E-5,-8.559926E-5,6.099177E-5,-8.162292E-6,-1.1420633E-4,2.4501298E-4,-2.5108136E-4,6.9392377E-7,-1.3480184E-4,1.0708092E-4,-7.2981755E-5,-2.409912E-6,-2.2093669E-5,6.271638E-5,2.4851045E-4,4.0277922E-5],"categories":[],"categories_nodes":[],"categories_segments":[],"categories_sizes":[],"default_left":[0,0,0,0,0,0,0,0,0,0,0,0,0,0,0,0,0,0,0,0,0,0,0,0,0,0,0,0,0,0,0,0,0,0,0,0,0,0,0,0,0,0,0,0,0,0,0,0,0,0,0,0,0,0,0,0,0],"id":12,"left_children":[1,3,5,7,9,11,13,15,17,-1,-1,19,21,23,-1,25,-1,27,29,31,33,35,-1,37,39,-1,41,43,45,47,49,51,53,55,-1,-1,-1,-1,-1,-1,-1,-1,-1,-1,-1,-1,-1,-1,-1,-1,-1,-1,-1,-1,-1,-1,-1],"loss_changes":[3.5943345E-3,3.4095566E-3,2.4735995E-3,2.9718196E-3,5.7306094E-4,2.2231739E-3,2.4680577E-3,6.909007E-4,2.6260996E-3,0E0,0E0,1.671921E-3,5.027334E-3,1.3419911E-3,0E0,2.3883575E-4,0E0,2.613918E-3,2.7308604E-3,1.3729121E-3,2.6306487E-3,6.118277E-5,0E0,6.535258E-5,2.019112E-4,0E0,3.293634E-5,2.5418228E-3,1.7767008E-3,9.887917E-4,2.895161E-3,2.172973E-3,1.7606372E-3,9.792855E-4,0E0,0E0,0E0,0E0,0E0,0E0,0E0,0E0,0E0,0E0,0E0,0E0,0E0,0E0,0E0,0E0,0E0,0E0,0E0,0E0,0E0,0E0,0E0],"parents":[2147483647,0,0,1,1,2,2,3,3,4,4,5,5,6,6,7,7,8,8,11,11,12,12,13,13,15,15,17,17,18,18,19,19,20,20,21,21,23,23,24,24,26,26,27,27,28,28,29,29,30,30,31,31,32,32,33,33],"right_children":[2,4,6,8,10,12,14,16,18,-1,-1,20,22,24,-1,26,-1,28,30,32,34,36,-1,38,40,-1,42,44,46,48,50,52,54,56,-1,-1,-1,-1,-1,-1,-1,-1,-1,-1,-1,-1,-1,-1,-1,-1,-1,-1,-1,-1,-1,-1,-1],"split_conditions":[-1.6940358E0,9.318182E-1,3.0618109E1,-7.130621E-1,7.3535514E-1,2.9593723E0,5.4810625E-1,5.990676E-1,7.724653E-1,-2.8542594E-5,-2.4522358E-4,2.7618134E0,4.3640497E-1,-2.5863032E0,-1.3681673E-4,-4.8026612E-1,-2.1047652E-4,4.3703175E0,-1.1272141E-1,3.2145243E0,-6.4653647E-1,0E0,1.7247503E-4,1E0,0E0,5.844192E-5,6.3521063E-1,5.29517E-1,-7.2287524E-1,-1.7905622E0,-1.6987909E0,-1.8089017E0,-1.7948718E-1,1.7107786E0,-1.6484076E-4,-7.067756E-5,-2.7597506E-4,4.019069E-5,-3.4361707E-5,5.6502297E-5,2.872824E-4,-2.1769616E-5,-8.559926E-5,6.099177E-5,-8.162292E-6,-1.1420633E-4,2.4501298E-4,-2.5108136E-4,6.9392377E-7,-1.3480184E-4,1.0708092E-4,-7.2981755E-5,-2.409912E-6,-2.2093669E-5,6.271638E-5,2.4851045E-4,4.0277922E-5],"split_indices":[50,87,93,86,19,61,24,62,119,0,0,61,150,48,0,16,0,91,63,55,17,3,0,1,5,0,30,77,31,157,20,17,62,49,0,0,0,0,0,0,0,0,0,0,0,0,0,0,0,0,0,0,0,0,0,0,0],"split_type":[0,0,0,0,0,0,0,0,0,0,0,0,0,0,0,0,0,0,0,0,0,0,0,0,0,0,0,0,0,0,0,0,0,0,0,0,0,0,0,0,0,0,0,0,0,0,0,0,0,0,0,0,0,0,0,0,0],"sum_hessian":[5.747E3,3.41E2,5.406E3,3.35E2,6E0,5.394E3,1.2E1,1.1E1,3.24E2,2E0,4E0,5.383E3,1.1E1,1E1,2E0,7E0,4E0,2.97E2,2.7E1,5.371E3,1.2E1,8E0,3E0,3E0,7E0,1E0,6E0,2.87E2,1E1,8E0,1.9E1,5.265E3,1.06E2,1E1,2E0,1E0,7E0,2E0,1E0,1E0,6E0,2E0,4E0,2.17E2,7E1,1E0,9E0,6E0,2E0,7E0,1.2E1,4.3E1,5.222E3,3.7E1,6.9E1,6E0,4E0],"tree_param":{"num_deleted":"0","num_feature":"161","num_nodes":"57","size_leaf_vector":"1"}},{"base_weights":[-8.391626E-5,1.2401428E-2,-1.4051462E-4,-4.2122165E-3,2.1444663E-2,2.4439562E-3,-2.9574797E-4,-1.367976E-2,2.2438636E-4,7.0881844E-3,2.8631091E-2,-1.9285994E-2,3.2666167E-3,-1.9911349E-4,-4.0701763E-3,3.219416E-3,-2.4463146E-4,2.1972148E-4,-9.5678246E-5,3.0166004E-4,6.640975E-5,2.7056995E-3,-2.6917191E-2,-1.1146876E-2,3.8762486E-3,-2.5596662E-4,6.5670586E-3,-1.2283432E-2,-2.0918597E-3,6.7884284E-5,-2.330648E-4,-2.7062139E-5,9.47072E-5,-2.8600462E-4,-6.7255045E-5,-1.1507669E-3,-2.69105E-4,-1.0052777E-2,4.387697E-3,-2.2045748E-4,-1.4497296E-2,2.087691E-2,2.2908994E-3,4.462554E-3,-1.8687878E-2,-8.254526E-3,4.3088954E-4,8.111505E-6,-1.1607477E-5,-1.6889295E-4,2.9277107E-5,8.565561E-5,-1.8105349E-4,5.1759118E-5,-3.2288935E-5,-2.3562393E-6,1.9619301E-4,-2.6403845E-4,1.8893403E-4,2.3209676E-4,7.6972334E-5,1.4225316E-4,-3.7717633E-5,9.252553E-5,-1.453372E-4,-5.024126E-5,-2.1996602E-4,-1.03439575E-4,2.5236675E-5,2.1615935E-5,-7.7589226E-5],"categories":[],"categories_nodes":[],"categories_segments":[],"categories_sizes":[],"default_left":[0,0,0,0,0,0,0,0,0,0,0,0,0,0,0,0,0,0,0,0,0,0,0,0,0,0,0,0,0,0,0,0,0,0,0,0,0,0,0,0,0,0,0,0,0,0,0,0,0,0,0,0,0,0,0,0,0,0,0,0,0,0,0,0,0,0,0,0,0,0,0],"id":13,"left_children":[1,3,5,7,9,11,13,15,-1,17,19,21,23,25,27,29,-1,-1,-1,-1,-1,31,33,35,37,39,41,43,45,-1,47,-1,-1,-1,-1,49,-1,51,53,55,57,59,61,63,65,67,69,-1,-1,-1,-1,-1,-1,-1,-1,-1,-1,-1,-1,-1,-1,-1,-1,-1,-1,-1,-1,-1,-1,-1,-1],"loss_changes":[4.071341E-3,3.9965985E-3,2.3011812E-3,2.830136E-3,1.550978E-3,5.8728214E-3,1.9724327E-3,1.5366E-3,0E0,1.9455778E-3,1.7095078E-4,2.086705E-3,2.8023014E-3,2.031243E-3,2.1678414E-3,5.0869938E-5,0E0,0E0,0E0,0E0,0E0,1.7207662E-4,1.1354033E-4,2.017506E-3,2.195551E-3,2.6431186E-3,2.6445857E-3,2.8718635E-3,1.7137117E-3,0E0,3.847643E-6,0E0,0E0,0E0,0E0,6.271501E-4,0E0,1.804263E-3,1.7697373E-3,1.5756157E-3,5.6672436E-3,1.2880052E-4,2.5860567E-3,8.6241105E-4,7.4846856E-4,7.4675423E-4,1.1365288E-3,0E0,0E0,0E0,0E0,0E0,0E0,0E0,0E0,0E0,0E0,0E0,0E0,0E0,0E0,0E0,0E0,0E0,0E0,0E0,0E0,0E0,0E0,0E0,0E0],"parents":[2147483647,0,0,1,1,2,2,3,3,4,4,5,5,6,6,7,7,9,9,10,10,11,11,12,12,13,13,14,14,15,15,21,21,22,22,23,23,24,24,25,25,26,26,27,27,28,28,30,30,35,35,37,37,38,38,39,39,40,40,41,41,42,42,43,43,44,44,45,45,46,46],"right_children":[2,4,6,8,10,12,14,16,-1,18,20,22,24,26,28,30,-1,-1,-1,-1,-1,32,34,36,38,40,42,44,46,-1,48,-1,-1,-1,-1,50,-1,52,54,56,58,60,62,64,66,68,70,-1,-1,-1,-1,-1,-1,-1,-1,-1,-1,-1,-1,-1,-1,-1,-1,-1,-1,-1,-1,-1,-1,-1,-1],"split_conditions":[-3.3869464E0,-7.5317603E-1,-1.6940358E0,3.1499425E-1,-6.079533E-1,-1.0659722E0,2.201754E0,2.1449602E0,2.2438636E-4,-4.485699E0,9.9847484E-1,7.124895E-2,-4.643876E-1,5.116746E-1,-1.0913706E0,0E0,-2.4463146E-4,2.1972148E-4,-9.5678246E-5,3.0166004E-4,6.640975E-5,1E0,1E0,7.2533846E-2,-2.7141743E0,1.4709676E1,4.1577178E-1,-3.6363637E-1,-1.437513E-1,6.7884284E-5,-6.528574E-1,-2.7062139E-5,9.47072E-5,-2.8600462E-4,-6.7255045E-5,-4.3492064E-1,-2.69105E-4,2.1794872E-1,2.0464535E0,2.2561862E0,5.874126E-1,4.1901975E0,-5.0417805E-1,2.112676E-2,-4.1544476E-1,7.1153843E-1,1.3099581E-1,8.111505E-6,-1.1607477E-5,-1.6889295E-4,2.9277107E-5,8.565561E-5,-1.8105349E-4,5.1759118E-5,-3.2288935E-5,-2.3562393E-6,1.9619301E-4,-2.6403845E-4,1.8893403E-4,2.3209676E-4,7.6972334E-5,1.4225316E-4,-3.7717633E-5,9.252553E-5,-1.453372E-4,-5.024126E-5,-2.1996602E-4,-1.03439575E-4,2.5236675E-5,2.1615935E-5,-7.7589226E-5],"split_indices":[155,60,50,135,101,109,50,19,0,50,16,47,127,123,64,3,0,0,0,0,0,0,4,80,114,93,152,80,129,0,9,0,0,0,0,15,0,62,49,40,71,55,157,12,56,62,128,0,0,0,0,0,0,0,0,0,0,0,0,0,0,0,0,0,0,0,0,0,0,0,0],"split_type":[0,0,0,0,0,0,0,0,0,0,0,0,0,0,0,0,0,0,0,0,0,0,0,0,0,0,0,0,0,0,0,0,0,0,0,0,0,0,0,0,0,0,0,0,0,0,0,0,0,0,0,0,0,0,0,0,0,0,0,0,0,0,0,0,0,0,0,0,0,0,0],"sum_hessian":[5.758E3,2.5E1,5.733E3,9E0,1.6E1,3.24E2,5.409E3,7E0,2E0,6E0,1E1,1.1E1,3.13E2,5.275E3,1.34E2,3E0,4E0,3E0,3E0,9E0,1E0,3E0,8E0,1.2E1,3.01E2,5.232E3,4.3E1,2.5E1,1.09E2,1E0,2E0,2E0,1E0,7E0,1E0,8E0,4E0,1E1,2.91E2,5.22E3,1.2E1,9E0,3.4E1,7E0,1.8E1,3.1E1,7.8E1,1E0,1E0,1E0,7E0,3E0,7E0,2.64E2,2.7E1,5.217E3,3E0,9E0,3E0,7E0,2E0,1.1E1,2.3E1,6E0,1E0,4E0,1.4E1,2.6E1,5E0,6.5E1,1.3E1],"tree_param":{"num_deleted":"0","num_feature":"161","num_nodes":"71","size_leaf_vector":"1"}},{"base_weights":[7.09656E-5,5.6982418E-3,-2.7857677E-5,7.6157856E-3,-1.2321231E-2,3.7840367E-3,-1.5153018E-4,1.09432675E-2,-4.743937E-3,-2.0146117E-2,4.4526276E-3,6.3805305E-3,-3.4351544E-3,5.8431304E-3,-2.0963915E-4,6.1058197E-3,1.9793436E-2,-1.5205665E-2,1.2849363E-2,-2.1735791E-4,-5.3040367E-5,7.5750804E-6,5.4318312E-5,1.4874633E-2,4.639532E-3,-8.922736E-3,3.4557476E-3,9.513643E-3,-1.3158664E-2,-2.0638168E-2,-1.7215841E-4,1.0320081E-2,-6.0341214E-3,2.3968427E-2,2.5778962E-3,-5.2565113E-3,-2.5936924E-2,4.7366906E-5,1.4764137E-4,-3.955266E-3,1.9278793E-2,6.082475E-3,-3.696888E-3,7.841336E-3,-1.4085867E-2,1.0214004E-2,-3.7903865E-4,-6.474279E-3,1.3690463E-2,-2.2787403E-4,-8.981921E-4,-5.0792582E-3,-2.6580662E-4,-1.9353151E-4,1.6492914E-2,1.2907457E-4,-1.3605793E-4,-1.6717741E-4,2.2183459E-4,2.6007823E-4,3.7425587E-5,1.754807E-4,-3.9257528E-5,5.0947277E-5,-9.5560456E-5,-3.0033058E-4,-2.7281303E-5,4.8929094E-5,-7.390537E-5,-9.078427E-6,2.1858861E-4,8.992972E-5,7.140379E-7,-1.09854074E-4,4.002397E-5,1.2035918E-4,1.686419E-5,5.28526E-5,-1.6403105E-4,1.3895854E-4,-5.543638E-6,8.037451E-5,-3.1529486E-5,7.994271E-5,-1.7452356E-4,4.2681255E-5,1.7665567E-4,-3.5426205E-5,2.0456335E-5,1.19480665E-5,-1.1950726E-4,-1.4342374E-6,-2.1139102E-4,2.0158195E-4,-2.7493874E-5],"categories":[],"categories_nodes":[],"categories_segments":[],"categories_sizes":[],"default_left":[0,0,0,0,0,0,0,0,0,0,0,0,0,0,0,0,0,0,0,0,0,0,0,0,0,0,0,0,0,0,0,0,0,0,0,0,0,0,0,0,0,0,0,0,0,0,0,0,0,0,0,0,0,0,0,0,0,0,0,0,0,0,0,0,0,0,0,0,0,0,0,0,0,0,0,0,0,0,0,0,0,0,0,0,0,0,0,0,0,0,0,0,0,0,0],"id":14,"left_children":[1,3,5,7,9,11,13,15,17,19,21,23,25,27,29,31,33,35,37,-1,-1,-1,-1,39,41,43,45,47,49,51,53,55,57,59,61,63,65,-1,-1,67,69,71,73,75,77,79,81,83,85,-1,87,89,-1,91,93,-1,-1,-1,-1,-1,-1,-1,-1,-1,-1,-1,-1,-1,-1,-1,-1,-1,-1,-1,-1,-1,-1,-1,-1,-1,-1,-1,-1,-1,-1,-1,-1,-1,-1,-1,-1,-1,-1,-1,-1],"loss_changes":[3.2222364E-3,3.5491488E-3,2.6853478E-3,3.7944485E-3,1.4022386E-3,3.377198E-3,1.9230363E-3,2.9616253E-3,3.8765094E-3,4.9870927E-5,1.0358446E-5,1.8830337E-3,1.8459251E-3,3.821741E-3,4.1808686E-3,2.517995E-3,1.73508E-3,1.2516321E-3,5.433848E-5,0E0,0E0,0E0,0E0,1.9007102E-3,1.3577032E-3,2.4474398E-3,5.740338E-4,3.0936776E-3,1.0420085E-3,7.895776E-4,1.9465325E-3,2.4042046E-3,4.2899144E-3,7.2763674E-4,6.53054E-4,4.047295E-4,4.884638E-4,0E0,0E0,1.8814064E-4,9.573372E-4,1.6614024E-3,9.979466E-4,1.6042354E-4,1.0293317E-3,3.248835E-4,3.7554052E-4,1.7278877E-3,1.2729727E-3,0E0,4.6170586E-5,1.8672697E-4,0E0,5.7169357E-3,5.491219E-4,0E0,0E0,0E0,0E0,0E0,0E0,0E0,0E0,0E0,0E0,0E0,0E0,0E0,0E0,0E0,0E0,0E0,0E0,0E0,0E0,0E0,0E0,0E0,0E0,0E0,0E0,0E0,0E0,0E0,0E0,0E0,0E0,0E0,0E0,0E0,0E0,0E0,0E0,0E0,0E0],"parents":[2147483647,0,0,1,1,2,2,3,3,4,4,5,5,6,6,7,7,8,8,9,9,10,10,11,11,12,12,13,13,14,14,15,15,16,16,17,17,18,18,23,23,24,24,25,25,26,26,27,27,28,28,29,29,30,30,31,31,32,32,33,33,34,34,35,35,36,36,39,39,40,40,41,41,42,42,43,43,44,44,45,45,46,46,47,47,48,48,50,50,51,51,53,53,54,54],"right_children":[2,4,6,8,10,12,14,16,18,20,22,24,26,28,30,32,34,36,38,-1,-1,-1,-1,40,42,44,46,48,50,52,54,56,58,60,62,64,66,-1,-1,68,70,72,74,76,78,80,82,84,86,-1,88,90,-1,92,94,-1,-1,-1,-1,-1,-1,-1,-1,-1,-1,-1,-1,-1,-1,-1,-1,-1,-1,-1,-1,-1,-1,-1,-1,-1,-1,-1,-1,-1,-1,-1,-1,-1,-1,-1,-1,-1,-1,-1,-1],"split_conditions":[-2.8860323E0,1.1855779E0,-1.5237026E0,-7.766081E-1,-2.3492064E-1,-7.093228E-1,-1.5691651E0,1.2140621E-1,-1.6079832E-2,1.3550591E-1,-2.0930232E-1,-1.987465E0,-1.3251747E0,5.070137E-2,-2.460354E0,3.13524E0,5.1974815E-1,3.7192363E-1,-2.591809E-1,-2.1735791E-4,-5.3040367E-5,7.5750804E-6,5.4318312E-5,-7.7300864E-1,1.5839889E0,-1.8694196E0,-9.482094E-1,-2.9890454E-1,-3.9570302E-1,-3.2977667E-1,4.052312E0,9.6250135E-1,2.0243266E-1,6.606786E-1,3.906977E-1,7.9352185E-2,6.2615895E-1,4.7366906E-5,1.4764137E-4,9.658552E-1,-4.4784304E-1,4.0830114E-1,5.301835E-2,-1.5718762E0,-3.945372E-1,1.9333333E0,-1.8137838E0,6.6866264E-2,9.668353E-1,-2.2787403E-4,4.0930232E-1,9.186782E-1,-2.6580662E-4,2.3404474E0,4.6666667E-1,1.2907457E-4,-1.3605793E-4,-1.6717741E-4,2.2183459E-4,2.6007823E-4,3.7425587E-5,1.754807E-4,-3.9257528E-5,5.0947277E-5,-9.5560456E-5,-3.0033058E-4,-2.7281303E-5,4.8929094E-5,-7.390537E-5,-9.078427E-6,2.1858861E-4,8.992972E-5,7.140379E-7,-1.09854074E-4,4.002397E-5,1.2035918E-4,1.686419E-5,5.28526E-5,-1.6403105E-4,1.3895854E-4,-5.543638E-6,8.037451E-5,-3.1529486E-5,7.994271E-5,-1.7452356E-4,4.2681255E-5,1.7665567E-4,-3.5426205E-5,2.0456335E-5,1.19480665E-5,-1.1950726E-4,-1.4342374E-6,-2.1139102E-4,2.0158195E-4,-2.7493874E-5],"split_indices":[50,101,73,154,15,64,58,149,67,9,11,157,159,127,17,27,32,119,103,0,0,0,0,109,50,155,159,54,145,143,40,132,68,70,11,9,22,0,0,19,129,75,125,157,125,23,51,70,78,0,11,19,0,30,23,0,0,0,0,0,0,0,0,0,0,0,0,0,0,0,0,0,0,0,0,0,0,0,0,0,0,0,0,0,0,0,0,0,0,0,0,0,0,0,0],"split_type":[0,0,0,0,0,0,0,0,0,0,0,0,0,0,0,0,0,0,0,0,0,0,0,0,0,0,0,0,0,0,0,0,0,0,0,0,0,0,0,0,0,0,0,0,0,0,0,0,0,0,0,0,0,0,0,0,0,0,0,0,0,0,0,0,0,0,0,0,0,0,0,0,0,0,0,0,0,0,0,0,0,0,0,0,0,0,0,0,0,0,0,0,0,0,0],"sum_hessian":[5.793E3,9.9E1,5.694E3,9E1,9E0,1.78E2,5.516E3,7.1E1,1.9E1,6E0,3E0,1.31E2,4.7E1,5.2E1,5.464E3,4.7E1,2.4E1,1.2E1,7E0,5E0,1E0,1E0,2E0,2.1E1,1.1E2,2.6E1,2.1E1,4.4E1,8E0,9E0,5.455E3,3.5E1,1.2E1,1.9E1,5E0,7E0,5E0,2E0,5E0,4E0,1.7E1,9.4E1,1.6E1,6E0,2E1,7E0,1.4E1,9E0,3.5E1,4E0,4E0,3E0,6E0,5.449E3,6E0,3.2E1,3E0,9E0,3E0,1.7E1,2E0,1E0,4E0,2E0,5E0,4E0,1E0,1E0,3E0,2E0,1.5E1,6.3E1,3.1E1,8E0,8E0,3E0,3E0,2E0,1.8E1,5E0,2E0,3E0,1.1E1,4E0,5E0,1.1E1,2.4E1,2E0,2E0,2E0,1E0,5.437E3,1.2E1,5E0,1E0],"tree_param":{"num_deleted":"0","num_feature":"161","num_nodes":"95","size_leaf_vector":"1"}},{"base_weights":[3.7313403E-5,5.5557718E-3,-1.04291554E-4,8.000008E-3,-6.594331E-3,-4.8277263E-5,-6.8285544E-3,9.932639E-3,-7.618339E-3,-1.3425629E-2,9.60038E-3,7.5256806E-3,-1.0504292E-4,-1.8357013E-3,-1.9745579E-2,1.57673E-2,5.8923704E-3,1.1899698E-2,-1.978388E-2,6.684342E-3,-1.7893245E-2,2.198863E-3,1.6452181E-4,-2.2175768E-3,1.3606823E-2,-2.0049708E-2,-6.5798085E-5,1.0972011E-3,-1.3724054E-2,-2.239657E-2,6.033165E-5,9.106266E-3,2.0465435E-2,9.885984E-3,-7.205547E-3,2.3711652E-3,2.0637842E-4,-2.5786635E-2,1.4119076E-4,1.5728137E-5,7.863913E-5,-2.1106657E-2,1.995951E-3,9.178712E-6,3.6614154E-5,-1.275808E-2,1.1235249E-2,6.3730353E-3,2.2891711E-2,-5.0553554E-3,-2.5040671E-2,-3.4989847E-5,-1.1520022E-2,1.5160459E-4,-5.0602015E-4,-1.7272696E-4,-6.744398E-5,-2.6857908E-4,-1.3458915E-4,1.18064614E-4,-4.6461297E-5,2.4463327E-4,6.69038E-5,4.9508053E-5,2.0372262E-4,-1.469157E-4,7.719755E-5,3.83665E-5,-1.0126449E-5,-6.947625E-5,-2.7485404E-4,-2.4753175E-4,-6.713691E-5,-9.358031E-6,3.9297294E-5,-5.613136E-5,-1.8780396E-4,2.1145801E-4,1.0597561E-5,2.6607813E-5,1.4007837E-4,2.6429247E-4,1.0093715E-4,1.1868414E-5,-1.18909724E-4,-2.6965069E-4,-5.7849316E-5,-5.104844E-7,1.7877342E-4,4.636415E-5,-1.5945497E-4,9.786575E-5,-2.72154E-5],"categories":[],"categories_nodes":[],"categories_segments":[],"categories_sizes":[],"default_left":[0,0,0,0,0,0,0,0,0,0,0,0,0,0,0,0,0,0,0,0,0,0,0,0,0,0,0,0,0,0,0,0,0,0,0,0,0,0,0,0,0,0,0,0,0,0,0,0,0,0,0,0,0,0,0,0,0,0,0,0,0,0,0,0,0,0,0,0,0,0,0,0,0,0,0,0,0,0,0,0,0,0,0,0,0,0,0,0,0,0,0,0,0],"id":15,"left_children":[1,3,5,7,9,11,13,15,17,19,21,23,25,27,29,31,33,35,37,39,41,43,-1,45,47,49,51,53,55,57,-1,59,61,63,65,67,-1,69,-1,-1,-1,71,73,-1,-1,75,77,79,81,83,85,87,89,-1,91,-1,-1,-1,-1,-1,-1,-1,-1,-1,-1,-1,-1,-1,-1,-1,-1,-1,-1,-1,-1,-1,-1,-1,-1,-1,-1,-1,-1,-1,-1,-1,-1,-1,-1,-1,-1,-1,-1],"loss_changes":[4.560288E-3,4.3886215E-3,2.1428363E-3,3.7581804E-3,2.8946633E-3,2.4273756E-3,2.9949152E-3,2.4766158E-3,3.5596872E-3,1.7367904E-3,3.6953372E-4,2.5186797E-3,4.3842895E-3,1.2354163E-3,1.0235328E-3,1.1905907E-3,3.5235633E-3,4.5063434E-4,2.195683E-3,1.1749187E-5,1.00081E-3,6.0068796E-6,0E0,2.5539326E-3,1.6003987E-3,6.9660926E-4,1.9732795E-3,6.615204E-4,5.688425E-5,1.1700811E-4,0E0,7.9753774E-4,1.213111E-3,2.5384752E-3,1.9011141E-3,2.3720853E-5,0E0,6.506685E-5,0E0,0E0,0E0,5.1611057E-4,2.0685544E-5,0E0,0E0,3.2487419E-4,7.843488E-4,4.1620544E-4,2.3123762E-4,1.847898E-4,1.4045509E-4,1.6056946E-3,1.146429E-3,0E0,6.423277E-4,0E0,0E0,0E0,0E0,0E0,0E0,0E0,0E0,0E0,0E0,0E0,0E0,0E0,0E0,0E0,0E0,0E0,0E0,0E0,0E0,0E0,0E0,0E0,0E0,0E0,0E0,0E0,0E0,0E0,0E0,0E0,0E0,0E0,0E0,0E0,0E0,0E0,0E0],"parents":[2147483647,0,0,1,1,2,2,3,3,4,4,5,5,6,6,7,7,8,8,9,9,10,10,11,11,12,12,13,13,14,14,15,15,16,16,17,17,18,18,19,19,20,20,21,21,23,23,24,24,25,25,26,26,27,27,28,28,29,29,31,31,32,32,33,33,34,34,35,35,37,37,41,41,42,42,45,45,46,46,47,47,48,48,49,49,50,50,51,51,52,52,54,54],"right_children":[2,4,6,8,10,12,14,16,18,20,22,24,26,28,30,32,34,36,38,40,42,44,-1,46,48,50,52,54,56,58,-1,60,62,64,66,68,-1,70,-1,-1,-1,72,74,-1,-1,76,78,80,82,84,86,88,90,-1,92,-1,-1,-1,-1,-1,-1,-1,-1,-1,-1,-1,-1,-1,-1,-1,-1,-1,-1,-1,-1,-1,-1,-1,-1,-1,-1,-1,-1,-1,-1,-1,-1,-1,-1,-1,-1,-1,-1],"split_conditions":[-2.0982122E0,1.0015272E0,3.1809082E0,8.5867333E-1,4.6549997E-1,-1.5691651E0,1.21633366E-1,1.9228119E-1,-4.6252677E-1,-3.4894556E-1,-1.4086688E-1,-5.205545E-1,-2.5670795E0,7.1517634E-1,2.9768558E0,-2.0581288E-2,7.141256E-1,1.9180975E0,6.4635885E-1,-1.6744186E-1,5.8715277E0,8.7815326E-1,1.6452181E-4,-8.401607E-2,6.0510945E-1,-1.8089104E-1,2.3107738E0,1.9710828E-1,-1.4138818E-1,1.627126E0,6.033165E-5,2.1923218E0,2.9768558E0,2.0610726E0,9.176744E0,1E0,2.0637842E-4,-1.767442E-1,1.4119076E-4,1.5728137E-5,7.863913E-5,6.846006E-1,0E0,9.178712E-6,3.6614154E-5,-1.0236937E0,-2.2707343E0,1.510573E-1,9.121829E-2,9.186782E-1,-8.267716E-2,4.052312E0,-1.902861E-1,1.5160459E-4,3.3556658E-1,-1.7272696E-4,-6.744398E-5,-2.6857908E-4,-1.3458915E-4,1.18064614E-4,-4.6461297E-5,2.4463327E-4,6.69038E-5,4.9508053E-5,2.0372262E-4,-1.469157E-4,7.719755E-5,3.83665E-5,-1.0126449E-5,-6.947625E-5,-2.7485404E-4,-2.4753175E-4,-6.713691E-5,-9.358031E-6,3.9297294E-5,-5.613136E-5,-1.8780396E-4,2.1145801E-4,1.0597561E-5,2.6607813E-5,1.4007837E-4,2.6429247E-4,1.0093715E-4,1.1868414E-5,-1.18909724E-4,-2.6965069E-4,-5.7849316E-5,-5.104844E-7,1.7877342E-4,4.636415E-5,-1.5945497E-4,9.786575E-5,-2.72154E-5],"split_indices":[157,55,50,53,134,58,68,29,86,49,28,36,16,105,49,135,34,19,10,11,85,10,0,76,121,63,140,66,44,157,0,160,49,85,11,6,0,11,0,0,0,66,3,0,0,64,21,50,101,19,25,40,35,0,91,0,0,0,0,0,0,0,0,0,0,0,0,0,0,0,0,0,0,0,0,0,0,0,0,0,0,0,0,0,0,0,0,0,0,0,0,0,0],"split_type":[0,0,0,0,0,0,0,0,0,0,0,0,0,0,0,0,0,0,0,0,0,0,0,0,0,0,0,0,0,0,0,0,0,0,0,0,0,0,0,0,0,0,0,0,0,0,0,0,0,0,0,0,0,0,0,0,0,0,0,0,0,0,0,0,0,0,0,0,0,0,0,0,0,0,0,0,0,0,0,0,0,0,0,0,0,0,0,0,0,0,0,0,0],"sum_hessian":[5.834E3,1.45E2,5.689E3,1.21E2,2.4E1,5.643E3,4.6E1,1.08E2,1.3E1,1.7E1,7E0,4.1E1,5.602E3,3.4E1,1.2E1,4.3E1,6.5E1,5E0,8E0,3E0,1.4E1,4E0,3E0,1.6E1,2.5E1,1E1,5.592E3,2.8E1,6E0,1.1E1,1E0,1.9E1,2.4E1,5E1,1.5E1,3E0,2E0,7E0,1E0,1E0,2E0,1.2E1,2E0,3E0,1E0,9E0,7E0,1.5E1,1E1,3E0,7E0,5.578E3,1.4E1,2E0,2.6E1,3E0,3E0,6E0,5E0,1.6E1,3E0,1.8E1,6E0,3.5E1,1.5E1,1E1,5E0,2E0,1E0,1E0,6E0,9E0,3E0,1E0,1E0,5E0,4E0,3E0,4E0,1.1E1,4E0,7E0,3E0,2E0,1E0,6E0,1E0,5.574E3,4E0,3E0,1.1E1,4E0,2.2E1],"tree_param":{"num_deleted":"0","num_feature":"161","num_nodes":"93","size_leaf_vector":"1"}},{"base_weights":[2.771643E-5,3.7797664E-3,-1.0422284E-4,5.5301776E-3,-6.090183E-3,-1.7674208E-4,4.5255716E-3,1.535276E-2,4.5310347E-3,8.891971E-3,-1.0206221E-2,-1.3113693E-4,-1.576836E-2,1.2709901E-2,-3.954336E-3,1.8917432E-2,4.439932E-3,5.9588226E-3,-2.6723458E-3,-3.5359617E-3,1.909691E-4,-2.0714099E-2,-3.6576502E-3,5.5269455E-3,-1.9909334E-4,-2.5140999E-2,9.879646E-3,2.6878446E-2,7.1725533E-3,-2.1751333E-2,8.518752E-3,2.2451949E-4,1.018562E-4,-1.4227919E-3,8.822678E-5,8.53813E-3,-1.4621587E-4,1.9794635E-3,-1.0313187E-2,-5.976178E-5,-7.3049687E-6,-2.1931742E-4,-5.4864755E-5,6.4293435E-3,-1.0352781E-2,7.8147575E-3,-1.4545609E-2,-4.47397E-3,-1.3083131E-4,-2.9954952E-4,-7.141546E-4,1.9573982E-4,-3.107907E-3,3.0764798E-4,-7.935705E-5,1.0857552E-2,-1.563495E-2,2.3342741E-3,-2.879967E-2,1.3399536E-5,1.7023074E-2,-1.0720595E-6,-2.026982E-5,9.7915974E-5,-5.533861E-5,1.6566195E-5,-1.633518E-4,-4.5721186E-5,8.3111045E-5,8.955502E-6,-2.1701034E-4,1.00296485E-4,-1.7142795E-5,2.6106854E-5,-1.2083242E-4,-2.0204581E-5,1.0919502E-4,2.2363858E-5,-2.1705685E-4,-2.2619452E-4,-2.0275384E-5,1.7007197E-4,-1.4690784E-6,2.6090622E-5,-3.680294E-5,-5.7560068E-5,1.0941466E-5,1.521114E-4,-2.4720113E-5,-1.8686672E-4,-1.7140303E-5,6.686653E-5,-7.537621E-5,-2.8375018E-5,-3.057849E-4,-1.3097152E-4,3.2899203E-5,2.0728189E-4,-2.2367132E-5],"categories":[],"categories_nodes":[],"categories_segments":[],"categories_sizes":[],"default_left":[0,0,0,0,0,0,0,0,0,0,0,0,0,0,0,0,0,0,0,0,0,0,0,0,0,0,0,0,0,0,0,0,0,0,0,0,0,0,0,0,0,0,0,0,0,0,0,0,0,0,0,0,0,0,0,0,0,0,0,0,0,0,0,0,0,0,0,0,0,0,0,0,0,0,0,0,0,0,0,0,0,0,0,0,0,0,0,0,0,0,0,0,0,0,0,0,0,0,0],"id":16,"left_children":[1,3,5,7,9,11,13,15,17,19,21,23,25,27,29,31,33,35,37,39,-1,41,43,45,47,49,51,53,55,57,59,-1,-1,61,-1,63,65,67,69,-1,-1,-1,-1,71,73,75,77,79,81,-1,83,-1,85,-1,-1,87,89,91,93,95,97,-1,-1,-1,-1,-1,-1,-1,-1,-1,-1,-1,-1,-1,-1,-1,-1,-1,-1,-1,-1,-1,-1,-1,-1,-1,-1,-1,-1,-1,-1,-1,-1,-1,-1,-1,-1,-1,-1],"loss_changes":[2.8562956E-3,3.419868E-3,1.8722656E-3,1.5694024E-3,1.9407661E-3,3.9009305E-3,6.0188617E-3,4.995179E-4,1.5895136E-3,9.5531007E-4,1.5757128E-3,2.1058698E-3,4.0946165E-3,3.2592844E-3,9.730585E-3,1.1080317E-4,1.4102699E-4,2.016835E-3,9.4455166E-4,2.301819E-5,0E0,4.6548434E-5,1.1471014E-3,3.0986161E-3,1.5781163E-3,1.3896842E-3,6.9036277E-4,1.8677404E-3,2.9432625E-3,3.1229686E-3,1.8804104E-3,0E0,0E0,2.1672872E-6,0E0,1.6416768E-3,1.1653167E-3,7.431979E-4,1.2958684E-3,0E0,0E0,0E0,0E0,2.224303E-4,2.558732E-4,1.8236763E-3,8.8966475E-4,3.7274314E-3,1.4699188E-3,0E0,3.917349E-5,0E0,3.9680293E-5,0E0,0E0,1.7205139E-3,1.803845E-4,2.6523258E-4,5.597817E-4,6.444865E-4,9.7404025E-4,0E0,0E0,0E0,0E0,0E0,0E0,0E0,0E0,0E0,0E0,0E0,0E0,0E0,0E0,0E0,0E0,0E0,0E0,0E0,0E0,0E0,0E0,0E0,0E0,0E0,0E0,0E0,0E0,0E0,0E0,0E0,0E0,0E0,0E0,0E0,0E0,0E0,0E0],"parents":[2147483647,0,0,1,1,2,2,3,3,4,4,5,5,6,6,7,7,8,8,9,9,10,10,11,11,12,12,13,13,14,14,15,15,16,16,17,17,18,18,19,19,21,21,22,22,23,23,24,24,25,25,26,26,27,27,28,28,29,29,30,30,33,33,35,35,36,36,37,37,38,38,43,43,44,44,45,45,46,46,47,47,48,48,50,50,52,52,55,55,56,56,57,57,58,58,59,59,60,60],"right_children":[2,4,6,8,10,12,14,16,18,20,22,24,26,28,30,32,34,36,38,40,-1,42,44,46,48,50,52,54,56,58,60,-1,-1,62,-1,64,66,68,70,-1,-1,-1,-1,72,74,76,78,80,82,-1,84,-1,86,-1,-1,88,90,92,94,96,98,-1,-1,-1,-1,-1,-1,-1,-1,-1,-1,-1,-1,-1,-1,-1,-1,-1,-1,-1,-1,-1,-1,-1,-1,-1,-1,-1,-1,-1,-1,-1,-1,-1,-1,-1,-1,-1,-1],"split_conditions":[-1.5237026E0,-5.062486E-1,3.8608646E0,-1.5551694E-1,-1.8819131E-1,2.9593723E0,-1.9323671E-2,-9.986965E-1,1.0514572E0,-3.846154E-1,-7.871305E-1,-2.6697695E0,1.1732393E-1,-2.7550619E0,-1.663083E-1,-1.8143862E0,-1.8139535E-1,4E-1,1.2058589E-1,0E0,1.909691E-4,2.356046E0,2.211767E-1,6.953047E-1,-1.5219871E0,2E-1,-1.4285715E-1,1E0,7.2230654E0,6.728205E-1,2.0447597E-1,2.2451949E-4,1.018562E-4,8.150469E-2,8.822678E-5,1.2943258E0,3.6430284E-1,-1.01393186E-1,-6.9779926E-3,-5.976178E-5,-7.3049687E-6,-2.1931742E-4,-5.4864755E-5,8E-1,-8.149932E-1,-2.946226E-1,9.5388785E-2,-6.357809E-1,-2.9477391E0,-2.9954952E-4,1E0,1.9573982E-4,1E0,3.0764798E-4,-7.935705E-5,2.576771E-1,3.3017853E-1,4.6666667E-1,-1.9069767E-1,1.3352491E-2,3.3666726E-2,-1.0720595E-6,-2.026982E-5,9.7915974E-5,-5.533861E-5,1.6566195E-5,-1.633518E-4,-4.5721186E-5,8.3111045E-5,8.955502E-6,-2.1701034E-4,1.00296485E-4,-1.7142795E-5,2.6106854E-5,-1.2083242E-4,-2.0204581E-5,1.0919502E-4,2.2363858E-5,-2.1705685E-4,-2.2619452E-4,-2.0275384E-5,1.7007197E-4,-1.4690784E-6,2.6090622E-5,-3.680294E-5,-5.7560068E-5,1.0941466E-5,1.521114E-4,-2.4720113E-5,-1.8686672E-4,-1.7140303E-5,6.686653E-5,-7.537621E-5,-2.8375018E-5,-3.057849E-4,-1.3097152E-4,3.2899203E-5,2.0728189E-4,-2.2367132E-5],"split_indices":[73,64,85,68,55,61,63,159,50,14,110,50,72,79,72,73,11,23,89,3,0,19,59,71,132,13,13,0,65,106,131,0,0,9,0,127,30,28,63,0,0,0,0,13,49,147,31,62,159,0,0,0,4,0,0,127,9,23,11,156,154,0,0,0,0,0,0,0,0,0,0,0,0,0,0,0,0,0,0,0,0,0,0,0,0,0,0,0,0,0,0,0,0,0,0,0,0,0,0],"split_type":[0,0,0,0,0,0,0,0,0,0,0,0,0,0,0,0,0,0,0,0,0,0,0,0,0,0,0,0,0,0,0,0,0,0,0,0,0,0,0,0,0,0,0,0,0,0,0,0,0,0,0,0,0,0,0,0,0,0,0,0,0,0,0,0,0,0,0,0,0,0,0,0,0,0,0,0,0,0,0,0,0,0,0,0,0,0,0,0,0,0,0,0,0,0,0,0,0,0,0],"sum_hessian":[5.768E3,1.95E2,5.573E3,1.66E2,2.9E1,5.488E3,8.5E1,1.4E1,1.52E2,6E0,2.3E1,5.473E3,1.5E1,4.3E1,4.2E1,1E1,4E0,1.27E2,2.5E1,3E0,3E0,8E0,1.5E1,6.4E1,5.409E3,1.1E1,4E0,1.1E1,3.2E1,1.7E1,2.5E1,6E0,4E0,2E0,2E0,8.9E1,3.8E1,1.6E1,9E0,1E0,2E0,7E0,1E0,6E0,9E0,5.8E1,6E0,8.4E1,5.325E3,9E0,2E0,2E0,2E0,1E1,1E0,2.8E1,4E0,4E0,1.3E1,1.3E1,1.2E1,1E0,1E0,8.2E1,7E0,3.5E1,3E0,8E0,8E0,5E0,4E0,4E0,2E0,1E0,8E0,1.4E1,4.4E1,2E0,4E0,9E0,7.5E1,4E0,5.321E3,1E0,1E0,1E0,1E0,2.1E1,7E0,3E0,1E0,3E0,1E0,1E0,1.2E1,2E0,1.1E1,1E1,2E0],"tree_param":{"num_deleted":"0","num_feature":"161","num_nodes":"99","size_leaf_vector":"1"}},{"base_weights":[1.2876649E-6,4.5915134E-3,-1.01909354E-4,-2.8787383E-3,8.726149E-3,-1.7899645E-5,-4.039535E-3,-1.4225164E-2,4.923434E-3,1.4074526E-2,-1.0135225E-3,-1.0885253E-2,9.670719E-6,-1.1840946E-2,-1.8150595E-3,2.5785428E-3,-2.4242206E-2,-6.7762844E-3,2.3620844E-2,3.543796E-3,1.9855116E-2,-6.5597068E-3,1.0734817E-2,1.1974927E-3,-1.7730944E-2,3.5395974E-3,-8.084202E-5,2.0142253E-3,-1.8110702E-2,2.1536918E-3,-4.721263E-3,-1.5185417E-4,7.285597E-3,-7.670612E-5,-2.6789462E-4,-2.0538975E-2,3.8489704E-3,2.8890403E-4,-6.1455496E-5,6.824407E-3,-1.7321136E-4,-3.688316E-3,2.144184E-2,1.1365225E-2,-1.1445881E-2,2.1440636E-2,2.416425E-5,6.6928944E-5,-3.2234318E-3,-2.4402762E-2,-3.2904805E-3,1.17036E-2,1.539886E-3,6.099014E-3,-1.2592689E-4,5.8370065E-3,-1.4284012E-4,1.0956127E-5,-2.0579966E-2,-1.1137964E-2,4.370727E-3,-1.2945151E-2,-2.5579897E-3,1.437295E-4,-1.6231563E-5,-9.507263E-6,-2.6909934E-4,-9.196249E-5,9.890458E-5,4.786035E-5,-4.878218E-5,1.5136208E-5,1.1967013E-4,2.5283575E-7,-5.5577577E-5,4.214434E-5,2.3078661E-4,1.5273447E-4,3.6685942E-5,-1.4817821E-4,3.217384E-5,2.3720103E-4,6.1613864E-5,-6.271622E-5,4.7399633E-5,-6.232953E-5,-1.4260697E-6,-2.3159286E-5,-2.8356942E-4,-5.767586E-5,2.0704178E-5,1.7213069E-4,4.446244E-5,-1.1820171E-4,2.8220284E-5,-1.1202604E-4,1.166292E-4,-1.04098086E-4,-7.1746973E-7,-1.4442726E-6,7.854889E-5,-2.3018336E-4,-7.510272E-5,-1.1619011E-5,-1.2900797E-4,6.0088954E-5,-6.66006E-5,-1.5867621E-4,1.373109E-6,-5.7618952E-5,1.9609333E-5],"categories":[],"categories_nodes":[],"categories_segments":[],"categories_sizes":[],"default_left":[0,0,0,0,0,0,0,0,0,0,0,0,0,0,0,0,0,0,0,0,0,0,0,0,0,0,0,0,0,0,0,0,0,0,0,0,0,0,0,0,0,0,0,0,0,0,0,0,0,0,0,0,0,0,0,0,0,0,0,0,0,0,0,0,0,0,0,0,0,0,0,0,0,0,0,0,0,0,0,0,0,0,0,0,0,0,0,0,0,0,0,0,0,0,0,0,0,0,0,0,0,0,0,0,0,0,0,0,0,0,0],"id":17,"left_children":[1,3,5,7,9,11,13,15,17,19,21,23,25,27,29,31,33,35,37,39,41,43,45,47,49,51,53,55,57,59,61,-1,63,-1,-1,65,67,-1,69,71,-1,73,75,77,79,81,83,-1,85,87,89,91,93,95,97,99,-1,-1,101,103,105,107,109,-1,-1,-1,-1,-1,-1,-1,-1,-1,-1,-1,-1,-1,-1,-1,-1,-1,-1,-1,-1,-1,-1,-1,-1,-1,-1,-1,-1,-1,-1,-1,-1,-1,-1,-1,-1,-1,-1,-1,-1,-1,-1,-1,-1,-1,-1,-1,-1],"loss_changes":[2.7360718E-3,3.9477395E-3,1.8686102E-3,4.142268E-3,4.285762E-3,1.6575858E-3,2.0262853E-3,3.2606549E-3,6.2851855E-3,3.1559514E-3,2.0251712E-3,1.1792391E-3,1.7636251E-3,2.2950605E-3,1.0828301E-3,7.7956216E-4,3.0105375E-4,2.7112316E-3,1.3745246E-3,1.4872011E-3,1.34922E-3,1.969356E-3,1.146145E-3,1.6734263E-4,7.8680064E-4,2.2349174E-3,1.5002901E-3,6.441172E-4,8.7620644E-4,1.2274039E-3,9.2757447E-4,0E0,4.6530593E-4,0E0,0E0,9.7278366E-4,9.578929E-4,0E0,9.339496E-5,4.7348964E-4,0E0,2.0967596E-5,8.05079E-4,9.436859E-5,8.882168E-4,2.7993927E-5,2.0786525E-4,0E0,3.619837E-5,4.5833923E-4,6.505936E-5,1.0030391E-3,1.9518605E-3,3.8849732E-3,2.9768224E-3,9.769312E-5,0E0,0E0,3.3702608E-4,9.052735E-5,6.7247957E-4,4.2274292E-4,6.483397E-4,0E0,0E0,0E0,0E0,0E0,0E0,0E0,0E0,0E0,0E0,0E0,0E0,0E0,0E0,0E0,0E0,0E0,0E0,0E0,0E0,0E0,0E0,0E0,0E0,0E0,0E0,0E0,0E0,0E0,0E0,0E0,0E0,0E0,0E0,0E0,0E0,0E0,0E0,0E0,0E0,0E0,0E0,0E0,0E0,0E0,0E0,0E0,0E0],"parents":[2147483647,0,0,1,1,2,2,3,3,4,4,5,5,6,6,7,7,8,8,9,9,10,10,11,11,12,12,13,13,14,14,15,15,16,16,17,17,18,18,19,19,20,20,21,21,22,22,23,23,24,24,25,25,26,26,27,27,28,28,29,29,30,30,32,32,35,35,36,36,38,38,39,39,41,41,42,42,43,43,44,44,45,45,46,46,48,48,49,49,50,50,51,51,52,52,53,53,54,54,55,55,58,58,59,59,60,60,61,61,62,62],"right_children":[2,4,6,8,10,12,14,16,18,20,22,24,26,28,30,32,34,36,38,40,42,44,46,48,50,52,54,56,58,60,62,-1,64,-1,-1,66,68,-1,70,72,-1,74,76,78,80,82,84,-1,86,88,90,92,94,96,98,100,-1,-1,102,104,106,108,110,-1,-1,-1,-1,-1,-1,-1,-1,-1,-1,-1,-1,-1,-1,-1,-1,-1,-1,-1,-1,-1,-1,-1,-1,-1,-1,-1,-1,-1,-1,-1,-1,-1,-1,-1,-1,-1,-1,-1,-1,-1,-1,-1,-1,-1,-1,-1,-1],"split_conditions":[-2.0982122E0,-4.4121316E-1,2.385883E0,9.212944E-2,2.8321677E-1,-3.7300625E0,-1.0913706E0,1.8954154E-2,7.2230654E0,1.0279325E0,7.9545456E-1,1.5520355E0,-1.546477E0,-3.6363637E-1,-1.7250311E-1,-2.8692765E0,-4.105373E-1,4.1858143E-1,-7.9495734E-1,1.5682057E0,1.2981308E0,1.1377361E-1,-3.3185065E-1,-4.784292E-1,1E0,-3.3333334E-1,-1.5691651E0,6.738179E-1,6.705784E-2,-6.230991E-1,-2.889684E-1,-1.5185417E-4,-1.9876235E0,-7.670612E-5,-2.6789462E-4,-5.1268333E-1,-7.9534537E-1,2.8890403E-4,-5.3846157E-1,-4.153367E-2,-1.7321136E-4,0E0,-1.4396285E-1,1.53732395E1,5.3682286E-1,8.0244535E-1,-3.1508806E-1,6.6928944E-5,-2.5892434E-1,-4.5163137E-1,0E0,7.7945113E-1,-1.3544892E-1,-3.9848486E-1,-1.8089017E0,-1.3312693E-1,-1.4284012E-4,1.0956127E-5,-1.1277711E0,0E0,7.4557865E-1,1.2944274E0,2.9312763E-1,1.437295E-4,-1.6231563E-5,-9.507263E-6,-2.6909934E-4,-9.196249E-5,9.890458E-5,4.786035E-5,-4.878218E-5,1.5136208E-5,1.1967013E-4,2.5283575E-7,-5.5577577E-5,4.214434E-5,2.3078661E-4,1.5273447E-4,3.6685942E-5,-1.4817821E-4,3.217384E-5,2.3720103E-4,6.1613864E-5,-6.271622E-5,4.7399633E-5,-6.232953E-5,-1.4260697E-6,-2.3159286E-5,-2.8356942E-4,-5.767586E-5,2.0704178E-5,1.7213069E-4,4.446244E-5,-1.1820171E-4,2.8220284E-5,-1.1202604E-4,1.166292E-4,-1.04098086E-4,-7.1746973E-7,-1.4442726E-6,7.854889E-5,-2.3018336E-4,-7.510272E-5,-1.1619011E-5,-1.2900797E-4,6.0088954E-5,-6.66006E-5,-1.5867621E-4,1.373109E-6,-5.7618952E-5,1.9609333E-5],"split_indices":[157,105,50,133,62,50,64,48,65,91,62,19,130,80,109,155,54,71,20,156,19,65,59,40,8,23,58,20,47,107,105,0,155,0,0,41,89,0,14,103,0,5,28,12,134,18,10,0,10,32,3,66,28,46,17,28,0,0,22,3,41,40,136,0,0,0,0,0,0,0,0,0,0,0,0,0,0,0,0,0,0,0,0,0,0,0,0,0,0,0,0,0,0,0,0,0,0,0,0,0,0,0,0,0,0,0,0,0,0,0,0],"split_type":[0,0,0,0,0,0,0,0,0,0,0,0,0,0,0,0,0,0,0,0,0,0,0,0,0,0,0,0,0,0,0,0,0,0,0,0,0,0,0,0,0,0,0,0,0,0,0,0,0,0,0,0,0,0,0,0,0,0,0,0,0,0,0,0,0,0,0,0,0,0,0,0,0,0,0,0,0,0,0,0,0,0,0,0,0,0,0,0,0,0,0,0,0,0,0,0,0,0,0,0,0,0,0,0,0,0,0,0,0,0,0],"sum_hessian":[5.774E3,1.26E2,5.648E3,4.5E1,8.1E1,5.531E3,1.17E2,1.8E1,2.7E1,5.2E1,2.9E1,1.3E1,5.518E3,2.5E1,9.2E1,7E0,1.1E1,1.7E1,1E1,1.9E1,3.3E1,2E1,9E0,5E0,8E0,1.37E2,5.381E3,8E0,1.7E1,3.9E1,5.3E1,1E0,6E0,2E0,9E0,7E0,1E1,8E0,2E0,1.7E1,2E0,2E0,3.1E1,4E0,1.6E1,4E0,5E0,2E0,3E0,5E0,3E0,2.6E1,1.11E2,3.8E1,5.343E3,7E0,1E0,2E0,1.5E1,5E0,3.4E1,1E1,4.3E1,3E0,3E0,2E0,5E0,3E0,7E0,1E0,1E0,9E0,8E0,1E0,1E0,3E0,2.8E1,2E0,2E0,1.3E1,3E0,3E0,1E0,2E0,3E0,1E0,2E0,1E0,4E0,2E0,1E0,1.4E1,1.2E1,9E0,1.02E2,9E0,2.9E1,2.7E1,5.316E3,2E0,5E0,1.2E1,3E0,1E0,4E0,3E1,4E0,8E0,2E0,2.5E1,1.8E1],"tree_param":{"num_deleted":"0","num_feature":"161","num_nodes":"111","size_leaf_vector":"1"}},{"base_weights":[3.1032243E-5,6.4938436E-3,-6.459352E-5,9.461275E-3,-7.984921E-3,4.4229943E-3,-1.9394662E-4,1.1822233E-2,-1.0609048E-2,-1.8398322E-2,1.6521547E-2,9.746011E-3,7.1734696E-4,-9.991695E-3,-1.5340335E-4,1.5158751E-2,-8.764255E-5,-1.6793399E-4,5.2960044E-5,-2.186135E-2,8.115971E-5,2.308562E-4,-4.8673763E-5,3.0932426E-3,1.8664297E-2,-6.017766E-4,1.21219875E-2,-1.6361158E-2,1.0781977E-2,-1.139187E-4,-7.431892E-3,1.7632168E-2,3.5018644E-3,1.0755464E-2,-1.8144881E-2,-2.5210144E-2,4.1389005E-5,-1.6054438E-4,4.5621563E-3,2.22076E-2,8.716477E-3,1.2439166E-3,-1.1203716E-2,1.579502E-4,-1.71343E-5,-2.1127112E-2,5.6014583E-3,-1.7821403E-3,2.394014E-4,3.3225585E-3,-1.861645E-4,-1.898089E-2,-3.091724E-3,2.0413067E-4,3.6093257E-5,7.7520264E-5,-2.2987031E-5,1.338711E-6,1.3394128E-4,-5.8759364E-5,-2.2810367E-4,-9.0570386E-5,-2.8531454E-4,-3.6248446E-5,6.593284E-5,3.948855E-5,2.2960751E-4,8.167211E-6,1.0856876E-4,2.9332461E-5,-1.00300495E-4,-2.0281435E-4,-4.9156806E-5,-2.6584556E-4,-8.510186E-5,6.9930655E-5,7.1331797E-6,3.9286697E-5,-4.9953003E-5,1.9664116E-5,1.892578E-4,-1.2702383E-6,-1.2452967E-4,-2.0463778E-4,-4.3003358E-5,4.6821395E-5,-7.549927E-5],"categories":[],"categories_nodes":[],"categories_segments":[],"categories_sizes":[],"default_left":[0,0,0,0,0,0,0,0,0,0,0,0,0,0,0,0,0,0,0,0,0,0,0,0,0,0,0,0,0,0,0,0,0,0,0,0,0,0,0,0,0,0,0,0,0,0,0,0,0,0,0,0,0,0,0,0,0,0,0,0,0,0,0,0,0,0,0,0,0,0,0,0,0,0,0,0,0,0,0,0,0,0,0,0,0,0,0],"id":18,"left_children":[1,3,5,7,9,11,13,15,17,19,21,23,25,27,29,31,33,-1,-1,35,-1,-1,-1,37,39,41,43,45,47,49,51,53,55,57,59,61,-1,-1,63,65,67,69,71,-1,-1,73,75,77,-1,79,81,83,85,-1,-1,-1,-1,-1,-1,-1,-1,-1,-1,-1,-1,-1,-1,-1,-1,-1,-1,-1,-1,-1,-1,-1,-1,-1,-1,-1,-1,-1,-1,-1,-1,-1,-1],"loss_changes":[3.6028072E-3,3.7275502E-3,3.335735E-3,3.489771E-3,4.1319043E-3,3.1687692E-3,2.2170115E-3,2.5445297E-3,8.7583746E-4,1.1874428E-3,8.143588E-4,3.8581318E-3,1.4515312E-3,3.2196997E-3,1.5978962E-3,1.3798717E-3,3.132105E-3,0E0,0E0,9.75037E-4,0E0,0E0,0E0,1.1701682E-3,7.93376E-4,1.7163461E-3,5.352432E-4,2.0024534E-3,1.034589E-3,1.3745506E-3,1.4450543E-3,1.5251637E-3,2.6435312E-4,2.784751E-4,2.0941137E-4,2.2443524E-4,0E0,0E0,6.39167E-4,1.8436369E-4,1.433107E-4,1.4578289E-3,6.4235623E-4,0E0,0E0,8.066031E-4,2.2221211E-5,9.302387E-5,0E0,2.3750537E-3,3.9311745E-3,8.615595E-5,8.3247153E-4,0E0,0E0,0E0,0E0,0E0,0E0,0E0,0E0,0E0,0E0,0E0,0E0,0E0,0E0,0E0,0E0,0E0,0E0,0E0,0E0,0E0,0E0,0E0,0E0,0E0,0E0,0E0,0E0,0E0,0E0,0E0,0E0,0E0,0E0],"parents":[2147483647,0,0,1,1,2,2,3,3,4,4,5,5,6,6,7,7,8,8,9,9,10,10,11,11,12,12,13,13,14,14,15,15,16,16,19,19,23,23,24,24,25,25,26,26,27,27,28,28,29,29,30,30,31,31,32,32,33,33,34,34,35,35,38,38,39,39,40,40,41,41,42,42,45,45,46,46,47,47,49,49,50,50,51,51,52,52],"right_children":[2,4,6,8,10,12,14,16,18,20,22,24,26,28,30,32,34,-1,-1,36,-1,-1,-1,38,40,42,44,46,48,50,52,54,56,58,60,62,-1,-1,64,66,68,70,72,-1,-1,74,76,78,-1,80,82,84,86,-1,-1,-1,-1,-1,-1,-1,-1,-1,-1,-1,-1,-1,-1,-1,-1,-1,-1,-1,-1,-1,-1,-1,-1,-1,-1,-1,-1,-1,-1,-1,-1,-1,-1],"split_conditions":[-2.8860323E0,3.13524E0,-1.554996E0,1.1398289E0,8.571429E-2,-3.1559482E-1,-3.1045976E0,-8.113708E-1,1.7142858E-1,5.507183E-1,8.857143E-1,3.2040473E-2,6.8273544E-1,5.4320437E-1,2.1077465E1,8.8364625E-1,4.740958E-2,-1.6793399E-4,5.2960044E-5,6.666667E-1,8.115971E-5,2.308562E-4,-4.8673763E-5,-1.4551084E-1,-9.001E-3,3.883989E-1,3.6786263E0,1.211208E0,1.447447E0,-1.4366014E0,-5.706638E-1,5.5008584E-1,-4.784292E-1,-6.1045945E-1,-4.6666667E-1,-3.2046333E-1,4.1389005E-5,-1.6054438E-4,-6.781784E-1,-2.0840716E0,-3.0303031E-2,8.2131004E-1,0E0,1.579502E-4,-1.71343E-5,2.9979324E-1,-1.827701E-1,-1.2279867E-1,2.394014E-4,1.6875907E0,2.3404474E0,-3.0937648E-1,-4.916316E-1,2.0413067E-4,3.6093257E-5,7.7520264E-5,-2.2987031E-5,1.338711E-6,1.3394128E-4,-5.8759364E-5,-2.2810367E-4,-9.0570386E-5,-2.8531454E-4,-3.6248446E-5,6.593284E-5,3.948855E-5,2.2960751E-4,8.167211E-6,1.0856876E-4,2.9332461E-5,-1.00300495E-4,-2.0281435E-4,-4.9156806E-5,-2.6584556E-4,-8.510186E-5,6.9930655E-5,7.1331797E-6,3.9286697E-5,-4.9953003E-5,1.9664116E-5,1.892578E-4,-1.2702383E-6,-1.2452967E-4,-2.0463778E-4,-4.3003358E-5,4.6821395E-5,-7.549927E-5],"split_indices":[50,27,73,101,13,50,79,154,13,24,13,78,34,133,12,55,56,0,0,23,0,0,0,28,57,152,65,48,49,57,86,32,40,56,23,75,0,0,108,48,62,119,23,0,0,29,10,10,0,131,30,10,159,0,0,0,0,0,0,0,0,0,0,0,0,0,0,0,0,0,0,0,0,0,0,0,0,0,0,0,0,0,0,0,0,0,0],"split_type":[0,0,0,0,0,0,0,0,0,0,0,0,0,0,0,0,0,0,0,0,0,0,0,0,0,0,0,0,0,0,0,0,0,0,0,0,0,0,0,0,0,0,0,0,0,0,0,0,0,0,0,0,0,0,0,0,0,0,0,0,0,0,0,0,0,0,0,0,0,0,0,0,0,0,0,0,0,0,0,0,0,0,0,0,0,0,0],"sum_hessian":[5.828E3,8.4E1,5.744E3,7E1,1.4E1,1.6E2,5.584E3,6.3E1,7E0,1E1,4E0,6.5E1,9.5E1,2.2E1,5.562E3,4.9E1,1.4E1,5E0,2E0,9E0,1E0,3E0,1E0,3.8E1,2.7E1,8.6E1,9E0,1.7E1,5E0,5.533E3,2.9E1,4E1,9E0,9E0,5E0,8E0,1E0,2E0,3.6E1,1.9E1,8E0,7.4E1,1.2E1,7E0,2E0,1.4E1,3E0,3E0,2E0,1.13E2,5.42E3,7E0,2.2E1,3.3E1,7E0,5E0,4E0,2E0,7E0,2E0,3E0,2E0,6E0,7E0,2.9E1,1E0,1.8E1,2E0,6E0,6.5E1,9E0,4E0,8E0,9E0,5E0,2E0,1E0,1E0,2E0,1.05E2,8E0,5.395E3,2.5E1,6E0,1E0,8E0,1.4E1],"tree_param":{"num_deleted":"0","num_feature":"161","num_nodes":"87","size_leaf_vector":"1"}},{"base_weights":[-1.7549262E-5,6.912052E-3,-7.800338E-5,-8.008866E-3,1.1325872E-2,-1.7914314E-5,-7.3445635E-3,-1.4392041E-2,1.5938008E-4,-1.1597184E-2,1.355827E-2,4.012952E-3,-1.137113E-4,2.4348202E-3,-1.6047813E-2,-7.721103E-4,-2.0118853E-2,5.38842E-5,-1.9055192E-4,1.6129939E-2,-5.6120637E-3,6.062862E-3,-1.02107255E-2,-2.0438727E-4,2.5946058E-3,1.8103715E-2,-8.931164E-3,-2.0632097E-2,1.3177697E-2,3.6001667E-5,-3.4295917E-5,-2.1625393E-4,-5.5398014E-5,2.1944856E-2,8.07671E-3,6.6406086E-5,-1.03353836E-4,2.0684463E-3,1.2096355E-2,-1.6198395E-2,3.4664006E-3,-1.2707205E-4,-4.5001474E-3,2.1036241E-4,2.163187E-3,2.1492522E-2,3.0323283E-5,2.6390876E-3,-1.7938739E-2,3.4783347E-4,-2.2747481E-2,1.5824258E-4,2.6190071E-5,-3.7998303E-5,2.5400432E-4,-9.913893E-5,1.3400518E-4,-5.8159152E-5,7.337703E-5,2.068264E-4,8.457588E-5,-1.983358E-4,-3.969628E-5,7.643357E-5,-5.329171E-6,1.15829025E-5,-2.8436948E-6,-7.640412E-5,2.5584379E-5,2.6282973E-5,-6.810907E-5,5.2575775E-5,2.3060715E-4,-7.850155E-6,5.403419E-5,-2.3531695E-4,-9.8766235E-5,3.3322518E-5,-2.8105016E-5,-1.6839356E-5,-2.4994323E-4],"categories":[],"categories_nodes":[],"categories_segments":[],"categories_sizes":[],"default_left":[0,0,0,0,0,0,0,0,0,0,0,0,0,0,0,0,0,0,0,0,0,0,0,0,0,0,0,0,0,0,0,0,0,0,0,0,0,0,0,0,0,0,0,0,0,0,0,0,0,0,0,0,0,0,0,0,0,0,0,0,0,0,0,0,0,0,0,0,0,0,0,0,0,0,0,0,0,0,0,0,0],"id":19,"left_children":[1,3,5,7,9,11,13,15,-1,17,19,21,23,25,27,29,31,-1,-1,33,35,37,39,41,43,45,47,49,51,-1,-1,-1,-1,53,55,-1,-1,57,59,61,63,65,67,-1,69,71,-1,73,75,77,79,-1,-1,-1,-1,-1,-1,-1,-1,-1,-1,-1,-1,-1,-1,-1,-1,-1,-1,-1,-1,-1,-1,-1,-1,-1,-1,-1,-1,-1,-1],"loss_changes":[2.4219137E-3,3.3836192E-3,2.5022568E-3,2.0636658E-3,2.1530003E-3,2.1956896E-3,4.039358E-3,7.644538E-4,0E0,6.0939253E-4,1.8653139E-3,3.9106645E-3,1.3644777E-3,4.2578126E-3,3.6213333E-3,5.8824084E-5,3.3947406E-5,0E0,0E0,1.3212813E-3,3.5799976E-4,2.7706106E-3,1.4483498E-3,1.784614E-3,1.3865874E-3,4.4556777E-4,1.5064204E-3,9.842869E-4,7.033296E-5,0E0,0E0,0E0,0E0,1.6978458E-3,1.5695292E-3,0E0,0E0,2.992351E-3,1.262276E-3,4.5471406E-4,1.0430313E-4,1.0680641E-3,2.1253005E-3,0E0,7.566892E-4,8.243299E-5,0E0,7.0499256E-5,1.2831483E-4,3.764268E-5,9.0443995E-4,0E0,0E0,0E0,0E0,0E0,0E0,0E0,0E0,0E0,0E0,0E0,0E0,0E0,0E0,0E0,0E0,0E0,0E0,0E0,0E0,0E0,0E0,0E0,0E0,0E0,0E0,0E0,0E0,0E0,0E0],"parents":[2147483647,0,0,1,1,2,2,3,3,4,4,5,5,6,6,7,7,9,9,10,10,11,11,12,12,13,13,14,14,15,15,16,16,19,19,20,20,21,21,22,22,23,23,24,24,25,25,26,26,27,27,28,28,33,33,34,34,37,37,38,38,39,39,40,40,41,41,42,42,44,44,45,45,47,47,48,48,49,49,50,50],"right_children":[2,4,6,8,10,12,14,16,-1,18,20,22,24,26,28,30,32,-1,-1,34,36,38,40,42,44,46,48,50,52,-1,-1,-1,-1,54,56,-1,-1,58,60,62,64,66,68,-1,70,72,-1,74,76,78,80,-1,-1,-1,-1,-1,-1,-1,-1,-1,-1,-1,-1,-1,-1,-1,-1,-1,-1,-1,-1,-1,-1,-1,-1,-1,-1,-1,-1,-1,-1],"split_conditions":[-3.2603269E0,-1.5430048E-1,1.6827347E1,4.1316706E-1,-7.464956E-1,-1.9213141E0,-1.4501774E0,-1.6291107E0,1.5938008E-4,0E0,1.3392572E0,9.8368865E-1,1E0,-3.5341424E-1,3.9284093E0,0E0,1E0,5.38842E-5,-1.9055192E-4,2.3681629E-1,3.255814E-2,4.3822125E-1,-9.186419E-1,7.2230654E0,-1.3804775E0,9.4700044E-1,3.6671883E-1,-6.497669E-1,-1.9534884E-1,3.6001667E-5,-3.4295917E-5,-2.1625393E-4,-5.5398014E-5,-1.1882901E0,-1.2746438E-1,6.6406086E-5,-1.03353836E-4,9.278614E-1,-1.2152051E0,5.353679E0,2.588549E-2,-8.8920575E-1,-2.6206717E-2,2.1036241E-4,9.210789E-1,-5.3333336E-1,3.0323283E-5,-1.8721972E-1,3.9378178E-1,-7.5325656E-1,6.705784E-2,1.5824258E-4,2.6190071E-5,-3.7998303E-5,2.5400432E-4,-9.913893E-5,1.3400518E-4,-5.8159152E-5,7.337703E-5,2.068264E-4,8.457588E-5,-1.983358E-4,-3.969628E-5,7.643357E-5,-5.329171E-6,1.15829025E-5,-2.8436948E-6,-7.640412E-5,2.5584379E-5,2.6282973E-5,-6.810907E-5,5.2575775E-5,2.3060715E-4,-7.850155E-6,5.403419E-5,-2.3531695E-4,-9.8766235E-5,3.3322518E-5,-2.8105016E-5,-1.6839356E-5,-2.4994323E-4],"split_indices":[154,131,93,150,103,157,57,21,0,5,94,55,0,144,49,3,4,0,0,135,11,131,18,65,20,50,54,62,11,0,0,0,0,35,149,0,0,91,130,76,17,132,17,0,71,23,0,34,121,9,47,0,0,0,0,0,0,0,0,0,0,0,0,0,0,0,0,0,0,0,0,0,0,0,0,0,0,0,0,0,0],"split_type":[0,0,0,0,0,0,0,0,0,0,0,0,0,0,0,0,0,0,0,0,0,0,0,0,0,0,0,0,0,0,0,0,0,0,0,0,0,0,0,0,0,0,0,0,0,0,0,0,0,0,0,0,0,0,0,0,0,0,0,0,0,0,0,0,0,0,0,0,0,0,0,0,0,0,0,0,0,0,0,0,0],"sum_hessian":[5.779E3,4.9E1,5.73E3,1.1E1,3.8E1,5.684E3,4.6E1,9E0,2E0,3E0,3.5E1,1.31E2,5.553E3,2.2E1,2.4E1,3E0,6E0,1E0,2E0,3.1E1,4E0,1.15E2,1.6E1,5.374E3,1.79E2,9E0,1.3E1,2.1E1,3E0,1E0,2E0,5E0,1E0,1.7E1,1.4E1,1E0,3E0,7E1,4.5E1,1.1E1,5E0,5.28E3,9.4E1,3E0,1.76E2,7E0,2E0,6E0,7E0,2E0,1.9E1,2E0,1E0,2E0,1.5E1,3E0,1.1E1,2.8E1,4.2E1,1.2E1,3.3E1,8E0,3E0,2E0,3E0,5.75E2,4.705E3,6.5E1,2.9E1,1.68E2,8E0,1E0,6E0,3E0,3E0,3E0,4E0,1E0,1E0,2E0,1.7E1],"tree_param":{"num_deleted":"0","num_feature":"161","num_nodes":"81","size_leaf_vector":"1"}},{"base_weights":[4.903085E-5,5.2978653E-6,9.372059E-3,6.673937E-5,-8.562175E-3,1.4757279E-2,-1.19357575E-2,1.5041163E-2,2.470894E-5,6.7206435E-3,-1.6735513E-2,-1.9626494E-4,2.1748684E-2,3.3968445E-5,-1.5681646E-4,-4.491533E-3,2.4327982E-2,1.5596622E-4,-2.0920367E-3,-2.658601E-4,1.7262807E-2,2.7570617E-4,-2.391264E-2,5.5567278E-3,-1.1636829E-4,2.3821266E-2,5.517932E-5,-1.0366888E-4,4.8394506E-3,-3.0322E-5,2.9744307E-4,-9.85811E-3,1.8210792E-4,1.4849106E-2,-2.3955575E-3,2.2226717E-2,-5.0378265E-3,1.5133939E-2,-1.4637668E-2,-1.4482336E-3,-2.6470322E-2,2.8238994E-5,9.610435E-5,2.7289736E-4,9.194773E-5,7.1761315E-5,8.3043625E-7,-6.342714E-5,6.297231E-5,-1.6551284E-4,1.1012642E-4,1.0337948E-6,4.3624183E-5,1.1615441E-5,2.14025E-4,-1.2060503E-5,-1.04668194E-4,2.3533843E-4,5.23129E-5,2.643407E-5,-1.0200146E-4,2.2716702E-4,2.5065296E-5,-2.0089849E-4,-4.3062635E-5,3.3155906E-5,-5.4879412E-5,-1.22579E-4,-2.9900458E-4],"categories":[],"categories_nodes":[],"categories_segments":[],"categories_sizes":[],"default_left":[0,0,0,0,0,0,0,0,0,0,0,0,0,0,0,0,0,0,0,0,0,0,0,0,0,0,0,0,0,0,0,0,0,0,0,0,0,0,0,0,0,0,0,0,0,0,0,0,0,0,0,0,0,0,0,0,0,0,0,0,0,0,0,0,0,0,0,0,0],"id":20,"left_children":[1,3,5,7,9,11,13,15,17,19,21,23,25,-1,-1,27,29,31,33,-1,35,37,39,41,-1,43,-1,-1,45,47,-1,49,51,53,55,57,59,61,63,65,67,-1,-1,-1,-1,-1,-1,-1,-1,-1,-1,-1,-1,-1,-1,-1,-1,-1,-1,-1,-1,-1,-1,-1,-1,-1,-1,-1,-1],"loss_changes":[2.3578173E-3,3.031047E-3,3.2743157E-3,3.5978025E-3,5.23385E-3,2.3042867E-3,3.9787346E-4,3.0116155E-3,1.5845601E-3,5.725812E-3,3.3030696E-3,5.912025E-4,3.7315022E-4,0E0,0E0,3.7910705E-4,1.4521596E-3,1.4075807E-3,1.747854E-3,0E0,1.4403542E-3,2.2158031E-3,1.0533435E-3,3.932962E-5,0E0,4.0858658E-4,0E0,0E0,3.27467E-5,1.5976753E-4,0E0,2.1379553E-3,1.7625878E-3,5.133399E-4,3.136447E-3,9.903917E-5,1.4592211E-4,4.2181334E-4,1.9513129E-4,7.592914E-5,4.622424E-4,0E0,0E0,0E0,0E0,0E0,0E0,0E0,0E0,0E0,0E0,0E0,0E0,0E0,0E0,0E0,0E0,0E0,0E0,0E0,0E0,0E0,0E0,0E0,0E0,0E0,0E0,0E0,0E0],"parents":[2147483647,0,0,1,1,2,2,3,3,4,4,5,5,6,6,7,7,8,8,9,9,10,10,11,11,12,12,15,15,16,16,17,17,18,18,20,20,21,21,22,22,23,23,25,25,28,28,29,29,31,31,32,32,33,33,34,34,35,35,36,36,37,37,38,38,39,39,40,40],"right_children":[2,4,6,8,10,12,14,16,18,20,22,24,26,-1,-1,28,30,32,34,-1,36,38,40,42,-1,44,-1,-1,46,48,-1,50,52,54,56,58,60,62,64,66,68,-1,-1,-1,-1,-1,-1,-1,-1,-1,-1,-1,-1,-1,-1,-1,-1,-1,-1,-1,-1,-1,-1,-1,-1,-1,-1,-1,-1],"split_conditions":[2.3407655E0,2.5166965E0,-9.345127E-1,-4.485699E0,-4.3365365E-1,8.8983756E-1,0E0,-9.938457E-2,1.4865745E0,-1.1829128E0,-7.224252E-1,3.9989743E-1,9.782269E-1,3.3968445E-5,-1.5681646E-4,-5.7142857E-2,-8.9990973E-1,-2.6662161E0,-2.5584E0,-2.658601E-4,-2.9423264E-1,-4.1055718E-1,-4.6746275E-1,8.680272E-1,-1.1636829E-4,1.968504E-2,5.517932E-5,-1.0366888E-4,1E0,0E0,2.9744307E-4,-1.40256835E-2,7.788844E0,8.407994E-2,4.0701926E-1,4.000525E0,0E0,7.0422534E-3,4.461657E0,-7.5325656E-1,-1.6756529E-1,2.8238994E-5,9.610435E-5,2.7289736E-4,9.194773E-5,7.1761315E-5,8.3043625E-7,-6.342714E-5,6.297231E-5,-1.6551284E-4,