{"learner":{"attributes":{"best_iteration":"18","best_score":"0.01110526554733751"},"feature_names":["D1","D2","D3","D4","D5","D6","D7","D8","D9","E1","E10","E11","E12","E13","E14","E15","E16","E17","E18","E19","E2","E20","E3","E4","E5","E6","E7","E8","E9","I1","I2","I3","I4","I5","I6","I7","I8","I9","M1","M10","M11","M12","M13","M14","M15","M16","M17","M18","M2","M3","M4","M5","M6","M7","M8","M9","P1","P10","P11","P12","P13","P2","P3","P4","P5","P6","P7","P8","P9","S1","S10","S11","S12","S2","S3","S4","S5","S6","S7","S8","S9","V1","V10","V11","V12","V13","V2","V3","V4","V5","V6","V7","V8","V9","V1_ma5","V1_std5","V1_ma21","V1_std21","V1_ma63","V1_std63","V2_ma5","V2_std5","V2_ma21","V2_std21","V2_ma63","V2_std63","V3_ma5","V3_std5","V3_ma21","V3_std21","V3_ma63","V3_std63","M1_ma5","M1_std5","M1_ma21","M1_std21","M1_ma63","M1_std63","M2_ma5","M2_std5","M2_ma21","M2_std21","M2_ma63","M2_std63","S1_ma5","S1_std5","S1_ma21","S1_std21","S1_ma63","S1_std63","S2_ma5","S2_std5","S2_ma21","S2_std21","S2_ma63","S2_std63","E1_ma5","E1_std5","E1_ma21","E1_std21","E1_ma63","E1_std63","P1_ma5","P1_std5","P1_ma21","P1_std21","P1_ma63","P1_std63","I1_ma5","I1_std5","I1_ma21","I1_std21","I1_ma63","I1_std63","lagged_ret","cum_ret_5","vol_5","cum_ret_10","vol_10","cum_ret_21","vol_21"],"feature_types":["float","float","float","float","float","float","float","float","float","float","float","float","float","float","float","float","float","float","float","float","float","float","float","float","float","float","float","float","float","float","float","float","float","float","float","float","float","float","float","float","float","float","float","float","float","float","float","float","float","float","float","float","float","float","float","float","float","float","float","float","float","float","float","float","float","float","float","float","float","float","float","float","float","float","float","float","float","float","float","float","float","float","float","float","float","float","float","float","float","float","float","float","float","float","float","float","float","float","float","float","float","float","float","float","float","float","float","float","float","float","float","float","float","float","float","float","float","float","float","float","float","float","float","float","float","float","float","float","float","float","float","float","float","float","float","float","float","float","float","float","float","float","float","float","float","float","float","float","float","float","float","float","float","float","float","float","float","float","float","float","float"],"gradient_booster":{"model":{"cats":{"enc":[],"feature_segments":[],"sorted_idx":[]},"gbtree_model_param":{"num_parallel_tree":"1","num_trees":"69"},"iteration_indptr":[0,1,2,3,4,5,6,7,8,9,10,11,12,13,14,15,16,17,18,19,20,21,22,23,24,25,26,27,28,29,30,31,32,33,34,35,36,37,38,39,40,41,42,43,44,45,46,47,48,49,50,51,52,53,54,55,56,57,58,59,60,61,62,63,64,65,66,67,68,69],"tree_info":[0,0,0,0,0,0,0,0,0,0,0,0,0,0,0,0,0,0,0,0,0,0,0,0,0,0,0,0,0,0,0,0,0,0,0,0,0,0,0,0,0,0,0,0,0,0,0,0,0,0,0,0,0,0,0,0,0,0,0,0,0,0,0,0,0,0,0,0,0],"trees":[{"base_weights":[-1.00750876E-4,4.0304437E-3,-2.5308266E-4,1.0019526E-2,6.6786836E-4,-1.9785351E-4,-8.311329E-3,1.4752744E-2,-4.5604387E-4,1.0247993E-2,-1.3232194E-3,5.30076E-3,-2.8538445E-4,-1.6355164E-2,1.0479909E-2,1.7601222E-2,-2.757979E-3,9.638835E-3,-2.9569615E-3,1.4939518E-2,3.7718292E-3,9.583089E-3,-3.3975844E-3,9.6519775E-4,1.4401937E-2,-5.516513E-5,-1.8239879E-3,1.3898056E-2,-2.3862626E-2,2.6901503E-4,-1.042527E-2,1.970863E-2,-2.7782817E-3,8.844461E-3,-1.1488335E-2,2.3577204E-6,1.1930658E-4,-5.7067825E-3,6.4338576E-3,1.6144741E-2,2.3841928E-6,8.966074E-3,-2.0510545E-3,1.5771654E-2,-9.661511E-3,-1.5677463E-2,-1.4093405E-3,-5.53271E-3,7.647529E-3,2.727017E-2,5.7379096E-3,5.7468387E-5,-3.822275E-3,-9.1363536E-4,-4.6934425E-3,2.4190167E-4,2.7044588E-3,-4.914608E-3,-2.7800262E-2,-2.2478288E-4,-2.0550827E-4,1.4141486E-4,2.6408795E-4,4.0209423E-5,-8.651412E-5,1.0329222E-4,2.1950891E-5,-1.2971992E-4,-2.7768558E-5,3.4876593E-5,-9.062234E-5,9.975295E-5,3.0546744E-5,1.926944E-4,9.808467E-5,2.661048E-5,9.69487E-5,5.0603585E-6,-3.4561086E-5,2.1021726E-4,5.2679337E-5,-1.6398586E-5,-1.4462658E-4,-1.9010685E-4,1.7701746E-5,-4.170584E-5,4.6983598E-5,1.625897E-4,-1.0348762E-4,1.515676E-4,-8.721536E-6,9.708918E-5,3.00939E-4,-8.184845E-5,1.3381358E-4,-3.1528336E-7,4.4832013E-5,-5.8056707E-5,2.6644593E-5,-1.1633766E-4,-6.067746E-6,-1.9510191E-4,-3.651966E-5,4.7233956E-5,-1.6761758E-5,-1.2608254E-4,4.41724E-5,-2.8914312E-4,-4.4306904E-5,-3.155571E-5,1.8040037E-5],"categories":[],"categories_nodes":[],"categories_segments":[],"categories_sizes":[],"default_left":[0,0,0,0,0,0,0,0,0,0,0,0,0,0,0,0,0,0,0,0,0,0,0,0,0,0,0,0,0,0,0,0,0,0,0,0,0,0,0,0,0,0,0,0,0,0,0,0,0,0,0,0,0,0,0,0,0,0,0,0,0,0,0,0,0,0,0,0,0,0,0,0,0,0,0,0,0,0,0,0,0,0,0,0,0,0,0,0,0,0,0,0,0,0,0,0,0,0,0,0,0,0,0,0,0,0,0,0,0,0,0],"id":0,"left_children":[1,3,5,7,9,11,13,15,17,19,21,23,25,27,29,31,33,35,37,39,41,43,45,47,49,51,53,55,57,-1,59,61,63,65,67,-1,-1,69,71,73,-1,75,77,79,81,83,85,87,89,91,93,95,97,99,101,-1,103,105,107,109,-1,-1,-1,-1,-1,-1,-1,-1,-1,-1,-1,-1,-1,-1,-1,-1,-1,-1,-1,-1,-1,-1,-1,-1,-1,-1,-1,-1,-1,-1,-1,-1,-1,-1,-1,-1,-1,-1,-1,-1,-1,-1,-1,-1,-1,-1,-1,-1,-1,-1,-1],"loss_changes":[3.6453668E-3,4.1418886E-3,2.484405E-3,3.6758818E-3,2.5505181E-3,2.6722394E-3,5.9152376E-3,2.592368E-3,6.344167E-4,6.4246147E-4,2.5437858E-3,3.4190079E-3,1.934983E-3,6.4640157E-3,4.4000116E-3,1.9444656E-3,9.119556E-4,1.0493785E-4,5.531781E-4,2.2648601E-4,3.5109033E-4,2.2961139E-3,2.272952E-3,2.6475817E-3,2.9652668E-3,2.0169308E-3,1.8529969E-3,6.2581315E-4,1.5048021E-3,0E0,6.150943E-4,1.1185706E-3,2.3445048E-4,1.6817357E-5,2.8602837E-5,0E0,0E0,5.2523013E-4,2.9364557E-5,4.858384E-5,0E0,1.7718994E-6,2.3306018E-5,6.612933E-4,1.6884896E-4,7.896917E-4,1.4025124E-3,3.4217066E-3,1.9325071E-3,2.532918E-4,2.0250455E-3,1.8182718E-3,1.790944E-3,1.7726073E-3,2.5674999E-3,0E0,4.3294145E-5,4.1467333E-4,3.405176E-4,2.9476441E-5,0E0,0E0,0E0,0E0,0E0,0E0,0E0,0E0,0E0,0E0,0E0,0E0,0E0,0E0,0E0,0E0,0E0,0E0,0E0,0E0,0E0,0E0,0E0,0E0,0E0,0E0,0E0,0E0,0E0,0E0,0E0,0E0,0E0,0E0,0E0,0E0,0E0,0E0,0E0,0E0,0E0,0E0,0E0,0E0,0E0,0E0,0E0,0E0,0E0,0E0,0E0],"parents":[2147483647,0,0,1,1,2,2,3,3,4,4,5,5,6,6,7,7,8,8,9,9,10,10,11,11,12,12,13,13,14,14,15,15,16,16,17,17,18,18,19,19,20,20,21,21,22,22,23,23,24,24,25,25,26,26,27,27,28,28,30,30,31,31,32,32,33,33,34,34,37,37,38,38,39,39,41,41,42,42,43,43,44,44,45,45,46,46,47,47,48,48,49,49,50,50,51,51,52,52,53,53,54,54,56,56,57,57,58,58,59,59],"right_children":[2,4,6,8,10,12,14,16,18,20,22,24,26,28,30,32,34,36,38,40,42,44,46,48,50,52,54,56,58,-1,60,62,64,66,68,-1,-1,70,72,74,-1,76,78,80,82,84,86,88,90,92,94,96,98,100,102,-1,104,106,108,110,-1,-1,-1,-1,-1,-1,-1,-1,-1,-1,-1,-1,-1,-1,-1,-1,-1,-1,-1,-1,-1,-1,-1,-1,-1,-1,-1,-1,-1,-1,-1,-1,-1,-1,-1,-1,-1,-1,-1,-1,-1,-1,-1,-1,-1,-1,-1,-1,-1,-1,-1],"split_conditions":[-1.5237026E0,3.2324204E-1,3.1460578E0,1.1652324E0,-5.3846157E-1,-2.6697695E0,9.159918E-1,4.3179488E-1,-5.560923E-1,-1.0368572E0,-1.05041E0,4.7648492E-1,5.9084506E0,-2.2654691E-1,-4.0364853E-1,1.4476249E0,1.0558668E0,0E0,7.156685E-1,5.3578335E-1,9.782269E-1,4E-1,-6.974359E-1,-5.2617806E-1,-1.7738192E0,4.2159557E0,2.898032E-1,-1.9772893E0,-2.7550619E0,2.6901503E-4,-2.577121E-1,-1.3721885E-1,0E0,7.4284714E-1,5.3846157E-1,2.3577204E-6,1.1930658E-4,-4.726107E-1,0E0,-1.9056262E-1,2.3841928E-6,-5.4021895E-1,-2.3651865E-1,-1.9213141E0,2.1119719E1,1.0347043E0,4.3617666E-1,-1.5769411E0,-8.152032E-1,-1.1323384E-1,2.6080123E-1,3.147718E0,1.6454196E-1,-1.8089017E0,-5.440267E-1,2.4190167E-4,-7.2692317E-1,-7.205589E-1,5.5714124E-3,1E0,-2.0550827E-4,1.4141486E-4,2.6408795E-4,4.0209423E-5,-8.651412E-5,1.0329222E-4,2.1950891E-5,-1.2971992E-4,-2.7768558E-5,3.4876593E-5,-9.062234E-5,9.975295E-5,3.0546744E-5,1.926944E-4,9.808467E-5,2.661048E-5,9.69487E-5,5.0603585E-6,-3.4561086E-5,2.1021726E-4,5.2679337E-5,-1.6398586E-5,-1.4462658E-4,-1.9010685E-4,1.7701746E-5,-4.170584E-5,4.6983598E-5,1.625897E-4,-1.0348762E-4,1.515676E-4,-8.721536E-6,9.708918E-5,3.00939E-4,-8.184845E-5,1.3381358E-4,-3.1528336E-7,4.4832013E-5,-5.8056707E-5,2.6644593E-5,-1.1633766E-4,-6.067746E-6,-1.9510191E-4,-3.651966E-5,4.7233956E-5,-1.6761758E-5,-1.2608254E-4,4.41724E-5,-2.8914312E-4,-4.4306904E-5,-3.155571E-5,1.8040037E-5],"split_indices":[73,133,158,66,14,50,119,106,63,155,66,133,12,70,55,147,158,5,60,80,66,23,106,33,159,65,77,22,79,0,44,133,5,9,14,0,0,62,5,60,0,10,9,157,12,44,60,57,159,40,111,76,151,17,10,0,9,35,21,7,0,0,0,0,0,0,0,0,0,0,0,0,0,0,0,0,0,0,0,0,0,0,0,0,0,0,0,0,0,0,0,0,0,0,0,0,0,0,0,0,0,0,0,0,0,0,0,0,0,0,0],"split_type":[0,0,0,0,0,0,0,0,0,0,0,0,0,0,0,0,0,0,0,0,0,0,0,0,0,0,0,0,0,0,0,0,0,0,0,0,0,0,0,0,0,0,0,0,0,0,0,0,0,0,0,0,0,0,0,0,0,0,0,0,0,0,0,0,0,0,0,0,0,0,0,0,0,0,0,0,0,0,0,0,0,0,0,0,0,0,0,0,0,0,0,0,0,0,0,0,0,0,0,0,0,0,0,0,0,0,0,0,0,0,0],"sum_hessian":[5.79E3,2.05E2,5.585E3,7.3E1,1.32E2,5.548E3,3.7E1,5E1,2.3E1,2.2E1,1.1E2,8.6E1,5.462E3,2.6E1,1.1E1,4.3E1,7E0,4E0,1.9E1,1.2E1,1E1,1.7E1,9.3E1,5.9E1,2.7E1,4.752E3,7.1E2,5E0,2.1E1,6E0,5E0,3.9E1,4E0,3E0,4E0,1E0,3E0,1.5E1,4E0,1.1E1,1E0,5E0,5E0,1.3E1,4E0,1.2E1,8.1E1,3E1,2.9E1,1E1,1.7E1,4.615E3,1.37E2,5.4E2,1.7E2,2E0,3E0,4E0,1.7E1,3E0,2E0,2.3E1,1.6E1,2E0,2E0,2E0,1E0,3E0,1E0,4E0,1.1E1,1E0,3E0,6E0,5E0,1E0,4E0,2E0,3E0,8E0,5E0,2E0,2E0,1E1,2E0,5.6E1,2.5E1,5E0,2.5E1,1.5E1,1.4E1,2E0,8E0,6E0,1.1E1,4.525E3,9E1,1.05E2,3.2E1,1.4E1,5.26E2,1E1,1.6E2,2E0,1E0,2E0,2E0,1.6E1,1E0,1E0,2E0],"tree_param":{"num_deleted":"0","num_feature":"161","num_nodes":"111","size_leaf_vector":"1"}},{"base_weights":[1.3206589E-4,6.950609E-5,1.5763555E-2,1.3489637E-4,-1.6215697E-2,3.2691887E-4,7.865796E-3,4.1542007E-3,-1.5069496E-5,-2.4666084E-2,1.1838078E-2,-1.3466904E-4,1.160795E-2,8.402974E-3,5.132384E-4,1.1827064E-2,-7.324317E-5,-2.9720832E-2,1.0514605E-2,2.0418106E-2,-3.547986E-3,-1.2720677E-4,1.4254329E-2,1.1156716E-2,2.6328978E-3,1.8337341E-2,-6.6866685E-4,-7.98877E-3,1.5620634E-2,-6.8023773E-3,-3.3827706E-5,-3.1203656E-2,-3.739237E-5,1.89117E-4,-3.1397936E-5,5.5890087E-5,2.3498134E-4,-6.574461E-5,1.2524815E-5,1.9615503E-4,7.781509E-5,6.075897E-5,1.6369333E-4,6.208724E-5,-7.195183E-5,2.6013906E-4,-5.6938143E-6,3.2146352E-5,-5.251582E-5,-1.5875464E-4,2.560849E-5,2.0362313E-4,-1.2078441E-5,-1.4243441E-4,1.7301242E-4,8.62284E-5,-7.999462E-7,-9.4675124E-5,-3.3819408E-4],"categories":[],"categories_nodes":[],"categories_segments":[],"categories_sizes":[],"default_left":[0,0,0,0,0,0,0,0,0,0,0,0,0,0,0,0,0,0,0,0,0,0,0,0,0,0,0,0,0,0,0,0,0,0,0,0,0,0,0,0,0,0,0,0,0,0,0,0,0,0,0,0,0,0,0,0,0,0,0],"id":1,"left_children":[1,3,5,7,9,-1,11,13,15,17,19,-1,21,23,25,27,29,31,33,35,37,-1,39,41,43,45,47,49,51,53,55,57,-1,-1,-1,-1,-1,-1,-1,-1,-1,-1,-1,-1,-1,-1,-1,-1,-1,-1,-1,-1,-1,-1,-1,-1,-1,-1,-1],"loss_changes":[5.6423815E-3,6.124264E-3,2.817859E-3,3.4520603E-3,5.7445E-3,0E0,1.5134373E-3,3.18243E-3,3.8049745E-3,3.513434E-3,8.645204E-4,0E0,1.1470662E-3,1.4801095E-3,2.3716986E-3,2.1544541E-3,1.4574849E-3,4.9974024E-4,4.0335074E-4,5.1365E-5,5.1819876E-5,0E0,3.3318857E-4,1.5955418E-3,1.1692651E-3,1.0307825E-3,1.9033473E-3,4.566628E-4,1.8598852E-3,5.9858398E-3,2.1847864E-3,5.3266063E-4,0E0,0E0,0E0,0E0,0E0,0E0,0E0,0E0,0E0,0E0,0E0,0E0,0E0,0E0,0E0,0E0,0E0,0E0,0E0,0E0,0E0,0E0,0E0,0E0,0E0,0E0,0E0],"parents":[2147483647,0,0,1,1,2,2,3,3,4,4,6,6,7,7,8,8,9,9,10,10,12,12,13,13,14,14,15,15,16,16,17,17,18,18,19,19,20,20,22,22,23,23,24,24,25,25,26,26,27,27,28,28,29,29,30,30,31,31],"right_children":[2,4,6,8,10,-1,12,14,16,18,20,-1,22,24,26,28,30,32,34,36,38,-1,40,42,44,46,48,50,52,54,56,58,-1,-1,-1,-1,-1,-1,-1,-1,-1,-1,-1,-1,-1,-1,-1,-1,-1,-1,-1,-1,-1,-1,-1,-1,-1,-1,-1],"split_conditions":[4.1607203E0,3.7445314E0,-4.329168E-1,-1.5237026E0,1.5018828E-1,3.2691887E-4,-5.410628E-1,5.898913E-1,-3.2603269E0,6E-1,-2.0245483E0,-1.3466904E-4,-1.5535587E0,-3.034868E-3,-1.764694E0,-3.1554243E-1,-2.460354E0,1E0,-1.9534884E-1,0E0,1E0,-1.2720677E-4,4.829766E-1,9.114827E-1,1.1398289E0,-1.6346524E0,9.000257E-1,0E0,9.9548024E-1,-2.1607131E-1,-1.5691651E0,-4.4820184E-1,-3.739237E-5,1.89117E-4,-3.1397936E-5,5.5890087E-5,2.3498134E-4,-6.574461E-5,1.2524815E-5,1.9615503E-4,7.781509E-5,6.075897E-5,1.6369333E-4,6.208724E-5,-7.195183E-5,2.6013906E-4,-5.6938143E-6,3.2146352E-5,-5.251582E-5,-1.5875464E-4,2.560849E-5,2.0362313E-4,-1.2078441E-5,-1.4243441E-4,1.7301242E-4,8.62284E-5,-7.999462E-7,-9.4675124E-5,-3.3819408E-4],"split_indices":[118,30,69,73,72,0,63,133,154,23,20,0,17,58,67,133,17,1,11,5,4,0,121,76,101,73,160,3,81,122,58,63,0,0,0,0,0,0,0,0,0,0,0,0,0,0,0,0,0,0,0,0,0,0,0,0,0,0,0],"split_type":[0,0,0,0,0,0,0,0,0,0,0,0,0,0,0,0,0,0,0,0,0,0,0,0,0,0,0,0,0,0,0,0,0,0,0,0,0,0,0,0,0,0,0,0,0,0,0,0,0,0,0,0,0,0,0,0,0,0,0],"sum_hessian":[5.77E3,5.748E3,2.2E1,5.726E3,2.2E1,6E0,1.6E1,2.05E2,5.521E3,1.7E1,5E0,2E0,1.4E1,9.4E1,1.11E2,2.6E1,5.495E3,1.5E1,2E0,3E0,2E0,1E0,1.3E1,6.3E1,3.1E1,6E0,1.05E2,4E0,2.2E1,3.1E1,5.464E3,1.4E1,1E0,1E0,1E0,1E0,2E0,1E0,1E0,6E0,7E0,3.3E1,3E1,2.3E1,8E0,4E0,2E0,5.7E1,4.8E1,2E0,2E0,1.7E1,5E0,2.4E1,7E0,2.8E1,5.436E3,2E0,1.2E1],"tree_param":{"num_deleted":"0","num_feature":"161","num_nodes":"59","size_leaf_vector":"1"}},{"base_weights":[8.004816E-5,3.5785828E-3,-1.4329098E-4,4.685456E-3,-8.273557E-3,-1.7735791E-4,1.5269741E-2,9.341895E-3,2.475123E-3,-1.2486032E-3,-2.7436106E-2,-1.4148786E-4,-2.792056E-2,2.384576E-2,-7.843734E-3,1.5974088E-2,1.5478854E-3,3.1101096E-3,-2.5070338E-2,-1.1827782E-2,1.3687108E-2,-3.021426E-4,-3.994509E-5,-8.52326E-6,-2.647815E-3,-3.0075118E-4,-7.496614E-5,2.6514925E-2,1.2462191E-5,3.3222772E-5,-1.2673164E-2,1.894537E-2,-7.1069025E-3,6.1090547E-3,-8.893957E-3,3.6833824E-3,-2.7764248E-4,-2.9245956E-4,-4.183931E-5,-2.2424676E-2,6.0388553E-3,2.2850598E-3,2.4632143E-4,-1.900686E-2,9.948489E-6,-1.1991269E-2,-1.5735691E-3,5.561064E-5,2.8713894E-4,-1.5289204E-4,-3.7205406E-5,6.409491E-5,2.283783E-4,1.5610873E-5,-1.9184586E-4,8.437783E-5,-9.085131E-5,-1.423089E-4,1.7197407E-4,5.6999328E-5,5.288674E-7,-5.8282054E-5,-2.9751542E-4,1.6050106E-4,-9.322429E-5,3.9173396E-5,-6.5300014E-6,2.9906598E-5,-2.5253903E-4,4.453606E-5,-6.91847E-7,-6.106027E-5,-2.373722E-4,-4.61676E-6,-6.9632006E-5],"categories":[],"categories_nodes":[],"categories_segments":[],"categories_sizes":[],"default_left":[0,0,0,0,0,0,0,0,0,0,0,0,0,0,0,0,0,0,0,0,0,0,0,0,0,0,0,0,0,0,0,0,0,0,0,0,0,0,0,0,0,0,0,0,0,0,0,0,0,0,0,0,0,0,0,0,0,0,0,0,0,0,0,0,0,0,0,0,0,0,0,0,0,0,0],"id":2,"left_children":[1,3,5,7,9,11,13,15,17,19,21,23,25,27,29,31,33,35,37,39,41,-1,-1,43,45,-1,-1,47,-1,-1,49,51,53,55,57,59,-1,-1,-1,61,63,65,-1,67,69,71,73,-1,-1,-1,-1,-1,-1,-1,-1,-1,-1,-1,-1,-1,-1,-1,-1,-1,-1,-1,-1,-1,-1,-1,-1,-1,-1,-1,-1],"loss_changes":[4.5183343E-3,4.5909937E-3,2.8570143E-3,3.249823E-3,4.004224E-3,5.394738E-3,2.5656985E-3,5.247793E-3,3.8735187E-3,3.7960617E-3,4.0030386E-4,1.8058744E-3,8.257013E-5,5.098535E-4,2.5780563E-4,3.90655E-3,2.3404302E-3,3.8722458E-3,3.137053E-4,2.7860515E-3,1.1916722E-3,0E0,0E0,1.8064386E-3,2.7212775E-3,0E0,0E0,2.089357E-4,0E0,0E0,1.3377197E-5,2.2445973E-3,7.6277344E-4,1.279685E-3,2.3334525E-3,1.5371244E-3,0E0,0E0,0E0,9.210035E-4,1.07234E-3,3.1332445E-5,0E0,7.6262315E-4,1.8087969E-3,1.7906372E-3,1.4709877E-3,0E0,0E0,0E0,0E0,0E0,0E0,0E0,0E0,0E0,0E0,0E0,0E0,0E0,0E0,0E0,0E0,0E0,0E0,0E0,0E0,0E0,0E0,0E0,0E0,0E0,0E0,0E0,0E0],"parents":[2147483647,0,0,1,1,2,2,3,3,4,4,5,5,6,6,7,7,8,8,9,9,10,10,11,11,12,12,13,13,14,14,15,15,16,16,17,17,18,18,19,19,20,20,23,23,24,24,27,27,30,30,31,31,32,32,33,33,34,34,35,35,39,39,40,40,41,41,43,43,44,44,45,45,46,46],"right_children":[2,4,6,8,10,12,14,16,18,20,22,24,26,28,30,32,34,36,38,40,42,-1,-1,44,46,-1,-1,48,-1,-1,50,52,54,56,58,60,-1,-1,-1,62,64,66,-1,68,70,72,74,-1,-1,-1,-1,-1,-1,-1,-1,-1,-1,-1,-1,-1,-1,-1,-1,-1,-1,-1,-1,-1,-1,-1,-1,-1,-1,-1,-1],"split_conditions":[-1.6940358E0,2.9768558E0,3.0618109E1,-1.9213141E0,3.13524E0,3.7445314E0,8.408739E-1,-2.6697695E0,3.2340367E0,1.8954154E-2,-2.112676E-2,1.7036724E0,-7.204031E-1,5.4549414E-1,-7.467816E-1,1.1855779E0,2.1759038E0,3.7445314E0,1.3550591E-1,6.308406E-2,1.4501826E-1,-3.021426E-4,-3.994509E-5,-1.7317201E0,-8.032066E-1,-3.0075118E-4,-7.496614E-5,-2.0930232E-1,1.2462191E-5,3.3222772E-5,1E0,-4.0681234E-1,2.744186E-1,1.36093025E1,-4.951927E-3,7.346824E-1,-2.7764248E-4,-2.9245956E-4,-4.183931E-5,-1.7209302E-1,2.7559055E-2,9.186782E-1,2.4632143E-4,-3.521127E-2,-1.4123244E0,2.0818746E0,3.4160954E-1,5.561064E-5,2.8713894E-4,-1.5289204E-4,-3.7205406E-5,6.409491E-5,2.283783E-4,1.5610873E-5,-1.9184586E-4,8.437783E-5,-9.085131E-5,-1.423089E-4,1.7197407E-4,5.6999328E-5,5.288674E-7,-5.8282054E-5,-2.9751542E-4,1.6050106E-4,-9.322429E-5,3.9173396E-5,-6.5300014E-6,2.9906598E-5,-2.5253903E-4,4.453606E-5,-6.91847E-7,-6.106027E-5,-2.373722E-4,-4.61676E-6,-6.9632006E-5],"split_indices":[50,49,93,157,27,30,118,50,113,48,12,50,9,24,9,101,85,30,9,59,54,0,0,58,72,0,0,11,0,0,0,44,11,11,130,78,0,0,0,11,25,19,0,12,58,160,124,0,0,0,0,0,0,0,0,0,0,0,0,0,0,0,0,0,0,0,0,0,0,0,0,0,0,0,0],"split_type":[0,0,0,0,0,0,0,0,0,0,0,0,0,0,0,0,0,0,0,0,0,0,0,0,0,0,0,0,0,0,0,0,0,0,0,0,0,0,0,0,0,0,0,0,0,0,0,0,0,0,0,0,0,0,0,0,0,0,0,0,0,0,0,0,0,0,0,0,0,0,0,0,0,0,0],"sum_hessian":[5.781E3,3.46E2,5.435E3,3.17E2,2.9E1,5.424E3,1.1E1,1.01E2,2.16E2,2.2E1,7E0,5.418E3,6E0,8E0,3E0,5.4E1,4.7E1,2.12E2,4E0,1.3E1,9E0,6E0,1E0,5.146E3,2.72E2,5E0,1E0,7E0,1E0,1E0,2E0,4.8E1,6E0,3.3E1,1.4E1,2.09E2,3E0,3E0,1E0,8E0,5E0,5E0,4E0,4E0,5.142E3,2.7E1,2.45E2,1E0,6E0,1E0,1E0,1.2E1,3.6E1,4E0,2E0,2.9E1,4E0,1.2E1,2E0,1.34E2,7.5E1,3E0,5E0,3E0,2E0,3E0,2E0,1E0,3E0,8.9E1,5.053E3,1.9E1,8E0,2.04E2,4.1E1],"tree_param":{"num_deleted":"0","num_feature":"161","num_nodes":"75","size_leaf_vector":"1"}},{"base_weights":[-8.401195E-5,-1.4710883E-4,7.3232166E-3,-7.7619115E-5,-1.5445226E-2,2.17979E-3,2.3000466E-2,3.7693921E-3,-1.796589E-4,-1.9362308E-2,2.103984E-4,-7.5936373E-3,1.4699532E-2,2.8268833E-2,-1.7475784E-4,8.830844E-3,-8.861534E-4,7.3290444E-3,-2.1885414E-4,-2.3547057E-2,7.448203E-3,-1.8657595E-2,5.166466E-3,2.5895296E-2,4.2729676E-3,3.8377704E-5,3.0328162E-4,1.12369135E-2,-3.9354037E-3,-1.4555447E-2,2.3314334E-3,-3.666487E-3,1.2460358E-2,-5.3911655E-5,-1.814569E-3,-2.6537643E-3,-2.6881842E-2,2.3328093E-5,1.1397192E-4,-2.4890494E-2,3.0825013E-5,1.1957118E-2,-1.6927645E-4,2.9334432E-4,1.0385262E-4,-3.470325E-3,1.2710325E-4,3.8622493E-5,1.6046071E-4,3.0267245E-5,-2.5830694E-4,1.2139766E-6,-2.1906008E-4,-6.165302E-5,6.055951E-5,-7.6186116E-5,4.1663523E-5,1.5879038E-4,-9.714906E-6,-3.903282E-5,2.3336335E-7,-2.3163815E-5,7.433945E-5,3.3056658E-5,-5.7421297E-5,1.2399881E-5,-2.8609007E-4,-2.6263512E-4,-6.953177E-5,2.2255545E-5,-1.442603E-5,-4.8454433E-5,2.1165972E-4,4.849806E-6,-5.5692228E-5],"categories":[],"categories_nodes":[],"categories_segments":[],"categories_sizes":[],"default_left":[0,0,0,0,0,0,0,0,0,0,0,0,0,0,0,0,0,0,0,0,0,0,0,0,0,0,0,0,0,0,0,0,0,0,0,0,0,0,0,0,0,0,0,0,0,0,0,0,0,0,0,0,0,0,0,0,0,0,0,0,0,0,0,0,0,0,0,0,0,0,0,0,0,0,0],"id":3,"left_children":[1,3,5,7,9,11,13,15,17,19,-1,21,23,25,-1,27,29,31,33,35,37,39,41,43,45,-1,-1,47,49,51,53,55,57,59,61,63,65,-1,-1,67,69,71,-1,-1,-1,73,-1,-1,-1,-1,-1,-1,-1,-1,-1,-1,-1,-1,-1,-1,-1,-1,-1,-1,-1,-1,-1,-1,-1,-1,-1,-1,-1,-1,-1],"loss_changes":[2.7113738E-3,6.1124703E-3,3.9009682E-3,2.2484085E-3,4.1231704E-3,4.761333E-3,3.0529448E-3,3.4952713E-3,1.6435337E-3,2.8680693E-3,0E0,3.2022935E-3,1.8738175E-3,4.3703523E-4,0E0,2.2250912E-3,3.4645414E-3,1.68191E-3,1.4609321E-3,1.391829E-3,5.4215066E-5,1.3985634E-3,1.8527735E-3,1.2208289E-4,6.974382E-4,0E0,0E0,2.0659817E-3,1.9074365E-3,1.620905E-3,2.0626965E-3,3.413054E-4,9.3381014E-4,1.4963873E-3,2.4305496E-3,9.260115E-5,9.097541E-4,0E0,0E0,3.9039645E-5,1.6145697E-5,1.4951498E-3,0E0,0E0,0E0,5.2511663E-5,0E0,0E0,0E0,0E0,0E0,0E0,0E0,0E0,0E0,0E0,0E0,0E0,0E0,0E0,0E0,0E0,0E0,0E0,0E0,0E0,0E0,0E0,0E0,0E0,0E0,0E0,0E0,0E0,0E0],"parents":[2147483647,0,0,1,1,2,2,3,3,4,4,5,5,6,6,7,7,8,8,9,9,11,11,12,12,13,13,15,15,16,16,17,17,18,18,19,19,20,20,21,21,22,22,23,23,24,24,27,27,28,28,29,29,30,30,31,31,32,32,33,33,34,34,35,35,36,36,39,39,40,40,41,41,45,45],"right_children":[2,4,6,8,10,12,14,16,18,20,-1,22,24,26,-1,28,30,32,34,36,38,40,42,44,46,-1,-1,48,50,52,54,56,58,60,62,64,66,-1,-1,68,70,72,-1,-1,-1,74,-1,-1,-1,-1,-1,-1,-1,-1,-1,-1,-1,-1,-1,-1,-1,-1,-1,-1,-1,-1,-1,-1,-1,-1,-1,-1,-1,-1,-1],"split_conditions":[5.8715277E0,2.9593723E0,4.000279E-1,-1.9198213E0,1.6974016E-1,-8.298039E-2,-1.0697675E-1,2.2713329E-1,-1.5364083E0,8.70561E0,2.103984E-4,3.327506E-1,-1.1148161E0,-4.0681234E-1,-1.7475784E-4,7.5224775E-1,-1.282222E0,-5.403876E-1,7.827907E0,0E0,1E0,6.588445E-1,2.1957E0,5.122439E-1,1.7301546E-1,3.8377704E-5,3.0328162E-4,6.478274E-1,1.149173E0,1.3692962E0,-2.5281805E-1,-7.798627E-1,4.14947E-1,-1.6997111E0,3.075506E0,-7.467816E-1,6.705784E-2,2.3328093E-5,1.1397192E-4,-6.037186E-1,0E0,-5.5034214E-1,-1.6927645E-4,2.9334432E-4,1.0385262E-4,-9.397734E-1,1.2710325E-4,3.8622493E-5,1.6046071E-4,3.0267245E-5,-2.5830694E-4,1.2139766E-6,-2.1906008E-4,-6.165302E-5,6.055951E-5,-7.6186116E-5,4.1663523E-5,1.5879038E-4,-9.714906E-6,-3.903282E-5,2.3336335E-7,-2.3163815E-5,7.433945E-5,3.3056658E-5,-5.7421297E-5,1.2399881E-5,-2.8609007E-4,-2.6263512E-4,-6.953177E-5,2.2255545E-5,-1.442603E-5,-4.8454433E-5,2.1165972E-4,4.849806E-6,-5.5692228E-5],"split_indices":[85,61,148,155,47,149,11,148,57,76,0,62,64,44,0,71,58,100,11,5,8,20,48,20,16,0,0,19,19,19,63,89,148,41,65,9,47,0,0,17,5,56,0,0,0,27,0,0,0,0,0,0,0,0,0,0,0,0,0,0,0,0,0,0,0,0,0,0,0,0,0,0,0,0,0],"split_type":[0,0,0,0,0,0,0,0,0,0,0,0,0,0,0,0,0,0,0,0,0,0,0,0,0,0,0,0,0,0,0,0,0,0,0,0,0,0,0,0,0,0,0,0,0,0,0,0,0,0,0,0,0,0,0,0,0,0,0,0,0,0,0,0,0,0,0,0,0,0,0,0,0,0,0],"sum_hessian":[5.798E3,5.75E3,4.8E1,5.725E3,2.5E1,3.7E1,1.1E1,1.47E2,5.578E3,2.3E1,2E0,2.1E1,1.6E1,1E1,1E0,7E1,7.7E1,2.8E1,5.55E3,2E1,3E0,1.1E1,1E1,7E0,9E0,1E0,9E0,5.9E1,1.1E1,1.4E1,6.3E1,9E0,1.9E1,5.031E3,5.19E2,3E0,1.7E1,2E0,1E0,8E0,3E0,8E0,2E0,5E0,2E0,5E0,4E0,2.4E1,3.5E1,9E0,2E0,5E0,9E0,1.9E1,4.4E1,6E0,3E0,1.5E1,4E0,9.8E1,4.933E3,4.93E2,2.6E1,1E0,2E0,1E0,1.6E1,7E0,1E0,1E0,2E0,3E0,5E0,2E0,3E0],"tree_param":{"num_deleted":"0","num_feature":"161","num_nodes":"75","size_leaf_vector":"1"}},{"base_weights":[2.0063408E-5,4.8507326E-3,-1.0533451E-4,5.924733E-3,-2.6835824E-4,-4.3711236E-5,-4.9582026E-3,2.847637E-3,1.903938E-2,3.1688223E-3,-1.3951145E-4,-1.4625953E-2,-2.9420159E-3,5.314045E-3,-1.3053692E-2,3.1421058E-2,8.563159E-3,-7.1482453E-3,4.5080963E-3,-1.0555924E-4,-9.321702E-3,-2.1776202E-4,-6.4077447E-3,-9.237251E-3,-6.383319E-4,6.7303423E-3,-1.4868608E-2,-2.0207874E-2,2.4683724E-4,3.296004E-4,7.246136E-5,2.1873003E-4,5.2477524E-4,-1.5320509E-2,6.003681E-3,7.5972164E-3,-7.811262E-4,7.156857E-3,-1.6231945E-4,-2.743471E-3,-2.1146491E-4,1.5832053E-5,-8.003437E-5,-1.41972285E-2,4.5141457E-3,2.8031068E-3,-5.495201E-3,2.59729E-4,5.387642E-5,3.4951223E-5,-2.2913124E-4,-7.447916E-6,-2.544828E-4,-9.733031E-5,1.0695119E-4,-1.9881649E-4,-4.9585826E-5,-3.1452386E-5,1.212208E-4,9.522429E-5,7.263907E-6,6.155925E-6,-1.4592087E-4,1.517144E-4,-3.343503E-5,-1.9513586E-4,-1.1173538E-6,3.7858154E-5,-1.2080155E-4,-1.6854839E-4,-4.6682984E-5,-1.5522934E-5,9.0758695E-5,6.9341986E-5,-9.640465E-6,2.8826988E-5,-9.5836695E-5],"categories":[],"categories_nodes":[],"categories_segments":[],"categories_sizes":[],"default_left":[0,0,0,0,0,0,0,0,0,0,0,0,0,0,0,0,0,0,0,0,0,0,0,0,0,0,0,0,0,0,0,0,0,0,0,0,0,0,0,0,0,0,0,0,0,0,0,0,0,0,0,0,0,0,0,0,0,0,0,0,0,0,0,0,0,0,0,0,0,0,0,0,0,0,0,0,0],"id":4,"left_children":[1,3,5,7,-1,9,11,13,15,17,19,21,23,25,27,29,31,33,35,37,39,-1,41,43,45,47,49,51,-1,-1,-1,-1,53,55,57,59,61,63,65,67,-1,-1,-1,69,71,73,75,-1,-1,-1,-1,-1,-1,-1,-1,-1,-1,-1,-1,-1,-1,-1,-1,-1,-1,-1,-1,-1,-1,-1,-1,-1,-1,-1,-1,-1,-1],"loss_changes":[3.5193467E-3,5.1616076E-3,1.6933013E-3,5.716551E-3,0E0,1.7217515E-3,1.3409015E-3,4.6580103E-3,3.2331925E-3,2.2706406E-3,1.692473E-3,5.656106E-4,8.6423743E-4,3.0157035E-3,4.8184916E-3,2.076244E-4,1.7003559E-3,2.1341187E-3,2.3587565E-3,2.232489E-3,1.497709E-3,0E0,1.01928774E-4,1.1553945E-3,7.675614E-4,2.340417E-3,1.1141753E-3,1.4089686E-3,0E0,0E0,0E0,0E0,1.2516757E-3,4.6856166E-4,4.859408E-4,1.1968128E-3,1.0506444E-3,3.5852776E-3,5.2562878E-3,8.9919963E-4,0E0,0E0,0E0,2.252066E-4,1.5245553E-4,4.2687118E-4,6.7842973E-4,0E0,0E0,0E0,0E0,0E0,0E0,0E0,0E0,0E0,0E0,0E0,0E0,0E0,0E0,0E0,0E0,0E0,0E0,0E0,0E0,0E0,0E0,0E0,0E0,0E0,0E0,0E0,0E0,0E0,0E0],"parents":[2147483647,0,0,1,1,2,2,3,3,5,5,6,6,7,7,8,8,9,9,10,10,11,11,12,12,13,13,14,14,15,15,16,16,17,17,18,18,19,19,20,20,22,22,23,23,24,24,25,25,26,26,27,27,32,32,33,33,34,34,35,35,36,36,37,37,38,38,39,39,43,43,44,44,45,45,46,46],"right_children":[2,4,6,8,-1,10,12,14,16,18,20,22,24,26,28,30,32,34,36,38,40,-1,42,44,46,48,50,52,-1,-1,-1,-1,54,56,58,60,62,64,66,68,-1,-1,-1,70,72,74,76,-1,-1,-1,-1,-1,-1,-1,-1,-1,-1,-1,-1,-1,-1,-1,-1,-1,-1,-1,-1,-1,-1,-1,-1,-1,-1,-1,-1,-1,-1],"split_conditions":[-2.0982122E0,9.318182E-1,1.32E1,3.05327E0,-2.6835824E-4,-1.5237026E0,-4.6666667E-1,6.844872E-1,-3.6326322E-1,-1.6582485E0,3.999213E0,1.36093025E1,-4.3447745E-1,1.0207047E0,6.713615E-1,1E0,-8.974359E-2,1.59132E-1,4.2181468E-1,-1.5691651E0,1.21633366E-1,-2.1776202E-4,-2.2262552E-1,7.156685E-1,-3.401241E-1,-4.485699E0,-1.0246174E-1,-6.497669E-1,2.4683724E-4,3.296004E-4,7.246136E-5,2.1873003E-4,1.4552857E-2,2.3682256E0,-7.185629E-2,5.5333334E-1,1.1077324E0,5.8744395E-1,-2.4219513E0,-1.8774603E-1,-2.1146491E-4,1.5832053E-5,-8.003437E-5,8.267716E-2,3.2689703E-1,-6.2770563E-1,-3.5810766E-1,2.59729E-4,5.387642E-5,3.4951223E-5,-2.2913124E-4,-7.447916E-6,-2.544828E-4,-9.733031E-5,1.0695119E-4,-1.9881649E-4,-4.9585826E-5,-3.1452386E-5,1.212208E-4,9.522429E-5,7.263907E-6,6.155925E-6,-1.4592087E-4,1.517144E-4,-3.343503E-5,-1.9513586E-4,-1.1173538E-6,3.7858154E-5,-1.2080155E-4,-1.6854839E-4,-4.6682984E-5,-1.5522934E-5,9.0758695E-5,6.9341986E-5,-9.640465E-6,2.8826988E-5,-9.5836695E-5],"split_indices":[157,87,11,118,0,73,23,102,55,41,50,11,103,95,54,7,62,31,75,58,68,0,60,60,89,50,35,62,0,0,0,0,55,156,35,106,68,34,16,18,0,0,0,25,9,87,57,0,0,0,0,0,0,0,0,0,0,0,0,0,0,0,0,0,0,0,0,0,0,0,0,0,0,0,0,0,0],"split_type":[0,0,0,0,0,0,0,0,0,0,0,0,0,0,0,0,0,0,0,0,0,0,0,0,0,0,0,0,0,0,0,0,0,0,0,0,0,0,0,0,0,0,0,0,0,0,0,0,0,0,0,0,0,0,0,0,0,0,0,0,0,0,0,0,0,0,0,0,0,0,0,0,0,0,0,0,0],"sum_hessian":[5.808E3,1.46E2,5.662E3,1.42E2,4E0,5.592E3,7E1,1.16E2,2.6E1,1.61E2,5.431E3,1.1E1,5.9E1,1.01E2,1.5E1,1.1E1,1.5E1,1.8E1,1.43E2,5.412E3,1.9E1,5E0,6E0,1.5E1,4.4E1,9.5E1,6E0,1.3E1,2E0,1E1,1E0,5E0,1E1,1.1E1,7E0,9E1,5.3E1,4.1E1,5.371E3,1.3E1,6E0,1E0,5E0,1.1E1,4E0,2.6E1,1.8E1,5E0,9E1,2E0,4E0,3E0,1E1,5E0,5E0,7E0,4E0,3E0,4E0,7E1,2E1,4.9E1,4E0,2.3E1,1.8E1,1.3E1,5.358E3,8E0,5E0,8E0,3E0,2E0,2E0,1.2E1,1.4E1,6E0,1.2E1],"tree_param":{"num_deleted":"0","num_feature":"161","num_nodes":"77","size_leaf_vector":"1"}},{"base_weights":[-3.2609998E-5,6.397128E-3,-1.0943122E-4,2.1633033E-2,1.2931374E-3,-5.7135625E-5,-7.1418285E-3,3.1940747E-4,8.921649E-3,7.131436E-3,-1.8762143E-2,8.221917E-3,-9.9831355E-5,-9.496875E-3,8.571263E-3,-2.5911648E-3,1.5109917E-2,-9.060588E-3,1.2646946E-2,-1.16886884E-4,-2.2479506E-2,1.5517659E-2,-9.715026E-3,-1.9152906E-2,-7.606509E-5,-5.8333874E-3,-1.8804953E-2,9.694082E-5,1.47858245E-5,1.0813337E-3,-6.80433E-5,1.9575916E-4,4.1186126E-5,2.8104085E-4,-1.6892118E-2,1.5991809E-2,-7.9447E-3,-1.1012205E-5,9.258902E-6,-8.404654E-5,-2.731092E-4,-8.626878E-3,2.002102E-2,1.2487094E-2,-1.784236E-2,4.446048E-5,-2.3827072E-4,-2.910526E-5,-7.563313E-3,5.8094054E-3,-8.617012E-3,-2.3254938E-2,-6.7000854E-4,-9.889753E-6,2.6109758E-5,3.9307553E-5,-4.6789253E-5,-2.2269976E-4,4.99859E-5,-6.0800694E-6,1.979213E-4,1.1040341E-5,-1.4345201E-4,-1.0353085E-4,-1.7241273E-5,5.323264E-5,2.3840144E-4,2.57436E-6,1.8473204E-4,-9.844735E-5,-2.522428E-4,7.626146E-5,-8.017183E-7,1.4801469E-4,-9.367284E-5,7.871676E-5,1.1232417E-5,1.1094707E-5,-1.2115151E-4,-2.6396598E-4,-9.219969E-5,-3.711549E-5,2.706536E-5],"categories":[],"categories_nodes":[],"categories_segments":[],"categories_sizes":[],"default_left":[0,0,0,0,0,0,0,0,0,0,0,0,0,0,0,0,0,0,0,0,0,0,0,0,0,0,0,0,0,0,0,0,0,0,0,0,0,0,0,0,0,0,0,0,0,0,0,0,0,0,0,0,0,0,0,0,0,0,0,0,0,0,0,0,0,0,0,0,0,0,0,0,0,0,0,0,0,0,0,0,0,0,0],"id":5,"left_children":[1,3,5,7,9,11,13,-1,15,17,19,21,23,25,27,29,31,33,35,37,39,41,43,45,47,49,51,-1,-1,53,-1,-1,-1,55,57,59,61,-1,-1,-1,-1,63,65,67,69,-1,-1,71,73,75,77,79,81,-1,-1,-1,-1,-1,-1,-1,-1,-1,-1,-1,-1,-1,-1,-1,-1,-1,-1,-1,-1,-1,-1,-1,-1,-1,-1,-1,-1,-1,-1],"loss_changes":[2.8448086E-3,5.259972E-3,2.0925335E-3,1.942466E-3,6.2224143E-3,1.9979835E-3,1.6356127E-3,0E0,6.8035175E-4,3.7761866E-3,8.2910666E-4,3.94579E-3,2.5442997E-3,1.1520043E-3,3.3449265E-5,6.924913E-5,2.1389732E-4,8.0949906E-4,2.2622133E-3,4.0989307E-6,4.5047607E-4,2.456081E-3,1.8467956E-3,8.7807444E-4,1.9743647E-3,9.575164E-4,7.914214E-4,0E0,0E0,1.2082686E-5,0E0,0E0,0E0,1.2700648E-4,8.1766944E-4,1.7153197E-3,3.0541976E-4,0E0,0E0,0E0,0E0,2.9812305E-5,8.834787E-4,2.1486855E-4,1.6493862E-4,0E0,0E0,2.1827682E-3,1.5507389E-3,4.914304E-5,7.9600676E-4,1.09368935E-4,4.0855128E-5,0E0,0E0,0E0,0E0,0E0,0E0,0E0,0E0,0E0,0E0,0E0,0E0,0E0,0E0,0E0,0E0,0E0,0E0,0E0,0E0,0E0,0E0,0E0,0E0,0E0,0E0,0E0,0E0,0E0,0E0],"parents":[2147483647,0,0,1,1,2,2,3,3,4,4,5,5,6,6,8,8,9,9,10,10,11,11,12,12,13,13,14,14,15,15,16,16,17,17,18,18,19,19,20,20,21,21,22,22,23,23,24,24,25,25,26,26,29,29,33,33,34,34,35,35,36,36,41,41,42,42,43,43,44,44,47,47,48,48,49,49,50,50,51,51,52,52],"right_children":[2,4,6,8,10,12,14,-1,16,18,20,22,24,26,28,30,32,34,36,38,40,42,44,46,48,50,52,-1,-1,54,-1,-1,-1,56,58,60,62,-1,-1,-1,-1,64,66,68,70,-1,-1,72,74,76,78,80,82,-1,-1,-1,-1,-1,-1,-1,-1,-1,-1,-1,-1,-1,-1,-1,-1,-1,-1,-1,-1,-1,-1,-1,-1,-1,-1,-1,-1,-1,-1],"split_conditions":[-2.6301777E0,-3.946819E-1,3.2479234E0,-3.9551637E-1,6.115828E-1,-1.6370796E0,7.970852E-1,3.1940747E-4,-2.7563947E-1,-6.3744706E-1,1.1284407E-1,5.799418E-1,-3.618784E0,9.114827E-1,8.571429E-2,0E0,3.937008E-2,-2.2548203E0,5.6376356E-1,-6.4322746E-1,-6.113818E-1,-7.0080113E-1,-1.1193595E0,4.4307062E-1,2.1077465E1,-4.8644093E-1,1E0,9.694082E-5,1.47858245E-5,1E0,-6.80433E-5,1.9575916E-4,4.1186126E-5,2.8128633E-2,-2.6731968E0,-3.7739334E-1,-5.5546635E-1,-1.1012205E-5,9.258902E-6,-8.404654E-5,-2.731092E-4,1E0,-4.030303E-1,1E0,2.2133253E0,4.446048E-5,-2.3827072E-4,-2.4462008E0,-1.3390026E0,-7.467816E-1,-4.99522E-1,-2.7992278E-2,0E0,-9.889753E-6,2.6109758E-5,3.9307553E-5,-4.6789253E-5,-2.2269976E-4,4.99859E-5,-6.0800694E-6,1.979213E-4,1.1040341E-5,-1.4345201E-4,-1.0353085E-4,-1.7241273E-5,5.323264E-5,2.3840144E-4,2.57436E-6,1.8473204E-4,-9.844735E-5,-2.522428E-4,7.626146E-5,-8.017183E-7,1.4801469E-4,-9.367284E-5,7.871676E-5,1.1232417E-5,1.1094707E-5,-1.2115151E-4,-2.6396598E-4,-9.219969E-5,-3.711549E-5,2.706536E-5],"split_indices":[155,55,154,59,100,58,34,0,143,101,131,141,154,76,13,3,25,154,101,9,132,107,118,19,12,127,4,0,0,4,0,0,0,9,159,151,40,0,0,0,0,4,46,4,30,0,0,159,66,9,36,75,3,0,0,0,0,0,0,0,0,0,0,0,0,0,0,0,0,0,0,0,0,0,0,0,0,0,0,0,0,0,0],"split_type":[0,0,0,0,0,0,0,0,0,0,0,0,0,0,0,0,0,0,0,0,0,0,0,0,0,0,0,0,0,0,0,0,0,0,0,0,0,0,0,0,0,0,0,0,0,0,0,0,0,0,0,0,0,0,0,0,0,0,0,0,0,0,0,0,0,0,0,0,0,0,0,0,0,0,0,0,0,0,0,0,0,0,0],"sum_hessian":[5.757E3,6.7E1,5.69E3,1.6E1,5.1E1,5.649E3,4.1E1,8E0,8E0,4E1,1.1E1,2.8E1,5.621E3,3.6E1,5E0,3E0,5E0,1E1,3E1,2E0,9E0,2E1,8E0,6E0,5.615E3,2.7E1,9E0,4E0,1E0,2E0,1E0,3E0,2E0,5E0,5E0,2.6E1,4E0,1E0,1E0,3E0,6E0,3E0,1.7E1,2E0,6E0,1E0,5E0,5.581E3,3.4E1,5E0,2.2E1,7E0,2E0,1E0,1E0,3E0,2E0,4E0,1E0,5E0,2.1E1,2E0,2E0,2E0,1E0,4E0,1.3E1,1E0,1E0,4E0,2E0,3.6E1,5.545E3,2E0,3.2E1,3E0,2E0,6E0,1.6E1,5E0,2E0,1E0,1E0],"tree_param":{"num_deleted":"0","num_feature":"161","num_nodes":"83","size_leaf_vector":"1"}},{"base_weights":[3.464812E-5,6.725297E-3,-4.496671E-5,-2.1974214E-3,1.3416483E-2,-2.165452E-2,-1.08803315E-5,-2.8026913E-4,1.7105556E-3,-1.0785487E-2,1.573291E-2,-2.45289E-2,6.7025458E-6,-1.0456863E-4,4.8017036E-3,-1.023112E-2,1.3530049E-2,-1.8502166E-4,-2.0458708E-3,2.551328E-2,9.095602E-3,-2.6231084E-4,-6.306805E-5,-6.635093E-5,-1.1950494E-2,-1.2766032E-2,6.319604E-3,-1.569295E-2,2.7387633E-3,1.8300498E-2,-1.0061764E-4,6.245218E-6,-3.6933277E-5,2.950028E-2,1.0608552E-3,-2.085489E-3,1.643241E-2,-1.4533452E-4,5.9801065E-3,-2.873245E-4,-3.2857056E-3,2.4225237E-4,-2.6795713E-4,1.7441884E-2,3.3580302E-3,-1.7603474E-4,-5.3672367E-5,-2.0084271E-5,6.573033E-5,6.320705E-5,2.0064384E-4,2.5882713E-5,3.1711528E-4,1.8323448E-5,-2.4106214E-6,-9.218834E-5,1.7631928E-4,3.346557E-5,1.9697046E-4,8.174217E-5,-1.7864686E-6,2.5836175E-4,3.7835518E-5,1.0428339E-4,-1.6530363E-4,2.5507435E-4,6.0190312E-5,1.1017047E-4,3.1539607E-6],"categories":[],"categories_nodes":[],"categories_segments":[],"categories_sizes":[],"default_left":[0,0,0,0,0,0,0,0,0,0,0,0,0,0,0,0,0,0,0,0,0,0,0,0,0,0,0,0,0,0,0,0,0,0,0,0,0,0,0,0,0,0,0,0,0,0,0,0,0,0,0,0,0,0,0,0,0,0,0,0,0,0,0,0,0,0,0,0,0],"id":6,"left_children":[1,3,5,7,9,11,13,-1,15,17,19,21,-1,23,25,27,29,-1,31,33,35,-1,-1,37,39,41,43,45,47,49,-1,-1,-1,51,53,55,57,59,61,-1,63,-1,-1,65,67,-1,-1,-1,-1,-1,-1,-1,-1,-1,-1,-1,-1,-1,-1,-1,-1,-1,-1,-1,-1,-1,-1,-1,-1],"loss_changes":[3.0802286E-3,4.0893247E-3,4.2093843E-3,3.0761734E-3,2.3561092E-3,5.9396913E-4,2.5736904E-3,0E0,3.94933E-3,2.319102E-4,2.1048933E-3,8.2704704E-5,0E0,2.534009E-3,2.9872777E-3,1.0347293E-3,1.759745E-3,0E0,1.5504635E-5,1.3335897E-3,1.9210402E-3,0E0,0E0,2.66667E-3,2.5230115E-3,5.319914E-3,3.2683136E-3,1.027931E-4,1.04211504E-4,1.2675067E-4,0E0,0E0,0E0,6.320309E-4,3.4549569E-6,1.5690575E-3,5.321705E-4,1.5287999E-3,3.0425235E-3,0E0,2.533676E-3,0E0,0E0,1.7812336E-3,1.8841156E-3,0E0,0E0,0E0,0E0,0E0,0E0,0E0,0E0,0E0,0E0,0E0,0E0,0E0,0E0,0E0,0E0,0E0,0E0,0E0,0E0,0E0,0E0,0E0,0E0],"parents":[2147483647,0,0,1,1,2,2,3,3,4,4,5,5,6,6,8,8,9,9,10,10,11,11,13,13,14,14,15,15,16,16,18,18,19,19,20,20,23,23,24,24,25,25,26,26,27,27,28,28,29,29,33,33,34,34,35,35,36,36,37,37,38,38,40,40,43,43,44,44],"right_children":[2,4,6,8,10,12,14,-1,16,18,20,22,-1,24,26,28,30,-1,32,34,36,-1,-1,38,40,42,44,46,48,50,-1,-1,-1,52,54,56,58,60,62,-1,64,-1,-1,66,68,-1,-1,-1,-1,-1,-1,-1,-1,-1,-1,-1,-1,-1,-1,-1,-1,-1,-1,-1,-1,-1,-1,-1,-1],"split_conditions":[-1.5691651E0,-3.375982E-1,-2.5670795E0,3.8532776E-1,-1.9863926E0,1.1428572E0,3.4692416E0,-2.8026913E-4,-6.3638866E-2,0E0,-1.5173752E0,-8.267716E-2,6.7025458E-6,2.3404474E0,-7.9772186E-1,5.393992E-1,5.227785E-1,-1.8502166E-4,1E0,1.2039723E0,-8.7372434E-1,-2.6231084E-4,-6.306805E-5,7.788844E0,-4.3366138E-2,-1.7209302E-1,-2.6586869E0,1.2198986E0,2.9137528E-3,-3.866134E-1,-1.0061764E-4,6.245218E-6,-3.6933277E-5,-2.0930232E-1,1E0,4.4245347E-1,-3.0074515E0,-1.4756336E0,-2.6301777E0,-2.873245E-4,-2.0960012E-1,2.4225237E-4,-2.6795713E-4,4.1895095E-1,-1.8139535E-1,-1.7603474E-4,-5.3672367E-5,-2.0084271E-5,6.573033E-5,6.320705E-5,2.0064384E-4,2.5882713E-5,3.1711528E-4,1.8323448E-5,-2.4106214E-6,-9.218834E-5,1.7631928E-4,3.346557E-5,1.9697046E-4,8.174217E-5,-1.7864686E-6,2.5836175E-4,3.7835518E-5,1.0428339E-4,-1.6530363E-4,2.5507435E-4,6.0190312E-5,1.1017047E-4,3.1539607E-6],"split_indices":[58,122,16,121,66,13,85,0,76,5,57,25,0,30,107,24,89,0,4,55,72,0,0,93,65,11,154,66,62,71,0,0,0,11,2,29,48,58,155,0,147,0,0,55,11,0,0,0,0,0,0,0,0,0,0,0,0,0,0,0,0,0,0,0,0,0,0,0,0],"split_type":[0,0,0,0,0,0,0,0,0,0,0,0,0,0,0,0,0,0,0,0,0,0,0,0,0,0,0,0,0,0,0,0,0,0,0,0,0,0,0,0,0,0,0,0,0,0,0,0,0,0,0,0,0,0,0,0,0,0,0,0,0,0,0,0,0,0,0,0,0],"sum_hessian":[5.781E3,6.7E1,5.714E3,2.9E1,3.8E1,8E0,5.706E3,3E0,2.6E1,3E0,3.5E1,7E0,1E0,5.598E3,1.08E2,1.3E1,1.3E1,1E0,2E0,1.3E1,2.2E1,6E0,1E0,5.581E3,1.7E1,8E0,1E2,9E0,4E0,1.1E1,2E0,1E0,1E0,1.1E1,2E0,9E0,1.3E1,5.51E3,7.1E1,5E0,1.2E1,2E0,6E0,2E1,8E1,7E0,2E0,2E0,2E0,2E0,9E0,1E0,1E1,1E0,1E0,7E0,2E0,3E0,1E1,2.1E1,5.489E3,6E0,6.5E1,6E0,6E0,1.1E1,9E0,2.2E1,5.8E1],"tree_param":{"num_deleted":"0","num_feature":"161","num_nodes":"69","size_leaf_vector":"1"}},{"base_weights":[3.493805E-5,6.178007E-3,-1.058741E-4,7.0905485E-3,-2.4111562E-4,5.751195E-3,-1.5940667E-4,1.7216956E-3,1.3355382E-2,1.7771771E-2,7.2255096E-4,-2.1521933E-2,-1.13329836E-4,2.0381933E-2,-1.4170387E-3,6.0893637E-3,1.8305236E-2,-4.7270614E-3,2.37904E-2,1.8291437E-4,-2.5941953E-3,-5.087542E-3,-2.6434783E-2,-6.662951E-5,-8.188945E-3,-4.39398E-4,2.564219E-4,-3.4426078E-3,2.780158E-4,9.329847E-3,-8.738538E-3,1.9590575E-2,-1.2055487E-4,1.358317E-3,-1.1491598E-4,2.6929757E-2,5.395746E-5,-1.6962761E-2,6.949009E-4,1.1462129E-5,-1.1894403E-4,-2.817031E-4,-6.275272E-5,-5.0010517E-6,-4.6785646E-3,-1.45367E-2,1.6558282E-2,-4.801151E-5,4.142054E-5,1.13391025E-5,-1.6332453E-4,3.0838084E-5,1.3757391E-4,-2.4285424E-5,-9.708902E-5,2.3446082E-4,6.7041015E-5,-1.6351829E-5,3.6726582E-5,2.9220356E-4,3.157189E-5,-1.999748E-4,-7.2622155E-5,-8.3452425E-5,4.276213E-5,2.666661E-5,-9.077585E-7,-1.04711326E-4,-1.627692E-5,7.4697906E-5,-2.1512137E-4,2.8014927E-5,2.61755E-4],"categories":[],"categories_nodes":[],"categories_segments":[],"categories_sizes":[],"default_left":[0,0,0,0,0,0,0,0,0,0,0,0,0,0,0,0,0,0,0,0,0,0,0,0,0,0,0,0,0,0,0,0,0,0,0,0,0,0,0,0,0,0,0,0,0,0,0,0,0,0,0,0,0,0,0,0,0,0,0,0,0,0,0,0,0,0,0,0,0,0,0,0,0],"id":7,"left_children":[1,3,5,7,-1,9,11,13,15,17,19,21,23,25,27,29,31,33,35,-1,37,39,41,43,45,47,-1,49,-1,51,53,55,-1,57,-1,59,-1,61,63,-1,-1,-1,-1,65,67,69,71,-1,-1,-1,-1,-1,-1,-1,-1,-1,-1,-1,-1,-1,-1,-1,-1,-1,-1,-1,-1,-1,-1,-1,-1,-1,-1],"loss_changes":[4.9797017E-3,3.7365886E-3,1.7655423E-3,4.215012E-3,0E0,3.069966E-3,5.488084E-3,4.0701795E-3,1.9745464E-3,2.143641E-3,2.2034985E-3,8.343877E-4,2.0989587E-3,1.1065225E-3,3.64677E-3,1.2827686E-3,1.5629837E-3,1.8026831E-4,5.476619E-4,0E0,1.5240945E-3,1.8336272E-4,1.3811095E-4,1.5734544E-3,5.267562E-3,7.9836114E-5,0E0,3.3809843E-3,0E0,5.383218E-4,7.036462E-6,1.4823843E-3,0E0,2.6789414E-5,0E0,4.522805E-4,0E0,3.1404663E-5,9.098266E-4,0E0,0E0,0E0,0E0,1.2523793E-3,1.2730405E-3,4.1518183E-3,8.527839E-4,0E0,0E0,0E0,0E0,0E0,0E0,0E0,0E0,0E0,0E0,0E0,0E0,0E0,0E0,0E0,0E0,0E0,0E0,0E0,0E0,0E0,0E0,0E0,0E0,0E0,0E0],"parents":[2147483647,0,0,1,1,2,2,3,3,5,5,6,6,7,7,8,8,9,9,10,10,11,11,12,12,13,13,14,14,15,15,16,16,17,17,18,18,20,20,21,21,22,22,23,23,24,24,25,25,27,27,29,29,30,30,31,31,33,33,35,35,37,37,38,38,43,43,44,44,45,45,46,46],"right_children":[2,4,6,8,-1,10,12,14,16,18,20,22,24,26,28,30,32,34,36,-1,38,40,42,44,46,48,-1,50,-1,52,54,56,-1,58,-1,60,-1,62,64,-1,-1,-1,-1,66,68,70,72,-1,-1,-1,-1,-1,-1,-1,-1,-1,-1,-1,-1,-1,-1,-1,-1,-1,-1,-1,-1,-1,-1,-1,-1,-1,-1],"split_conditions":[-2.0982122E0,9.318182E-1,-1.5691651E0,-4.2980984E-1,-2.4111562E-4,1.1744258E0,-2.5670795E0,-1.8143862E0,-1.14173226E-1,-3.1640917E-1,-1.3754152E-1,-3.2977667E-1,2.2133253E0,-2.857143E-1,3.6549137E0,6.0431236E-1,3.13524E0,1E0,9.7083473E-1,1.8291437E-4,4.7721514E-1,9.186782E-1,-8.267716E-2,1.32E1,1.3904183E0,0E0,2.564219E-4,6.090314E-1,2.780158E-4,9.434007E-2,0E0,7.141256E-1,-1.2055487E-4,-6.624123E-1,-1.1491598E-4,4.461657E0,5.395746E-5,-3.777905E-1,-1.7649504E0,1.1462129E-5,-1.1894403E-4,-2.817031E-4,-6.275272E-5,-1.5237026E0,-3.374684E-1,-5.0874126E-1,-2.3068117E-1,-4.801151E-5,4.142054E-5,1.13391025E-5,-1.6332453E-4,3.0838084E-5,1.3757391E-4,-2.4285424E-5,-9.708902E-5,2.3446082E-4,6.7041015E-5,-1.6351829E-5,3.6726582E-5,2.9220356E-4,3.157189E-5,-1.999748E-4,-7.2622155E-5,-8.3452425E-5,4.276213E-5,2.666661E-5,-9.077585E-7,-1.04711326E-4,-1.627692E-5,7.4697906E-5,-2.1512137E-4,2.8014927E-5,2.61755E-4],"split_indices":[157,87,58,126,0,55,16,73,25,143,73,143,30,13,118,62,27,8,159,0,123,19,25,11,76,5,0,141,0,143,3,34,0,9,0,19,0,32,118,0,0,0,0,73,111,62,32,0,0,0,0,0,0,0,0,0,0,0,0,0,0,0,0,0,0,0,0,0,0,0,0,0,0],"split_type":[0,0,0,0,0,0,0,0,0,0,0,0,0,0,0,0,0,0,0,0,0,0,0,0,0,0,0,0,0,0,0,0,0,0,0,0,0,0,0,0,0,0,0,0,0,0,0,0,0,0,0,0,0,0,0,0,0,0,0,0,0,0,0,0,0,0,0,0,0,0,0,0,0],"sum_hessian":[5.755E3,1.28E2,5.627E3,1.25E2,3E0,5E1,5.577E3,6.8E1,5.7E1,1.4E1,3.6E1,1.1E1,5.566E3,9E0,5.9E1,2.4E1,3.3E1,3E0,1.1E1,5E0,3.1E1,3E0,8E0,5.535E3,3.1E1,2E0,7E0,5.6E1,3E0,2E1,4E0,3.2E1,1E0,2E0,1E0,9E0,2E0,5E0,2.6E1,2E0,1E0,7E0,1E0,5.463E3,7.2E1,2.5E1,6E0,1E0,1E0,4.2E1,1.4E1,9E0,1.1E1,1E0,3E0,2.4E1,8E0,1E0,1E0,8E0,1E0,3E0,2E0,7E0,1.9E1,1.69E2,5.294E3,2.4E1,4.8E1,6E0,1.9E1,3E0,3E0],"tree_param":{"num_deleted":"0","num_feature":"161","num_nodes":"73","size_leaf_vector":"1"}},{"base_weights":[-6.346715E-5,4.5533692E-3,-1.7926424E-4,6.890489E-3,-9.241009E-3,6.677232E-3,-2.390877E-4,3.6950118E-4,1.1729373E-2,1.6183568E-2,-2.0489745E-2,-3.7665544E-3,1.1855025E-2,-2.0078577E-2,-2.0364266E-4,-2.5546797E-2,4.221514E-3,6.7800875E-3,2.1548342E-2,6.044317E-5,2.2276927E-4,-2.4507437E-2,1.7878969E-4,1.5192077E-2,-1.5488723E-2,2.1162455E-3,1.7319268E-2,1.1385715E-5,-2.5525186E-2,-7.525438E-5,-2.8529097E-3,-7.1814E-5,-2.7410797E-4,1.1642836E-3,2.1525074E-2,4.3502534E-3,2.6806607E-4,2.5190812E-2,3.3972894E-3,-2.8633688E-2,1.6671652E-4,1.3515255E-3,2.0457992E-4,-1.904447E-4,-4.5050503E-5,-6.439185E-3,1.0369355E-2,2.1100504E-2,6.742436E-3,-2.738767E-4,-6.243895E-5,-4.6169764E-5,-9.189709E-3,-1.5208543E-3,-8.53068E-3,5.652621E-5,-7.8955534E-5,5.458602E-5,2.3293051E-4,-1.9188116E-4,7.183793E-5,3.0817298E-4,1.1142933E-4,1.3409488E-4,-7.747339E-5,-5.6605608E-5,-3.0207558E-4,3.3099994E-5,-3.0599243E-5,-1.627007E-5,3.654295E-5,-6.4840497E-6,-8.625815E-5,2.3206168E-5,1.5825754E-4,5.153103E-5,2.3157557E-4,-2.083124E-6,7.9356134E-5,1.1896713E-6,-1.7111755E-5,-1.4953784E-4,7.6348275E-5,-1.7795913E-4,-1.0394408E-5,-1.5729126E-4,-3.4473607E-5],"categories":[],"categories_nodes":[],"categories_segments":[],"categories_sizes":[],"default_left":[0,0,0,0,0,0,0,0,0,0,0,0,0,0,0,0,0,0,0,0,0,0,0,0,0,0,0,0,0,0,0,0,0,0,0,0,0,0,0,0,0,0,0,0,0,0,0,0,0,0,0,0,0,0,0,0,0,0,0,0,0,0,0,0,0,0,0,0,0,0,0,0,0,0,0,0,0,0,0,0,0,0,0,0,0,0,0],"id":8,"left_children":[1,3,5,7,9,11,13,15,17,19,21,23,25,27,29,31,33,35,37,-1,-1,39,-1,41,43,45,47,-1,49,51,53,-1,-1,55,57,59,-1,61,63,65,67,69,-1,-1,-1,71,73,75,77,-1,-1,79,81,83,85,-1,-1,-1,-1,-1,-1,-1,-1,-1,-1,-1,-1,-1,-1,-1,-1,-1,-1,-1,-1,-1,-1,-1,-1,-1,-1,-1,-1,-1,-1,-1,-1],"loss_changes":[3.10266E-3,4.641629E-3,2.323622E-3,3.8452907E-3,6.3374788E-3,2.6943646E-3,3.943037E-3,5.398831E-3,3.255682E-3,2.9782578E-4,2.7504726E-3,4.0133228E-3,1.7194445E-3,1.1846777E-3,1.9059012E-3,4.2783562E-5,2.4612837E-3,2.219118E-3,1.4350563E-3,0E0,0E0,1.430139E-3,0E0,4.8253266E-4,3.4381053E-4,9.84686E-4,6.9759507E-4,0E0,1.1628354E-4,1.4167489E-3,1.94587E-3,0E0,0E0,1.7118383E-3,7.168879E-5,3.0725074E-3,0E0,1.1583697E-3,6.61799E-4,2.6288908E-4,4.055509E-5,2.6522188E-5,0E0,0E0,0E0,8.3043036E-5,2.7069438E-4,3.7273671E-4,5.970738E-5,0E0,0E0,1.4657078E-3,1.762794E-3,1.6346944E-3,1.7387841E-3,0E0,0E0,0E0,0E0,0E0,0E0,0E0,0E0,0E0,0E0,0E0,0E0,0E0,0E0,0E0,0E0,0E0,0E0,0E0,0E0,0E0,0E0,0E0,0E0,0E0,0E0,0E0,0E0,0E0,0E0,0E0,0E0],"parents":[2147483647,0,0,1,1,2,2,3,3,4,4,5,5,6,6,7,7,8,8,9,9,10,10,11,11,12,12,13,13,14,14,15,15,16,16,17,17,18,18,21,21,23,23,24,24,25,25,26,26,28,28,29,29,30,30,33,33,34,34,35,35,37,37,38,38,39,39,40,40,41,41,45,45,46,46,47,47,48,48,51,51,52,52,53,53,54,54],"right_children":[2,4,6,8,10,12,14,16,18,20,22,24,26,28,30,32,34,36,38,-1,-1,40,-1,42,44,46,48,-1,50,52,54,-1,-1,56,58,60,-1,62,64,66,68,70,-1,-1,-1,72,74,76,78,-1,-1,80,82,84,86,-1,-1,-1,-1,-1,-1,-1,-1,-1,-1,-1,-1,-1,-1,-1,-1,-1,-1,-1,-1,-1,-1,-1,-1,-1,-1,-1,-1,-1,-1,-1,-1],"split_conditions":[-2.0982122E0,3.1943252E0,-1.5691651E0,-5.7142857E-2,-2.2857143E-1,-1.8473E0,-2.5670795E0,-1.766748E0,3.0644479E0,-1.697889E-1,1.5136861E1,-5.124017E-1,5.028702E-1,-1.8089104E-1,1.7036724E0,3.6733288E-1,7.401391E0,7.0102566E-1,5.5008584E-1,6.044317E-5,2.2276927E-4,-1.4483035E0,1.7878969E-4,-2.5670795E0,-1.1860697E0,-2.7832958E-1,2.3993559E-1,1.1385715E-5,-8.267716E-2,2.3107738E0,2.469422E-1,-7.1814E-5,-2.7410797E-4,4.6666667E-1,-2.0930232E-1,-8.8403666E-1,2.6806607E-4,5.7150614E-1,1.9142857E0,-2E-1,0E0,-6.624123E-1,2.0457992E-4,-1.904447E-4,-4.5050503E-5,-7.9915303E-1,-1.6744186E-1,-3.0074515E0,6.478274E-1,-2.738767E-4,-6.243895E-5,1.2450705E1,1.11925706E-1,-1.8247901E0,-1.1491693E-1,5.652621E-5,-7.8955534E-5,5.458602E-5,2.3293051E-4,-1.9188116E-4,7.183793E-5,3.0817298E-4,1.1142933E-4,1.3409488E-4,-7.747339E-5,-5.6605608E-5,-3.0207558E-4,3.3099994E-5,-3.0599243E-5,-1.627007E-5,3.654295E-5,-6.4840497E-6,-8.625815E-5,2.3206168E-5,1.5825754E-4,5.153103E-5,2.3157557E-4,-2.083124E-6,7.9356134E-5,1.1896713E-6,-1.7111755E-5,-1.4953784E-4,7.6348275E-5,-1.7795913E-4,-1.0394408E-5,-1.5729126E-4,-3.4473607E-5],"split_indices":[157,49,58,13,13,118,16,72,19,41,19,60,121,63,50,29,85,106,32,0,0,155,0,16,76,122,63,0,25,140,128,0,0,23,11,128,0,55,13,13,3,9,0,0,0,60,11,48,19,0,0,12,56,72,151,0,0,0,0,0,0,0,0,0,0,0,0,0,0,0,0,0,0,0,0,0,0,0,0,0,0,0,0,0,0,0,0],"split_type":[0,0,0,0,0,0,0,0,0,0,0,0,0,0,0,0,0,0,0,0,0,0,0,0,0,0,0,0,0,0,0,0,0,0,0,0,0,0,0,0,0,0,0,0,0,0,0,0,0,0,0,0,0,0,0,0,0,0,0,0,0,0,0,0,0,0,0,0,0,0,0,0,0,0,0,0,0,0,0,0,0,0,0,0,0,0,0],"sum_hessian":[5.801E3,1.41E2,5.66E3,1.21E2,2E1,4.8E1,5.612E3,5.2E1,6.9E1,6E0,1.4E1,1.6E1,3.2E1,9E0,5.603E3,6E0,4.6E1,4.7E1,2.2E1,3E0,3E0,1.3E1,1E0,6E0,1E1,1.2E1,2E1,2E0,7E0,5.345E3,2.58E2,1E0,5E0,4E1,6E0,4.3E1,4E0,1.8E1,4E0,1.1E1,2E0,2E0,4E0,7E0,3E0,6E0,6E0,1.4E1,6E0,6E0,1E0,5.329E3,1.6E1,2.1E2,4.8E1,2.7E1,1.3E1,1E0,5E0,4E0,3.9E1,1.2E1,6E0,2E0,2E0,1E0,1E1,1E0,1E0,1E0,1E0,2E0,4E0,3E0,3E0,2E0,1.2E1,1E0,5E0,4.849E3,4.8E2,1.2E1,4E0,5E0,2.05E2,1.9E1,2.9E1],"tree_param":{"num_deleted":"0","num_feature":"161","num_nodes":"87","size_leaf_vector":"1"}},{"base_weights":[7.1244285E-5,4.551172E-3,-9.1763024E-5,9.876613E-3,1.2606153E-3,1.2751944E-2,-1.3817228E-4,1.5040534E-2,4.4594454E-3,-1.4072742E-2,2.5603843E-3,1.990876E-2,-2.0852509E-4,-7.2653085E-5,-4.660565E-3,1.7882777E-2,-3.5722747E-3,-1.2610349E-4,6.2322156E-3,6.542551E-4,-2.3999784E-4,8.413292E-3,-1.4477586E-4,2.3430862E-2,-1.8222425E-4,-1.13248825E-4,6.6007827E-3,-1.1241904E-3,-1.5768897E-2,1.9905541E-2,-2.264331E-3,-1.4826827E-4,1.26245525E-2,1.0146291E-2,2.1961327E-3,5.841925E-3,-1.0048211E-4,9.99895E-3,-7.168122E-3,1.9148481E-3,-9.3347775E-3,1.6596727E-4,2.6742563E-2,-1.107986E-2,-7.6713084E-5,1.0524953E-3,1.6222578E-2,-7.1987305E-3,2.487056E-3,-1.8654384E-2,5.838497E-5,-1.6761607E-5,2.1451732E-4,-1.05739346E-4,4.0301813E-5,3.6989662E-5,1.5237862E-4,1.3273886E-4,1.678787E-5,-1.1464672E-7,8.379698E-5,6.9905414E-5,1.1980369E-5,-2.5724945E-5,1.2784706E-4,-6.4689107E-6,-9.126236E-5,-1.009967E-5,5.5557855E-5,-1.321681E-4,1.0598954E-4,6.919766E-5,-6.6708155E-5,3.1078135E-4,8.134093E-5,-2.0497506E-4,1.7505522E-4,4.4281165E-5,-1.5726318E-6,7.559261E-5,-1.3970469E-4,2.0073046E-4,3.5033776E-5,-4.395426E-5,-1.9415568E-4,1.01670805E-4,-1.3028472E-5,-2.2074011E-4,-6.0324728E-5],"categories":[],"categories_nodes":[],"categories_segments":[],"categories_sizes":[],"default_left":[0,0,0,0,0,0,0,0,0,0,0,0,0,0,0,0,0,0,0,0,0,0,0,0,0,0,0,0,0,0,0,0,0,0,0,0,0,0,0,0,0,0,0,0,0,0,0,0,0,0,0,0,0,0,0,0,0,0,0,0,0,0,0,0,0,0,0,0,0,0,0,0,0,0,0,0,0,0,0,0,0,0,0,0,0,0,0,0,0],"id":9,"left_children":[1,3,5,7,9,11,13,15,17,19,21,23,-1,25,27,29,31,-1,33,35,-1,37,39,41,-1,43,45,47,49,51,53,-1,55,57,59,61,-1,63,65,67,69,71,73,75,77,79,81,83,85,87,-1,-1,-1,-1,-1,-1,-1,-1,-1,-1,-1,-1,-1,-1,-1,-1,-1,-1,-1,-1,-1,-1,-1,-1,-1,-1,-1,-1,-1,-1,-1,-1,-1,-1,-1,-1,-1,-1,-1],"loss_changes":[4.201609E-3,3.5273288E-3,3.311125E-3,2.0869118E-3,2.5471894E-3,5.2251657E-3,1.6391088E-3,2.1270663E-3,1.2587624E-3,1.4776571E-3,1.8536851E-3,2.710098E-3,0E0,1.4785785E-3,3.0856477E-3,1.4306689E-3,1.2809103E-3,0E0,5.464287E-4,3.363052E-4,0E0,9.85825E-4,1.5510384E-3,1.2283046E-3,0E0,2.1720012E-3,1.7446137E-3,1.3560399E-3,1.2935228E-3,1.07041E-3,2.518345E-4,0E0,1.3611629E-5,4.544087E-4,2.594617E-4,1.29612745E-5,0E0,1.2236016E-3,4.517354E-5,7.1909884E-4,1.3008352E-3,1.8468325E-4,8.7670516E-4,5.2045463E-3,1.9623418E-3,2.2561268E-3,5.1737484E-4,7.023531E-4,1.1484016E-3,6.005969E-4,0E0,0E0,0E0,0E0,0E0,0E0,0E0,0E0,0E0,0E0,0E0,0E0,0E0,0E0,0E0,0E0,0E0,0E0,0E0,0E0,0E0,0E0,0E0,0E0,0E0,0E0,0E0,0E0,0E0,0E0,0E0,0E0,0E0,0E0,0E0,0E0,0E0,0E0,0E0],"parents":[2147483647,0,0,1,1,2,2,3,3,4,4,5,5,6,6,7,7,8,8,9,9,10,10,11,11,13,13,14,14,15,15,16,16,18,18,19,19,21,21,22,22,23,23,25,25,26,26,27,27,28,28,29,29,30,30,32,32,33,33,34,34,35,35,37,37,38,38,39,39,40,40,41,41,42,42,43,43,44,44,45,45,46,46,47,47,48,48,49,49],"right_children":[2,4,6,8,10,12,14,16,18,20,22,24,-1,26,28,30,32,-1,34,36,-1,38,40,42,-1,44,46,48,50,52,54,-1,56,58,60,62,-1,64,66,68,70,72,74,76,78,80,82,84,86,88,-1,-1,-1,-1,-1,-1,-1,-1,-1,-1,-1,-1,-1,-1,-1,-1,-1,-1,-1,-1,-1,-1,-1,-1,-1,-1,-1,-1,-1,-1,-1,-1,-1,-1,-1,-1,-1,-1,-1],"split_conditions":[-1.5237026E0,3.2324204E-1,-3.3869464E0,-3.7165403E-1,-6.4338684E-1,4.218954E-1,2.5455942E0,1.852634E0,-5.480584E-1,1.1808444E0,-1.0368572E0,8.1220657E-1,-2.0852509E-4,2.1482856E0,1.447447E0,-9.799101E-2,-8.2016766E-1,-1.2610349E-4,4.1319093E-1,1.3413954E1,-2.3999784E-4,6.7208415E-1,1.5343243E0,-6.666667E-1,-1.8222425E-4,-3.1045976E0,4.1146123E-1,-1.1635651E-1,1.032446E0,7.2894596E-2,-5.011899E-1,-1.4826827E-4,1.3263868E-2,1.4414284E0,2.5037131E0,2.8801346E-1,-1.0048211E-4,-1.6810797E0,3.9541438E-1,-2.5712547E-1,6.295938E-1,0E0,4.1217566E-1,5.196759E-1,-2.5014336E0,6.3116163E-1,4.9708626E-1,8.0326027E-1,-3.5420892E0,-3.542395E-1,5.838497E-5,-1.6761607E-5,2.1451732E-4,-1.05739346E-4,4.0301813E-5,3.6989662E-5,1.5237862E-4,1.3273886E-4,1.678787E-5,-1.1464672E-7,8.379698E-5,6.9905414E-5,1.1980369E-5,-2.5724945E-5,1.2784706E-4,-6.4689107E-6,-9.126236E-5,-1.009967E-5,5.5557855E-5,-1.321681E-4,1.0598954E-4,6.919766E-5,-6.6708155E-5,3.1078135E-4,8.134093E-5,-2.0497506E-4,1.7505522E-4,4.4281165E-5,-1.5726318E-6,7.559261E-5,-1.3970469E-4,2.0073046E-4,3.5033776E-5,-4.395426E-5,-1.9415568E-4,1.01670805E-4,-1.3028472E-5,-2.2074011E-4,-6.0324728E-5],"split_indices":[73,133,155,155,101,152,50,101,101,19,155,54,0,122,49,157,59,0,143,11,0,36,156,23,0,79,148,129,119,65,10,0,9,50,156,9,0,132,9,102,80,3,70,133,50,49,62,78,76,59,0,0,0,0,0,0,0,0,0,0,0,0,0,0,0,0,0,0,0,0,0,0,0,0,0,0,0,0,0,0,0,0,0,0,0,0,0,0,0],"split_type":[0,0,0,0,0,0,0,0,0,0,0,0,0,0,0,0,0,0,0,0,0,0,0,0,0,0,0,0,0,0,0,0,0,0,0,0,0,0,0,0,0,0,0,0,0,0,0,0,0,0,0,0,0,0,0,0,0,0,0,0,0,0,0,0,0,0,0,0,0,0,0,0,0,0,0,0,0,0,0,0,0,0,0,0,0,0,0,0,0],"sum_hessian":[5.752E3,2.01E2,5.551E3,7.6E1,1.25E2,1.9E1,5.532E3,3.8E1,3.8E1,9E0,1.16E2,1.6E1,3E0,5.454E3,7.8E1,3.3E1,5E0,3E0,3.5E1,4E0,5E0,3.6E1,8E1,1.5E1,1E0,5.422E3,3.2E1,6E1,1.8E1,3E1,3E0,3E0,2E0,1.7E1,1.8E1,3E0,1E0,3.3E1,3E0,6.6E1,1.4E1,2E0,1.3E1,1.7E1,5.405E3,2.1E1,1.1E1,2.2E1,3.8E1,1.6E1,2E0,2E0,2.8E1,1E0,2E0,1E0,1E0,1.2E1,5E0,1.4E1,4E0,2E0,1E0,6E0,2.7E1,1E0,2E0,3.7E1,2.9E1,1.2E1,2E0,1E0,1E0,1E1,3E0,1.3E1,4E0,9.4E1,5.311E3,1.5E1,6E0,8E0,3E0,1.9E1,3E0,1.2E1,2.6E1,1.2E1,4E0],"tree_param":{"num_deleted":"0","num_feature":"161","num_nodes":"89","size_leaf_vector":"1"}},{"base_weights":[-9.654456E-5,3.4952466E-3,-2.0719317E-4,-3.5968132E-3,7.878084E-3,6.463906E-6,-2.3232084E-3,5.4542073E-3,-1.0002756E-2,1.2931474E-2,2.5807035E-3,-9.532521E-3,5.0167127E-5,2.178527E-3,-3.5553775E-3,-8.65812E-3,2.240367E-2,-1.570827E-2,8.114063E-3,7.105152E-3,2.2480963E-2,-8.837981E-4,1.756644E-2,9.233437E-3,-1.3969218E-2,-1.461745E-5,5.7931184E-3,1.3989786E-3,1.8269245E-2,-1.6795952E-3,-7.528293E-3,8.316264E-3,-1.7129773E-2,8.421221E-5,2.7682403E-2,-1.7496657E-2,1.8077467E-4,-3.7022657E-3,1.6608661E-4,1.4349366E-2,-1.4092725E-3,1.7699853E-3,2.7548082E-2,-8.07715E-3,3.9445036E-3,2.454258E-3,2.3692481E-4,-1.6697073E-5,1.2376649E-2,5.6765927E-4,-1.9201508E-2,6.175335E-5,-4.2478237E-3,1.650727E-2,6.995832E-4,3.8951435E-3,-2.3487778E-3,2.2074029E-4,1.5250516E-5,-3.7315995E-3,4.3245256E-3,-1.38868345E-2,-3.1364432E-3,-4.029831E-5,1.5496768E-4,-2.554347E-4,3.9800616E-5,2.9321772E-4,7.283715E-5,2.680977E-5,-1.9927959E-4,-8.286752E-5,2.1163092E-5,1.7540951E-4,4.5107714E-5,4.0599192E-5,-1.5347316E-4,-6.192404E-5,9.14238E-5,6.1167804E-5,2.856905E-4,-1.1209778E-4,1.1322582E-4,9.0256006E-5,-9.251303E-5,6.1154016E-5,-4.2645865E-5,5.5554217E-5,1.6420164E-4,-3.0198551E-5,5.161792E-5,-2.4022331E-4,-5.7195568E-5,-1.0043528E-6,2.103622E-5,-2.6316508E-5,-2.25733E-4,2.0248153E-4,-8.9465284E-5,1.4655881E-4,-1.3141618E-5,1.2194177E-5,9.7207696E-5,-1.3120913E-4,-9.0750955E-6,-3.242767E-5,-2.2538568E-4,6.970683E-5,-3.7071906E-5,-1.607162E-4,1.3843301E-6,-5.132588E-5,9.307024E-5],"categories":[],"categories_nodes":[],"categories_segments":[],"categories_sizes":[],"default_left":[0,0,0,0,0,0,0,0,0,0,0,0,0,0,0,0,0,0,0,0,0,0,0,0,0,0,0,0,0,0,0,0,0,0,0,0,0,0,0,0,0,0,0,0,0,0,0,0,0,0,0,0,0,0,0,0,0,0,0,0,0,0,0,0,0,0,0,0,0,0,0,0,0,0,0,0,0,0,0,0,0,0,0,0,0,0,0,0,0,0,0,0,0,0,0,0,0,0,0,0,0,0,0,0,0,0,0,0,0,0,0,0,0],"id":10,"left_children":[1,3,5,7,9,11,13,15,17,19,21,23,25,27,29,31,33,35,37,39,41,43,45,47,49,51,53,55,57,59,61,63,65,-1,67,69,-1,71,-1,73,75,77,79,81,83,85,-1,-1,87,89,91,93,95,97,99,101,103,-1,-1,105,107,109,111,-1,-1,-1,-1,-1,-1,-1,-1,-1,-1,-1,-1,-1,-1,-1,-1,-1,-1,-1,-1,-1,-1,-1,-1,-1,-1,-1,-1,-1,-1,-1,-1,-1,-1,-1,-1,-1,-1,-1,-1,-1,-1,-1,-1,-1,-1,-1,-1,-1,-1],"loss_changes":[2.274005E-3,5.343587E-3,2.5091788E-3,3.881258E-3,2.8042188E-3,2.1024088E-3,2.8311168E-3,6.8914727E-3,4.158723E-3,2.8447425E-3,2.767185E-3,2.043938E-3,1.8677991E-3,1.3542257E-3,2.9682852E-3,2.443273E-3,7.2640507E-4,2.128954E-3,1.0652392E-3,2.1790334E-3,2.05014E-3,1.560054E-3,8.676308E-4,1.9201986E-4,1.4560618E-3,1.6054137E-3,3.044535E-3,1.0007806E-3,2.848762E-4,3.3796283E-3,3.5309424E-3,5.9435645E-4,2.0553935E-3,0E0,8.739764E-5,1.4761072E-3,0E0,1.5091321E-4,0E0,5.1748985E-4,1.3582158E-3,3.501227E-4,1.753401E-4,1.2208223E-3,1.8938263E-3,1.2447429E-4,0E0,0E0,1.9106024E-5,1.1447697E-4,7.7252043E-4,1.6156483E-3,2.5469032E-3,1.895105E-3,1.1153329E-3,9.85764E-4,6.556908E-4,0E0,0E0,1.8023774E-3,1.5135652E-3,1.5956182E-3,1.960369E-3,0E0,0E0,0E0,0E0,0E0,0E0,0E0,0E0,0E0,0E0,0E0,0E0,0E0,0E0,0E0,0E0,0E0,0E0,0E0,0E0,0E0,0E0,0E0,0E0,0E0,0E0,0E0,0E0,0E0,0E0,0E0,0E0,0E0,0E0,0E0,0E0,0E0,0E0,0E0,0E0,0E0,0E0,0E0,0E0,0E0,0E0,0E0,0E0,0E0,0E0],"parents":[2147483647,0,0,1,1,2,2,3,3,4,4,5,5,6,6,7,7,8,8,9,9,10,10,11,11,12,12,13,13,14,14,15,15,16,16,17,17,18,18,19,19,20,20,21,21,22,22,23,23,24,24,25,25,26,26,27,27,28,28,29,29,30,30,31,31,32,32,34,34,35,35,37,37,39,39,40,40,41,41,42,42,43,43,44,44,45,45,48,48,49,49,50,50,51,51,52,52,53,53,54,54,55,55,56,56,59,59,60,60,61,61,62,62],"right_children":[2,4,6,8,10,12,14,16,18,20,22,24,26,28,30,32,34,36,38,40,42,44,46,48,50,52,54,56,58,60,62,64,66,-1,68,70,-1,72,-1,74,76,78,80,82,84,86,-1,-1,88,90,92,94,96,98,100,102,104,-1,-1,106,108,110,112,-1,-1,-1,-1,-1,-1,-1,-1,-1,-1,-1,-1,-1,-1,-1,-1,-1,-1,-1,-1,-1,-1,-1,-1,-1,-1,-1,-1,-1,-1,-1,-1,-1,-1,-1,-1,-1,-1,-1,-1,-1,-1,-1,-1,-1,-1,-1,-1,-1,-1],"split_conditions":[-1.9213141E0,-1.0120282E0,1.2450705E1,-1.4123244E0,-1.8694196E0,-2.460354E0,-8.2482463E-1,-6.595101E-1,5.495675E-1,1.2167785E0,2.2687273E0,6.6118765E-1,3.8608646E0,-1.3094345E0,4.843646E-1,-3.275934E0,1.9822639E-1,9.937402E-1,9.176744E0,7.457385E-2,-5.5034214E-1,-4.6773553E-1,-3.3692306E-1,-6.624123E-1,-2.0721014E0,1.9117277E0,-1.16995834E-1,3.9864624E-1,1E0,1.1797456E0,5.951662E-1,0E0,-1.1204593E0,8.421221E-5,-8.137707E-2,1.3679405E-1,1.8077467E-4,0E0,1.6608661E-4,2.914503E0,2.573363E0,0E0,-4.3492064E-1,4.9517608E-1,4.752217E-1,1E0,2.3692481E-4,-1.6697073E-5,1E0,-4.9295776E-2,1.1428572E0,1.2821991E0,5.468002E-1,5.143512E0,-3.7141368E-1,3.9931154E-1,3.1788665E-1,2.2074029E-4,1.5250516E-5,-1.1069866E-1,-1.3157895E-1,5.9614104E-1,9.080596E-1,-4.029831E-5,1.5496768E-4,-2.554347E-4,3.9800616E-5,2.9321772E-4,7.283715E-5,2.680977E-5,-1.9927959E-4,-8.286752E-5,2.1163092E-5,1.7540951E-4,4.5107714E-5,4.0599192E-5,-1.5347316E-4,-6.192404E-5,9.14238E-5,6.1167804E-5,2.856905E-4,-1.1209778E-4,1.1322582E-4,9.0256006E-5,-9.251303E-5,6.1154016E-5,-4.2645865E-5,5.5554217E-5,1.6420164E-4,-3.0198551E-5,5.161792E-5,-2.4022331E-4,-5.7195568E-5,-1.0043528E-6,2.103622E-5,-2.6316508E-5,-2.25733E-4,2.0248153E-4,-8.9465284E-5,1.4655881E-4,-1.3141618E-5,1.2194177E-5,9.7207696E-5,-1.3120913E-4,-9.0750955E-6,-3.242767E-5,-2.2538568E-4,6.970683E-5,-3.7071906E-5,-1.607162E-4,1.3843301E-6,-5.132588E-5,9.307024E-5],"split_indices":[157,21,12,58,155,17,104,126,35,91,156,102,85,33,35,51,54,54,11,48,56,128,106,9,155,91,125,155,4,156,145,5,64,0,17,49,0,5,0,19,19,3,15,105,54,6,0,0,0,12,13,85,24,19,54,91,142,0,0,108,28,35,91,0,0,0,0,0,0,0,0,0,0,0,0,0,0,0,0,0,0,0,0,0,0,0,0,0,0,0,0,0,0,0,0,0,0,0,0,0,0,0,0,0,0,0,0,0,0,0,0,0,0],"split_type":[0,0,0,0,0,0,0,0,0,0,0,0,0,0,0,0,0,0,0,0,0,0,0,0,0,0,0,0,0,0,0,0,0,0,0,0,0,0,0,0,0,0,0,0,0,0,0,0,0,0,0,0,0,0,0,0,0,0,0,0,0,0,0,0,0,0,0,0,0,0,0,0,0,0,0,0,0,0,0,0,0,0,0,0,0,0,0,0,0,0,0,0,0,0,0,0,0,0,0,0,0,0,0,0,0,0,0,0,0,0,0,0,0],"sum_hessian":[5.719E3,1.7E2,5.549E3,6.5E1,1.05E2,5.041E3,5.08E2,2.7E1,3.8E1,5.3E1,5.2E1,2.2E1,5.019E3,1.09E2,3.99E2,1.5E1,1.2E1,2.9E1,9E0,3.4E1,1.9E1,4.3E1,9E0,4E0,1.8E1,4.964E3,5.5E1,1.05E2,4E0,2.72E2,1.27E2,5E0,1E1,4E0,8E0,2.8E1,1E0,4E0,5E0,1.8E1,1.6E1,4E0,1.5E1,1.7E1,2.6E1,3E0,6E0,1E0,3E0,5E0,1.3E1,4.877E3,8.7E1,1.7E1,3.8E1,6.3E1,4.2E1,3E0,1E0,2.03E2,6.9E1,5.1E1,7.6E1,2E0,3E0,7E0,3E0,7E0,1E0,3E0,2.5E1,2E0,2E0,1.3E1,5E0,1.2E1,4E0,2E0,2E0,1E0,1.4E1,1.5E1,2E0,1.9E1,7E0,2E0,1E0,2E0,1E0,3E0,2E0,9E0,4E0,4.519E3,3.58E2,8.1E1,6E0,1.5E1,2E0,4E0,3.4E1,4.4E1,1.9E1,4E0,3.8E1,1.99E2,4E0,5.2E1,1.7E1,4.4E1,7E0,6.6E1,1E1],"tree_param":{"num_deleted":"0","num_feature":"161","num_nodes":"113","size_leaf_vector":"1"}},{"base_weights":[4.278656E-6,4.4551278E-3,-1.0120374E-4,-4.1897846E-3,8.776094E-3,-9.343571E-3,-6.3158004E-5,-1.8677643E-2,1.6445162E-3,9.777004E-3,-2.317568E-4,1.1940929E-2,-1.7558156E-2,1.4674908E-4,-1.5345222E-3,-2.3148708E-2,1.7487573E-4,1.0198806E-2,-1.0693364E-2,5.803636E-3,1.9398812E-2,2.5609452E-3,1.8335681E-4,-7.7994154E-3,-2.756181E-2,4.585996E-3,5.5063538E-5,-2.3318613E-3,2.2118345E-3,-2.2214998E-3,-2.7112E-4,-7.483419E-5,1.6591776E-2,4.4039258E-5,-1.5211163E-2,2.447962E-3,1.9861253E-2,2.229855E-3,2.3579558E-2,-1.6613589E-5,4.5221663E-5,-1.6599147E-2,8.3359564E-4,-2.9758702E-4,-6.091778E-5,2.1015194E-3,1.9520208E-2,1.08622255E-4,-1.7019555E-2,-6.717324E-3,-1.6518364E-3,5.3441273E-3,-9.123137E-3,2.5852643E-5,-5.917514E-5,2.120421E-4,-8.926032E-5,1.4106078E-5,-1.9061622E-4,3.7937232E-5,-2.079738E-4,2.4277638E-4,4.959072E-5,1.4666433E-4,-7.655042E-5,2.5953757E-4,1.1266214E-4,-4.6065663E-5,-1.8445648E-4,-1.617675E-5,3.8240913E-5,4.155503E-5,-1.2280689E-4,-1.3431416E-5,2.3109361E-4,1.1850189E-5,-1.5371645E-6,-2.0771052E-4,-1.5101769E-5,7.2194202E-6,-1.0099669E-4,-4.1773295E-5,-6.185547E-6,6.7336616E-5,-1.6852758E-4,6.537252E-5,-1.3908831E-4],"categories":[],"categories_nodes":[],"categories_segments":[],"categories_sizes":[],"default_left":[0,0,0,0,0,0,0,0,0,0,0,0,0,0,0,0,0,0,0,0,0,0,0,0,0,0,0,0,0,0,0,0,0,0,0,0,0,0,0,0,0,0,0,0,0,0,0,0,0,0,0,0,0,0,0,0,0,0,0,0,0,0,0,0,0,0,0,0,0,0,0,0,0,0,0,0,0,0,0,0,0,0,0,0,0,0,0],"id":11,"left_children":[1,3,5,7,9,11,13,15,17,19,-1,21,23,25,27,29,-1,31,33,35,37,39,-1,41,43,45,47,49,51,53,-1,-1,55,-1,57,59,61,63,65,-1,-1,67,69,-1,-1,71,73,75,77,79,81,83,85,-1,-1,-1,-1,-1,-1,-1,-1,-1,-1,-1,-1,-1,-1,-1,-1,-1,-1,-1,-1,-1,-1,-1,-1,-1,-1,-1,-1,-1,-1,-1,-1,-1,-1],"loss_changes":[2.6971796E-3,5.0049014E-3,1.9727724E-3,3.834409E-3,3.0728872E-3,4.2310567E-3,1.7266953E-3,2.5068773E-3,3.5919389E-3,3.2135118E-3,0E0,3.7292193E-4,1.4446261E-3,1.9912706E-3,2.0901654E-3,9.350586E-4,0E0,2.385002E-3,1.0218801E-3,2.923265E-3,1.7418973E-3,4.0636427E-5,0E0,7.735187E-4,1.9605504E-4,3.6322437E-3,4.3868506E-3,1.7066651E-3,4.415802E-3,6.859595E-5,0E0,0E0,1.9547576E-3,0E0,7.3090475E-4,1.705599E-3,6.693704E-4,8.4987795E-4,2.9228535E-4,0E0,0E0,2.5750604E-5,5.016922E-5,0E0,0E0,2.5915431E-3,1.0793838E-3,1.3502432E-3,8.4138336E-4,1.9447787E-3,1.3021892E-3,3.1052853E-3,2.1144631E-3,0E0,0E0,0E0,0E0,0E0,0E0,0E0,0E0,0E0,0E0,0E0,0E0,0E0,0E0,0E0,0E0,0E0,0E0,0E0,0E0,0E0,0E0,0E0,0E0,0E0,0E0,0E0,0E0,0E0,0E0,0E0,0E0,0E0,0E0],"parents":[2147483647,0,0,1,1,2,2,3,3,4,4,5,5,6,6,7,7,8,8,9,9,11,11,12,12,13,13,14,14,15,15,17,17,18,18,19,19,20,20,21,21,23,23,24,24,25,25,26,26,27,27,28,28,29,29,32,32,34,34,35,35,36,36,37,37,38,38,41,41,42,42,45,45,46,46,47,47,48,48,49,49,50,50,51,51,52,52],"right_children":[2,4,6,8,10,12,14,16,18,20,-1,22,24,26,28,30,-1,32,34,36,38,40,-1,42,44,46,48,50,52,54,-1,-1,56,-1,58,60,62,64,66,-1,-1,68,70,-1,-1,72,74,76,78,80,82,84,86,-1,-1,-1,-1,-1,-1,-1,-1,-1,-1,-1,-1,-1,-1,-1,-1,-1,-1,-1,-1,-1,-1,-1,-1,-1,-1,-1,-1,-1,-1,-1,-1,-1,-1],"split_conditions":[-2.0982122E0,-1.0104153E0,-2.5670795E0,-6.1636966E-1,8.7554115E-1,-1.3754152E-1,6.21831E0,4.7790112E0,1.0015272E0,4.574468E-2,-2.317568E-4,-6.528574E-1,-1.4793056E0,-1.3837075E0,9.080596E-1,-2.4015749E-1,1.7487573E-4,-2.1332046E-1,6.325653E-1,2.095304E0,-1.1687044E0,6.001904E-1,1.8335681E-4,4.22957E-1,-2.8169014E-2,1.6589087E0,2.3404474E0,-6.334499E-1,7.030964E-1,-3.521127E-2,-2.7112E-4,-7.483419E-5,4.202454E-1,4.4039258E-5,-3.310813E-1,8.0439866E-1,-7.996522E-1,-3.229132E0,-5.691937E-1,-1.6613589E-5,4.5221663E-5,0E0,-4.9934807E-1,-2.9758702E-4,-6.091778E-5,2.3682256E0,-6.568073E-1,-4.671131E-1,-1.663083E-1,-3.9924243E-1,5.0737417E-1,1.8914328E0,-7.1498144E-1,2.5852643E-5,-5.917514E-5,2.120421E-4,-8.926032E-5,1.4106078E-5,-1.9061622E-4,3.7937232E-5,-2.079738E-4,2.4277638E-4,4.959072E-5,1.4666433E-4,-7.655042E-5,2.5953757E-4,1.1266214E-4,-4.6065663E-5,-1.8445648E-4,-1.617675E-5,3.8240913E-5,4.155503E-5,-1.2280689E-4,-1.3431416E-5,2.3109361E-4,1.1850189E-5,-1.5371645E-6,-2.0771052E-4,-1.5101769E-5,7.2194202E-6,-1.0099669E-4,-4.1773295E-5,-6.185547E-6,6.7336616E-5,-1.6852758E-4,6.537252E-5,-1.3908831E-4],"split_indices":[157,18,16,89,87,73,12,61,55,88,0,9,57,57,91,25,0,75,65,156,89,10,0,121,12,122,30,62,144,12,0,0,148,0,40,109,155,50,155,0,0,5,41,0,0,156,59,50,72,46,55,107,102,0,0,0,0,0,0,0,0,0,0,0,0,0,0,0,0,0,0,0,0,0,0,0,0,0,0,0,0,0,0,0,0,0,0],"split_type":[0,0,0,0,0,0,0,0,0,0,0,0,0,0,0,0,0,0,0,0,0,0,0,0,0,0,0,0,0,0,0,0,0,0,0,0,0,0,0,0,0,0,0,0,0,0,0,0,0,0,0,0,0,0,0,0,0,0,0,0,0,0,0,0,0,0,0,0,0,0,0,0,0,0,0,0,0,0,0,0,0,0,0,0,0,0,0],"sum_hessian":[5.743E3,1.32E2,5.611E3,4.4E1,8.8E1,2.2E1,5.589E3,1.2E1,3.2E1,8.6E1,2E0,6E0,1.6E1,4.892E3,6.97E2,1.1E1,1E0,1.9E1,1.3E1,6.2E1,2.4E1,3E0,3E0,9E0,7E0,9.8E1,4.794E3,5.75E2,1.22E2,2E0,9E0,5E0,1.4E1,3E0,1E1,5.1E1,1.1E1,5E0,1.9E1,1E0,2E0,4E0,5E0,6E0,1E0,8.5E1,1.3E1,4.78E3,1.4E1,7.6E1,4.99E2,9.6E1,2.6E1,1E0,1E0,1.2E1,2E0,2E0,8E0,4.9E1,2E0,8E0,3E0,2E0,3E0,1.5E1,4E0,1E0,3E0,3E0,2E0,7.5E1,1E1,2E0,1.1E1,9.36E2,3.844E3,1.1E1,3E0,2.4E1,5.2E1,1.44E2,3.55E2,9.1E1,5E0,6E0,2E1],"tree_param":{"num_deleted":"0","num_feature":"161","num_nodes":"87","size_leaf_vector":"1"}},{"base_weights":[-5.0647777E-5,7.5306785E-3,-1.1832933E-4,1.2650521E-3,2.3999473E-2,-8.59642E-3,-6.755042E-5,5.5743842E-3,-1.8615473E-2,-3.0487566E-3,2.8761575E-2,1.6414619E-3,-1.7787952E-2,-1.6856148E-4,5.3488463E-3,-7.5438025E-4,1.618519E-2,-4.998792E-4,-2.5761736E-4,-5.3719756E-5,7.988409E-6,3.1301133E-2,4.1321887E-6,-1.02427285E-2,7.4467687E-3,-2.9137526E-2,-5.794541E-3,5.045206E-3,-2.6275543E-4,-1.4879709E-2,7.1895565E-3,-3.1660127E-3,1.0286561E-4,2.2854395E-3,2.0564502E-2,2.572338E-5,-3.3221568E-5,3.2567905E-4,9.316698E-5,9.96849E-6,-1.2690014E-4,3.0106334E-3,1.556638E-4,-3.1110336E-4,-6.6775276E-5,6.011399E-3,-1.1713001E-2,6.6202674E-3,-2.5890005E-4,-2.1438608E-4,-7.1815676E-3,1.6350698E-4,-2.6138496E-4,1.458508E-2,3.770821E-3,7.3873336E-5,-5.769171E-5,3.2284486E-5,-2.7179394E-6,4.40441E-5,2.2033963E-4,6.075789E-5,-6.5664944E-6,7.76384E-5,3.7703828E-6,-1.3862895E-4,5.9318504E-6,7.524827E-5,-1.5839662E-4,-1.362139E-8,-1.6224278E-5,2.6949701E-5,-1.3055172E-4,2.0129087E-4,-5.8750184E-6,1.6820776E-4,1.1862542E-5],"categories":[],"categories_nodes":[],"categories_segments":[],"categories_sizes":[],"default_left":[0,0,0,0,0,0,0,0,0,0,0,0,0,0,0,0,0,0,0,0,0,0,0,0,0,0,0,0,0,0,0,0,0,0,0,0,0,0,0,0,0,0,0,0,0,0,0,0,0,0,0,0,0,0,0,0,0,0,0,0,0,0,0,0,0,0,0,0,0,0,0,0,0,0,0,0,0],"id":12,"left_children":[1,3,5,7,9,11,13,15,17,19,21,23,25,27,29,31,33,35,-1,-1,-1,37,-1,39,41,43,45,47,49,51,53,55,-1,57,59,-1,-1,-1,-1,-1,-1,61,-1,-1,-1,63,65,67,-1,69,71,-1,-1,73,75,-1,-1,-1,-1,-1,-1,-1,-1,-1,-1,-1,-1,-1,-1,-1,-1,-1,-1,-1,-1,-1,-1],"loss_changes":[2.9574651E-3,5.2321926E-3,2.458482E-3,3.3592978E-3,1.8909769E-3,3.2286604E-3,3.1079736E-3,2.1611152E-3,8.933339E-4,3.110779E-5,8.5097365E-4,1.2491285E-3,2.281323E-3,2.739729E-3,3.9794086E-3,5.9172796E-4,6.8345736E-4,3.455766E-5,0E0,0E0,0E0,2.9169023E-6,0E0,1.7768878E-4,3.8537174E-4,1.9104313E-4,7.6914125E-4,4.9951603E-3,1.8317194E-3,3.591931E-3,2.3722025E-3,5.371153E-4,0E0,1.0523454E-5,1.1667283E-4,0E0,0E0,0E0,0E0,0E0,0E0,1.0515681E-4,0E0,0E0,0E0,3.656828E-5,1.9342237E-4,2.049243E-3,0E0,1.6320071E-3,2.2395966E-3,0E0,0E0,2.5353325E-3,2.2398545E-3,0E0,0E0,0E0,0E0,0E0,0E0,0E0,0E0,0E0,0E0,0E0,0E0,0E0,0E0,0E0,0E0,0E0,0E0,0E0,0E0,0E0,0E0],"parents":[2147483647,0,0,1,1,2,2,3,3,4,4,5,5,6,6,7,7,8,8,9,9,10,10,11,11,12,12,13,13,14,14,15,15,16,16,17,17,21,21,23,23,24,24,25,25,26,26,27,27,28,28,29,29,30,30,31,31,33,33,34,34,41,41,45,45,46,46,47,47,49,49,50,50,53,53,54,54],"right_children":[2,4,6,8,10,12,14,16,18,20,22,24,26,28,30,32,34,36,-1,-1,-1,38,-1,40,42,44,46,48,50,52,54,56,-1,58,60,-1,-1,-1,-1,-1,-1,62,-1,-1,-1,64,66,68,-1,70,72,-1,-1,74,76,-1,-1,-1,-1,-1,-1,-1,-1,-1,-1,-1,-1,-1,-1,-1,-1,-1,-1,-1,-1,-1,-1],"split_conditions":[-1.5364083E0,6.4377415E-1,-2.5670795E0,2.095304E0,1.8140839E0,-1.494804E0,3.4692416E0,-5.064228E-1,-1.1188811E-1,1E0,1E0,9.6065205E-1,-5.918714E-1,-1.9876235E0,-7.9772186E-1,8.3581096E-1,-1.0964458E0,1E0,-2.5761736E-4,-5.3719756E-5,7.988409E-6,1E0,4.1321887E-6,7.1730673E-1,7.4831265E-1,5.143512E0,1.8399812E-1,2.0018768E0,3.2479234E0,-1.4501774E0,-1.22783124E-1,3.3627906E0,1.0286561E-4,0E0,-3.846154E-1,2.572338E-5,-3.3221568E-5,3.2567905E-4,9.316698E-5,9.96849E-6,-1.2690014E-4,6.4532983E-1,1.556638E-4,-3.1110336E-4,-6.6775276E-5,-7.4016035E-1,-1.5532936E0,8.8621216E1,-2.5890005E-4,5.9084506E0,-5.039638E-1,1.6350698E-4,-2.6138496E-4,5.143512E0,-1.9534884E-1,7.3873336E-5,-5.769171E-5,3.2284486E-5,-2.7179394E-6,4.40441E-5,2.2033963E-4,6.075789E-5,-6.5664944E-6,7.76384E-5,3.7703828E-6,-1.3862895E-4,5.9318504E-6,7.524827E-5,-1.5839662E-4,-1.362139E-8,-1.6224278E-5,2.6949701E-5,-1.3055172E-4,2.0129087E-4,-5.8750184E-6,1.6820776E-4,1.1862542E-5],"split_indices":[57,131,16,156,85,57,85,100,71,4,6,78,72,155,107,135,120,4,0,0,0,7,0,19,100,19,89,101,154,57,125,11,0,5,14,0,0,0,0,0,0,100,0,0,0,9,22,52,0,12,104,0,0,19,11,0,0,0,0,0,0,0,0,0,0,0,0,0,0,0,0,0,0,0,0,0,0],"split_type":[0,0,0,0,0,0,0,0,0,0,0,0,0,0,0,0,0,0,0,0,0,0,0,0,0,0,0,0,0,0,0,0,0,0,0,0,0,0,0,0,0,0,0,0,0,0,0,0,0,0,0,0,0,0,0,0,0,0,0,0,0,0,0,0,0,0,0,0,0,0,0,0,0,0,0,0,0],"sum_hessian":[5.761E3,5E1,5.711E3,3.7E1,1.3E1,3.3E1,5.678E3,3.1E1,6E0,2E0,1.1E1,1.6E1,1.7E1,5.575E3,1.03E2,2E1,1.1E1,2E0,4E0,1E0,1E0,1E1,1E0,5E0,1.1E1,8E0,9E0,9.8E1,5.477E3,8E0,9.5E1,1.7E1,3E0,3E0,8E0,1E0,1E0,9E0,1E0,1E0,4E0,8E0,3E0,7E0,1E0,3E0,6E0,9.4E1,4E0,5.44E3,3.7E1,2E0,6E0,2.9E1,6.6E1,3E0,1.4E1,2E0,1E0,1E0,7E0,4E0,4E0,2E0,1E0,5E0,1E0,9.1E1,3E0,4.726E3,7.14E2,1.4E1,2.3E1,2.1E1,8E0,1E1,5.6E1],"tree_param":{"num_deleted":"0","num_feature":"161","num_nodes":"77","size_leaf_vector":"1"}},{"base_weights":[9.913959E-5,5.7766642E-3,-3.4276647E-5,-5.1971297E-3,8.647994E-3,1.0704262E-4,-2.9352512E-3,9.341241E-3,-1.6684735E-2,5.082264E-3,1.6623493E-2,8.32041E-3,5.1474657E-5,-1.18912505E-2,-1.7206571E-3,1.7677518E-2,-1.38347605E-2,-2.0106168E-2,1.7318384E-4,-4.166809E-3,8.58501E-3,2.0105777E-2,-6.2019965E-3,1.2433307E-2,-1.0494926E-2,-1.6604718E-2,8.909191E-5,-1.4087121E-2,1.3299243E-2,-7.791136E-4,-9.44781E-3,2.0869369E-2,-5.5245713E-5,1.4623762E-5,-1.9421264E-4,-2.7772138E-4,-3.978524E-3,1.7566567E-2,-1.0313872E-2,1.2247634E-2,5.7933736E-4,2.4590285E-2,7.906231E-3,-1.5617553E-4,5.2808933E-5,-4.8628794E-3,1.608706E-2,1.2382733E-3,-1.54358605E-2,-2.0688869E-2,2.5440278E-3,2.9141952E-3,-3.6436384E-5,-5.129368E-3,-2.1044709E-2,1.7206167E-4,2.7426964E-5,-1.8470635E-3,3.8686467E-3,-2.2633811E-3,-1.5905486E-2,2.6164376E-4,1.5578942E-5,-1.6400492E-4,6.332584E-5,2.3610983E-4,-3.3055458E-5,4.0896128E-5,-1.8542101E-4,1.3719941E-4,-9.0118396E-5,-5.6518693E-5,7.4385294E-5,2.6391074E-4,-4.8123755E-5,1.421222E-4,-9.4431525E-5,-1.015979E-4,1.0810839E-4,6.825522E-5,2.2876445E-4,-1.0965924E-5,2.9540024E-5,-6.304982E-5,-1.9421452E-4,9.918648E-6,-2.3208046E-4,3.2258224E-5,5.9021913E-6,-1.7657905E-4,3.3644035E-5,-9.146023E-7,5.7418267E-5,2.8644525E-5,-9.8886514E-5,-2.6944178E-4,-6.7215624E-5,-1.7711255E-6,-5.305196E-5,3.94575E-6,1.9693749E-4,8.032175E-5,-7.731647E-5,-1.9431883E-4,2.326472E-5],"categories":[],"categories_nodes":[],"categories_segments":[],"categories_sizes":[],"default_left":[0,0,0,0,0,0,0,0,0,0,0,0,0,0,0,0,0,0,0,0,0,0,0,0,0,0,0,0,0,0,0,0,0,0,0,0,0,0,0,0,0,0,0,0,0,0,0,0,0,0,0,0,0,0,0,0,0,0,0,0,0,0,0,0,0,0,0,0,0,0,0,0,0,0,0,0,0,0,0,0,0,0,0,0,0,0,0,0,0,0,0,0,0,0,0,0,0,0,0,0,0,0,0,0,0],"id":13,"left_children":[1,3,5,7,9,11,13,15,17,19,21,23,25,27,29,31,33,35,-1,37,39,41,43,45,47,49,51,53,55,57,59,61,-1,-1,-1,-1,63,65,67,69,71,73,75,-1,-1,77,79,81,83,85,87,89,91,93,95,-1,-1,97,99,101,103,-1,-1,-1,-1,-1,-1,-1,-1,-1,-1,-1,-1,-1,-1,-1,-1,-1,-1,-1,-1,-1,-1,-1,-1,-1,-1,-1,-1,-1,-1,-1,-1,-1,-1,-1,-1,-1,-1,-1,-1,-1,-1,-1,-1],"loss_changes":[4.3549165E-3,4.204182E-3,2.3034897E-3,4.8321662E-3,2.901554E-3,2.4449632E-3,2.8186722E-3,2.7561844E-3,2.2096368E-3,2.4331613E-3,2.6682103E-3,2.9163668E-3,3.3366592E-3,1.9021141E-3,1.673268E-3,8.558701E-4,3.7023128E-4,1.7440184E-3,0E0,2.9867045E-3,1.5762807E-3,1.3374351E-3,6.2306365E-4,1.9741086E-3,4.2492466E-4,9.911098E-4,1.8839028E-3,1.6994607E-3,7.653958E-5,1.0346057E-3,1.1238677E-3,8.7952893E-4,0E0,0E0,0E0,0E0,8.72363E-4,7.088458E-4,2.0905882E-3,1.2817597E-3,8.1138033E-4,1.1859639E-3,1.1188532E-3,0E0,0E0,6.079696E-4,1.4158608E-3,1.5257328E-5,5.9507904E-5,5.69195E-4,2.0923471E-6,2.1525612E-3,1.6178974E-3,5.6095363E-4,1.1708764E-3,0E0,0E0,9.7502046E-4,2.1363534E-3,7.9398695E-4,8.8101905E-4,0E0,0E0,0E0,0E0,0E0,0E0,0E0,0E0,0E0,0E0,0E0,0E0,0E0,0E0,0E0,0E0,0E0,0E0,0E0,0E0,0E0,0E0,0E0,0E0,0E0,0E0,0E0,0E0,0E0,0E0,0E0,0E0,0E0,0E0,0E0,0E0,0E0,0E0,0E0,0E0,0E0,0E0,0E0,0E0],"parents":[2147483647,0,0,1,1,2,2,3,3,4,4,5,5,6,6,7,7,8,8,9,9,10,10,11,11,12,12,13,13,14,14,15,15,16,16,17,17,19,19,20,20,21,21,22,22,23,23,24,24,25,25,26,26,27,27,28,28,29,29,30,30,31,31,36,36,37,37,38,38,39,39,40,40,41,41,42,42,45,45,46,46,47,47,48,48,49,49,50,50,51,51,52,52,53,53,54,54,57,57,58,58,59,59,60,60],"right_children":[2,4,6,8,10,12,14,16,18,20,22,24,26,28,30,32,34,36,-1,38,40,42,44,46,48,50,52,54,56,58,60,62,-1,-1,-1,-1,64,66,68,70,72,74,76,-1,-1,78,80,82,84,86,88,90,92,94,96,-1,-1,98,100,102,104,-1,-1,-1,-1,-1,-1,-1,-1,-1,-1,-1,-1,-1,-1,-1,-1,-1,-1,-1,-1,-1,-1,-1,-1,-1,-1,-1,-1,-1,-1,-1,-1,-1,-1,-1,-1,-1,-1,-1,-1,-1,-1,-1,-1],"split_conditions":[-2.0982122E0,-1.0397121E0,1.7036724E0,-1.2208502E0,3.0644479E0,-1.5691651E0,-8.7372434E-1,-2.3744166E0,1.5136861E1,-6.5658915E-1,7.3463833E-1,5.0193423E-1,-2.4219513E0,9.55189E-1,1.4523114E0,2.7559055E-2,-2.5066233E0,-4.9302912E-1,1.7318384E-4,-3.5475295E0,-5.906235E-1,2.4151964E1,1E0,-1.8473E0,3.2460374E-1,9.4700044E-1,-1.6940358E0,3.345817E-1,1E0,7.2421527E-1,2.385883E0,2.8073E-1,-5.5245713E-5,1.4623762E-5,-1.9421264E-4,-2.7772138E-4,-4.6708643E-1,1.4285715E-1,-3.856041E-1,7.9633206E-1,-6.156317E-1,7.218964E-1,7.4418604E-2,-1.5617553E-4,5.2808933E-5,1E0,-4.9934807E-1,-6.4322746E-1,0E0,7.1730673E-1,-7.5325656E-1,-5.497382E-1,7.788844E0,-7.739938E-3,1.751886E-1,1.7206167E-4,2.7426964E-5,2.2639541E-1,-2.0023227E-1,6.478274E-1,6.026142E-1,2.6164376E-4,1.5578942E-5,-1.6400492E-4,6.332584E-5,2.3610983E-4,-3.3055458E-5,4.0896128E-5,-1.8542101E-4,1.3719941E-4,-9.0118396E-5,-5.6518693E-5,7.4385294E-5,2.6391074E-4,-4.8123755E-5,1.421222E-4,-9.4431525E-5,-1.015979E-4,1.0810839E-4,6.825522E-5,2.2876445E-4,-1.0965924E-5,2.9540024E-5,-6.304982E-5,-1.9421452E-4,9.918648E-6,-2.3208046E-4,3.2258224E-5,5.9021913E-6,-1.7657905E-4,3.3644035E-5,-9.146023E-7,5.7418267E-5,2.8644525E-5,-9.8886514E-5,-2.6944178E-4,-6.7215624E-5,-1.7711255E-6,-5.305196E-5,3.94575E-6,1.9693749E-4,8.032175E-5,-7.731647E-5,-1.9431883E-4,2.326472E-5],"split_indices":[157,109,50,109,19,58,72,157,19,124,144,80,16,76,76,25,154,89,0,157,64,52,8,118,29,50,50,123,7,34,50,63,0,0,0,0,32,13,44,75,86,56,11,0,0,4,41,9,5,19,9,10,93,28,47,0,0,54,40,19,89,0,0,0,0,0,0,0,0,0,0,0,0,0,0,0,0,0,0,0,0,0,0,0,0,0,0,0,0,0,0,0,0,0,0,0,0,0,0,0,0,0,0,0,0],"split_type":[0,0,0,0,0,0,0,0,0,0,0,0,0,0,0,0,0,0,0,0,0,0,0,0,0,0,0,0,0,0,0,0,0,0,0,0,0,0,0,0,0,0,0,0,0,0,0,0,0,0,0,0,0,0,0,0,0,0,0,0,0,0,0,0,0,0,0,0,0,0,0,0,0,0,0,0,0,0,0,0,0,0,0,0,0,0,0,0,0,0,0,0,0,0,0,0,0,0,0,0,0,0,0,0,0],"sum_hessian":[5.748E3,1.31E2,5.617E3,2.7E1,1.04E2,5.357E3,2.6E2,1.2E1,1.5E1,7.3E1,3.1E1,3.5E1,5.322E3,3E1,2.3E2,9E0,3E0,1.4E1,1E0,2E1,5.3E1,2.7E1,4E0,2.9E1,6E0,1.1E1,5.311E3,2.8E1,2E0,2.06E2,2.4E1,8E0,1E0,1E0,2E0,9E0,5E0,4E0,1.6E1,3.6E1,1.7E1,1.9E1,8E0,2E0,2E0,5E0,2.4E1,2E0,4E0,9E0,2E0,2.25E2,5.086E3,1.3E1,1.5E1,1E0,1E0,1.68E2,3.8E1,1.2E1,1.2E1,6E0,2E0,2E0,3E0,3E0,1E0,6E0,1E1,3.4E1,2E0,9E0,8E0,1.8E1,1E0,6E0,2E0,4E0,1E0,1.1E1,1.3E1,1E0,1E0,2E0,2E0,1E0,8E0,1E0,1E0,4E0,2.21E2,5.039E3,4.7E1,5E0,8E0,1E1,5E0,1.14E2,5.4E1,3.2E1,6E0,4E0,8E0,1E1,2E0],"tree_param":{"num_deleted":"0","num_feature":"161","num_nodes":"105","size_leaf_vector":"1"}},{"base_weights":[4.95906E-5,4.2091976E-3,-1.0024716E-4,6.3272496E-3,-1.5668191E-3,7.2175213E-3,-1.6339276E-4,8.565226E-3,-3.7650391E-4,7.433119E-4,-2.0556773E-4,-1.1462207E-2,1.3080743E-2,-1.6736858E-2,-1.3052093E-4,1.9565134E-3,1.1101645E-2,1.572883E-2,-2.7338616E-3,-7.2294697E-3,3.177416E-3,4.071497E-3,-2.7674492E-4,2.1541398E-2,6.3329604E-3,-2.9568785E-4,4.575212E-3,1.2475415E-4,-1.7157091E-3,-9.351634E-3,6.1155474E-3,-2.1771416E-3,1.2815536E-2,3.7748174E-5,1.7773628E-4,4.1862993E-4,-1.1537297E-2,-2.394188E-3,-2.093725E-4,1.0453562E-3,1.1308479E-2,-1.525935E-4,9.83653E-3,-6.562138E-5,2.3852443E-2,-4.7549494E-3,1.3008549E-2,-1.3678335E-4,1.2558183E-2,1.2932743E-2,9.5204145E-5,-2.53083E-4,-1.5904339E-3,-1.2214373E-4,-2.7196182E-5,1.2702431E-4,-4.350795E-6,1.5624375E-5,-6.2292085E-5,2.0453776E-5,1.4547605E-4,6.7609166E-5,-5.500538E-5,-1.2955237E-4,-9.688727E-7,-6.1617524E-5,4.7975973E-5,-2.9600254E-5,4.3250988E-5,1.3167897E-5,1.7040133E-4,4.911119E-5,1.7231792E-4,2.6041933E-4,-3.400219E-5,2.930836E-5,-1.1489745E-4,1.9137916E-4,-1.8518993E-5,3.1652937E-5,1.4634048E-4,1.7284093E-4,-4.4322198E-5,5.1322183E-7,5.419358E-5,-7.5982956E-7,-3.1733372E-5],"categories":[],"categories_nodes":[],"categories_segments":[],"categories_sizes":[],"default_left":[0,0,0,0,0,0,0,0,0,0,0,0,0,0,0,0,0,0,0,0,0,0,0,0,0,0,0,0,0,0,0,0,0,0,0,0,0,0,0,0,0,0,0,0,0,0,0,0,0,0,0,0,0,0,0,0,0,0,0,0,0,0,0,0,0,0,0,0,0,0,0,0,0,0,0,0,0,0,0,0,0,0,0,0,0,0,0],"id":14,"left_children":[1,3,5,7,9,11,13,15,17,19,-1,21,23,25,27,29,31,33,35,37,39,41,-1,43,45,-1,47,49,51,53,55,57,59,-1,-1,61,63,65,-1,67,69,-1,71,-1,73,75,77,-1,79,81,83,-1,85,-1,-1,-1,-1,-1,-1,-1,-1,-1,-1,-1,-1,-1,-1,-1,-1,-1,-1,-1,-1,-1,-1,-1,-1,-1,-1,-1,-1,-1,-1,-1,-1,-1,-1],"loss_changes":[3.6209754E-3,2.4811623E-3,2.5925508E-3,2.2236458E-3,2.4280907E-3,5.407057E-3,3.0274487E-3,1.8389132E-3,1.4857098E-3,9.933001E-4,0E0,3.1347186E-3,1.9759336E-3,3.1435075E-3,2.2464765E-3,1.5621815E-3,1.8485719E-3,5.512545E-5,9.484235E-4,7.452442E-4,6.642792E-4,9.3019975E-4,0E0,1.1956999E-3,1.690258E-3,0E0,9.0036273E-4,1.8086418E-3,2.235535E-3,1.3765303E-4,1.0410838E-3,1.61263E-4,1.2947265E-3,0E0,0E0,1.0132564E-3,1.4474115E-4,3.0051678E-4,0E0,4.3317434E-4,4.357132E-4,0E0,1.3392081E-4,0E0,9.835893E-4,4.9953436E-4,1.3106337E-3,0E0,3.1672418E-5,9.077779E-4,1.1146249E-3,0E0,1.838434E-3,0E0,0E0,0E0,0E0,0E0,0E0,0E0,0E0,0E0,0E0,0E0,0E0,0E0,0E0,0E0,0E0,0E0,0E0,0E0,0E0,0E0,0E0,0E0,0E0,0E0,0E0,0E0,0E0,0E0,0E0,0E0,0E0,0E0,0E0],"parents":[2147483647,0,0,1,1,2,2,3,3,4,4,5,5,6,6,7,7,8,8,9,9,11,11,12,12,13,13,14,14,15,15,16,16,17,17,18,18,19,19,20,20,21,21,23,23,24,24,26,26,27,27,28,28,29,29,30,30,31,31,32,32,35,35,36,36,37,37,39,39,40,40,42,42,44,44,45,45,46,46,48,48,49,49,50,50,52,52],"right_children":[2,4,6,8,10,12,14,16,18,20,-1,22,24,26,28,30,32,34,36,38,40,42,-1,44,46,-1,48,50,52,54,56,58,60,-1,-1,62,64,66,-1,68,70,-1,72,-1,74,76,78,-1,80,82,84,-1,86,-1,-1,-1,-1,-1,-1,-1,-1,-1,-1,-1,-1,-1,-1,-1,-1,-1,-1,-1,-1,-1,-1,-1,-1,-1,-1,-1,-1,-1,-1,-1,-1,-1,-1],"split_conditions":[-1.5237026E0,5.3107285E-1,-2.6301777E0,-9.4309926E-1,5.1627487E-1,-1.1244178E0,-1.9772893E0,-3.3281076E-1,-1.056338E-1,-2.1156092E0,-2.0556773E-4,-1.2065637E-1,2.442085E-1,-4.047187E-1,5.9084506E0,-1.9782966E-2,-2.0840716E0,-2.0930232E-1,1.4571428E0,4.1815814E-1,4.4048616E-1,0E0,-2.7674492E-4,-3.2046333E-1,2.3524334E0,-2.9568785E-4,4.461657E0,-2.6731968E0,-2.9477391E0,-4.2210415E-1,4.0830114E-1,4.6174583E-1,-6.148896E-1,3.7748174E-5,1.7773628E-4,-2.3995917E-1,7.399103E-1,-1.9326732E0,-2.093725E-4,-4.5759544E-1,2.9820627E-1,-1.525935E-4,-2.2857143E-1,-6.562138E-5,1E0,-1.1369631E-2,1.6870877E0,-1.3678335E-4,-7.467816E-1,-6.238698E-1,2.025615E0,-2.53083E-4,5.950833E-1,-1.2214373E-4,-2.7196182E-5,1.2702431E-4,-4.350795E-6,1.5624375E-5,-6.2292085E-5,2.0453776E-5,1.4547605E-4,6.7609166E-5,-5.500538E-5,-1.2955237E-4,-9.688727E-7,-6.1617524E-5,4.7975973E-5,-2.9600254E-5,4.3250988E-5,1.3167897E-5,1.7040133E-4,4.911119E-5,1.7231792E-4,2.6041933E-4,-3.400219E-5,2.930836E-5,-1.1489745E-4,1.9137916E-4,-1.8518993E-5,3.1652937E-5,1.4634048E-4,1.7284093E-4,-4.4322198E-5,5.1322183E-7,5.419358E-5,-7.5982956E-7,-3.1733372E-5],"split_indices":[73,59,155,132,31,35,22,131,12,76,0,75,75,60,12,61,48,11,13,131,47,5,0,75,85,0,19,159,159,102,75,40,40,0,0,66,34,73,0,142,34,0,13,0,0,111,27,0,9,31,122,0,144,0,0,0,0,0,0,0,0,0,0,0,0,0,0,0,0,0,0,0,0,0,0,0,0,0,0,0,0,0,0,0,0,0,0],"split_type":[0,0,0,0,0,0,0,0,0,0,0,0,0,0,0,0,0,0,0,0,0,0,0,0,0,0,0,0,0,0,0,0,0,0,0,0,0,0,0,0,0,0,0,0,0,0,0,0,0,0,0,0,0,0,0,0,0,0,0,0,0,0,0,0,0,0,0,0,0,0,0,0,0,0,0,0,0,0,0,0,0,0,0,0,0,0,0],"sum_hessian":[5.808E3,2.01E2,5.607E3,1.47E2,5.4E1,4.7E1,5.56E3,1.1E2,3.7E1,4.9E1,5E0,1.1E1,3.6E1,1E1,5.55E3,3.1E1,7.9E1,4E0,3.3E1,1.1E1,3.8E1,6E0,5E0,1.5E1,2.1E1,6E0,4E0,4.781E3,7.69E2,8E0,2.3E1,9E0,7E1,1E0,3E0,2.5E1,8E0,9E0,2E0,3.1E1,7E0,1E0,5E0,1E0,1.4E1,8E0,1.3E1,1E0,3E0,1E1,4.771E3,3E0,7.66E2,5E0,3E0,1.1E1,1.2E1,5E0,4E0,1E1,6E1,1.2E1,1.3E1,7E0,1E0,6E0,3E0,1.4E1,1.7E1,3E0,4E0,4E0,1E0,1.3E1,1E0,4E0,4E0,9E0,4E0,1E0,2E0,8E0,2E0,4.733E3,3.8E1,3.92E2,3.74E2],"tree_param":{"num_deleted":"0","num_feature":"161","num_nodes":"87","size_leaf_vector":"1"}},{"base_weights":[-5.6370955E-5,3.1999229E-3,-1.6341075E-4,6.7654657E-3,-2.8406987E-3,5.7477523E-3,-2.5778805E-4,5.688369E-4,1.0407742E-2,2.6103195E-3,-1.1956241E-2,-8.072417E-3,8.250881E-3,-2.0182555E-5,-1.8334597E-3,6.1146403E-3,-9.518484E-3,3.303369E-3,1.4267537E-2,-2.8485076E-3,1.7404567E-2,7.0846737E-3,-2.0812463E-2,-1.8829403E-2,5.374483E-3,-4.6433946E-3,1.2110296E-2,-1.4561361E-2,1.6341997E-5,-1.5449794E-3,-8.673867E-3,2.2807627E-4,1.3342097E-2,-2.3162473E-2,-1.210991E-3,1.1917285E-2,-9.507683E-4,1.8023595E-2,4.1265725E-3,6.1440305E-3,-1.1673486E-2,1.136973E-4,2.603579E-4,1.8477477E-2,-1.17756985E-2,-3.8400192E-3,-2.395095E-2,-2.3451787E-4,-3.3081686E-3,-2.025876E-3,1.1431221E-2,6.6951866E-4,-2.340597E-4,1.4017909E-2,-1.0913986E-2,-2.4531351E-2,1.1511459E-2,3.084648E-3,-9.752446E-5,-2.2164097E-3,1.8197027E-3,-1.5244805E-2,-2.3821807E-3,-1.3641243E-4,4.1744475E-5,1.7826774E-4,2.6012583E-5,-2.5679963E-4,-5.2875082E-5,-6.540089E-5,6.491945E-5,4.801464E-5,1.6649648E-4,6.149244E-5,-9.522921E-5,1.05557076E-4,2.1136248E-4,-2.3153445E-5,1.3101686E-4,1.2202461E-4,-1.0836697E-4,8.330314E-6,-1.8570953E-4,2.5981142E-5,-4.911985E-5,2.4784703E-4,-6.529327E-5,-1.4979698E-4,-1.0818499E-5,-4.9231567E-5,-2.9530308E-6,-2.6437646E-4,-5.1916188E-5,1.3214014E-6,-5.094393E-5,5.8701144E-6,-3.092509E-5,2.9389757E-5,1.328231E-4,-6.1581835E-5,1.1937437E-4,1.560732E-4,-9.7515636E-5,-1.3586393E-4,-1.1217858E-6,-4.3021795E-5,-2.6522225E-4,3.3115724E-5,1.805556E-4,1.2384867E-4,1.7000513E-5,9.6872405E-8,-2.8460423E-5,-1.8054406E-4,-1.9628924E-5,3.0299221E-5,-1.7457994E-4,-2.6943346E-5,-1.7112022E-4,4.212005E-6,-1.4670566E-4],"categories":[],"categories_nodes":[],"categories_segments":[],"categories_sizes":[],"default_left":[0,0,0,0,0,0,0,0,0,0,0,0,0,0,0,0,0,0,0,0,0,0,0,0,0,0,0,0,0,0,0,0,0,0,0,0,0,0,0,0,0,0,0,0,0,0,0,0,0,0,0,0,0,0,0,0,0,0,0,0,0,0,0,0,0,0,0,0,0,0,0,0,0,0,0,0,0,0,0,0,0,0,0,0,0,0,0,0,0,0,0,0,0,0,0,0,0,0,0,0,0,0,0,0,0,0,0,0,0,0,0,0,0,0,0,0,0,0,0,0,0],"id":15,"left_children":[1,3,5,7,9,11,13,15,17,19,21,23,25,27,29,31,33,35,37,39,41,43,45,47,49,51,53,55,57,59,61,63,65,67,69,71,73,75,77,79,81,83,-1,85,87,89,91,-1,93,95,97,99,-1,101,103,105,107,109,111,113,115,117,119,-1,-1,-1,-1,-1,-1,-1,-1,-1,-1,-1,-1,-1,-1,-1,-1,-1,-1,-1,-1,-1,-1,-1,-1,-1,-1,-1,-1,-1,-1,-1,-1,-1,-1,-1,-1,-1,-1,-1,-1,-1,-1,-1,-1,-1,-1,-1,-1,-1,-1,-1,-1,-1,-1,-1,-1,-1,-1],"loss_changes":[2.0151592E-3,3.9822278E-3,3.1239344E-3,2.61218E-3,3.45975E-3,3.1108463E-3,2.062842E-3,2.519663E-3,1.9546328E-3,3.6029834E-3,4.5318436E-3,2.1262718E-3,3.7885597E-3,2.543724E-3,1.4113379E-3,1.2307587E-3,1.785508E-3,1.0007396E-3,1.7158557E-3,2.6905679E-3,1.7879363E-3,2.1514378E-3,8.66849E-4,4.963784E-4,3.369125E-4,1.8099819E-3,2.7004331E-3,3.4017412E-3,1.6696247E-3,1.571883E-3,1.1626102E-3,9.87414E-4,5.7982723E-4,1.3421732E-4,4.9400463E-4,2.2312917E-4,1.2149443E-3,5.672211E-4,8.3977194E-4,1.8811361E-3,1.4819459E-3,7.5191354E-5,0E0,1.1081686E-3,1.2084661E-4,1.3903835E-5,5.624769E-4,0E0,1.9108666E-5,1.29633045E-5,2.3843197E-5,1.2275229E-3,0E0,2.1922868E-3,1.4281005E-4,2.4835998E-4,1.5485124E-4,2.180921E-3,1.3578822E-3,2.2893653E-3,2.7592052E-3,2.8197677E-4,5.5736373E-4,0E0,0E0,0E0,0E0,0E0,0E0,0E0,0E0,0E0,0E0,0E0,0E0,0E0,0E0,0E0,0E0,0E0,0E0,0E0,0E0,0E0,0E0,0E0,0E0,0E0,0E0,0E0,0E0,0E0,0E0,0E0,0E0,0E0,0E0,0E0,0E0,0E0,0E0,0E0,0E0,0E0,0E0,0E0,0E0,0E0,0E0,0E0,0E0,0E0,0E0,0E0,0E0,0E0,0E0,0E0,0E0,0E0,0E0],"parents":[2147483647,0,0,1,1,2,2,3,3,4,4,5,5,6,6,7,7,8,8,9,9,10,10,11,11,12,12,13,13,14,14,15,15,16,16,17,17,18,18,19,19,20,20,21,21,22,22,23,23,24,24,25,25,26,26,27,27,28,28,29,29,30,30,31,31,32,32,33,33,34,34,35,35,36,36,37,37,38,38,39,39,40,40,41,41,43,43,44,44,45,45,46,46,48,48,49,49,50,50,51,51,53,53,54,54,55,55,56,56,57,57,58,58,59,59,60,60,61,61,62,62],"right_children":[2,4,6,8,10,12,14,16,18,20,22,24,26,28,30,32,34,36,38,40,42,44,46,48,50,52,54,56,58,60,62,64,66,68,70,72,74,76,78,80,82,84,-1,86,88,90,92,-1,94,96,98,100,-1,102,104,106,108,110,112,114,116,118,120,-1,-1,-1,-1,-1,-1,-1,-1,-1,-1,-1,-1,-1,-1,-1,-1,-1,-1,-1,-1,-1,-1,-1,-1,-1,-1,-1,-1,-1,-1,-1,-1,-1,-1,-1,-1,-1,-1,-1,-1,-1,-1,-1,-1,-1,-1,-1,-1,-1,-1,-1,-1,-1,-1,-1,-1,-1,-1],"split_conditions":[-1.9198213E0,1.7526366E0,-1.4756336E0,-2.5281805E-1,1.8690914E0,-2.3551826E-1,5.9084506E0,-4.7885457E-1,-1.05041E0,1.3489074E0,-3.3869464E0,-5.090822E-1,-2.123109E-1,-1.7314774E0,8.92317E-1,5.7047653E-1,-3.0769232E-1,-1.0082203E0,5.71205E-1,2.2713329E-1,-3.2977667E-1,-7.806554E-1,-2.2632097E-1,-6.681154E-1,-6.6433564E-2,9.9269253E-1,2.3660345E0,2.3434358E0,-1.0397038E0,9.080596E-1,-1.1455108E-1,-1.8675543E0,-7.074202E-1,0E0,-1.416684E0,-2.6301777E0,3.0006653E-1,5.689351E-1,8.4368366E-1,2.7041742E-1,4.1523212E-1,1E0,2.603579E-4,5.3983456E-1,0E0,1E0,1.2565413E0,-2.3451787E-4,0E0,1E0,-4.225352E-2,2.6672914E0,-2.340597E-4,2.9192902E-2,-2.1940873E0,5.3330433E-1,-7.6617575E-1,-1.1005112E0,1.7036724E0,-5.900207E-1,1.6825206E0,-6.1538464E-1,1.6480851E0,-1.3641243E-4,4.1744475E-5,1.7826774E-4,2.6012583E-5,-2.5679963E-4,-5.2875082E-5,-6.540089E-5,6.491945E-5,4.801464E-5,1.6649648E-4,6.149244E-5,-9.522921E-5,1.05557076E-4,2.1136248E-4,-2.3153445E-5,1.3101686E-4,1.2202461E-4,-1.0836697E-4,8.330314E-6,-1.8570953E-4,2.5981142E-5,-4.911985E-5,2.4784703E-4,-6.529327E-5,-1.4979698E-4,-1.0818499E-5,-4.9231567E-5,-2.9530308E-6,-2.6437646E-4,-5.1916188E-5,1.3214014E-6,-5.094393E-5,5.8701144E-6,-3.092509E-5,2.9389757E-5,1.328231E-4,-6.1581835E-5,1.1937437E-4,1.560732E-4,-9.7515636E-5,-1.3586393E-4,-1.1217858E-6,-4.3021795E-5,-2.6522225E-4,3.3115724E-5,1.805556E-4,1.2384867E-4,1.7000513E-5,9.6872405E-8,-2.8460423E-5,-1.8054406E-4,-1.9628924E-5,3.0299221E-5,-1.7457994E-4,-2.6943346E-5,-1.7112022E-4,4.212005E-6,-1.4670566E-4],"split_indices":[155,91,58,63,49,135,12,108,66,49,155,36,54,16,60,160,14,130,54,148,143,37,125,69,62,78,159,49,58,91,28,159,110,5,66,155,35,158,131,60,54,2,0,24,3,2,66,0,3,4,12,156,0,32,16,24,9,79,50,129,107,14,131,0,0,0,0,0,0,0,0,0,0,0,0,0,0,0,0,0,0,0,0,0,0,0,0,0,0,0,0,0,0,0,0,0,0,0,0,0,0,0,0,0,0,0,0,0,0,0,0,0,0,0,0,0,0,0,0,0,0],"split_type":[0,0,0,0,0,0,0,0,0,0,0,0,0,0,0,0,0,0,0,0,0,0,0,0,0,0,0,0,0,0,0,0,0,0,0,0,0,0,0,0,0,0,0,0,0,0,0,0,0,0,0,0,0,0,0,0,0,0,0,0,0,0,0,0,0,0,0,0,0,0,0,0,0,0,0,0,0,0,0,0,0,0,0,0,0,0,0,0,0,0,0,0,0,0,0,0,0,0,0,0,0,0,0,0,0,0,0,0,0,0,0,0,0,0,0,0,0,0,0,0,0],"sum_hessian":[5.779E3,1.83E2,5.596E3,1.15E2,6.8E1,8.7E1,5.509E3,4.3E1,7.2E1,4.3E1,2.5E1,1.3E1,7.4E1,4.788E3,7.21E2,2.8E1,1.5E1,2.6E1,4.6E1,3.2E1,1.1E1,8E0,1.7E1,7E0,6E0,1.7E1,5.7E1,1.1E1,4.777E3,6.93E2,2.8E1,1.6E1,1.2E1,5E0,1E1,8E0,1.8E1,3.3E1,1.3E1,1.6E1,1.6E1,4E0,7E0,5E0,3E0,3E0,1.4E1,5E0,2E0,3E0,3E0,1.4E1,3E0,5.3E1,4E0,8E0,3E0,1.7E2,4.607E3,5.78E2,1.15E2,1.3E1,1.5E1,3E0,1.3E1,8E0,4E0,4E0,1E0,6E0,4E0,4E0,4E0,1E1,8E0,1.1E1,2.2E1,8E0,5E0,1.2E1,4E0,6E0,1E1,3E0,1E0,4E0,1E0,2E0,1E0,2E0,1E0,1.2E1,2E0,1E0,1E0,1E0,2E0,1E0,2E0,9E0,5E0,5E1,3E0,3E0,1E0,1E0,7E0,2E0,1E0,2.1E1,1.49E2,4.435E3,1.72E2,8E0,5.7E2,1.09E2,6E0,2E0,1.1E1,1.3E1,2E0],"tree_param":{"num_deleted":"0","num_feature":"161","num_nodes":"121","size_leaf_vector":"1"}},{"base_weights":[-9.823591E-5,3.2886607E-3,-2.2458142E-4,5.451953E-3,-3.306062E-3,-1.1645904E-4,-3.955095E-3,-5.0212974E-3,6.5936437E-3,-7.4575474E-3,3.177443E-3,1.0195886E-2,-1.5654846E-4,5.8559184E-3,-9.762112E-3,2.1588866E-4,-1.0364812E-2,7.90256E-3,-3.4956005E-3,1.560156E-4,-9.514873E-3,4.2125702E-4,1.4785919E-4,-1.0284533E-2,1.561978E-2,-7.7356673E-3,-1.0422999E-4,1.3613445E-3,2.5344845E-2,-1.4560022E-2,-2.0073783E-3,-1.937515E-4,-6.1460687E-3,-2.6746108E-3,9.576748E-3,6.7496593E-3,-9.6975295E-3,-5.195685E-3,-1.9015681E-2,-1.9517033E-3,6.9812946E-3,-1.445715E-4,3.2029704E-5,4.2504105E-3,2.3153298E-2,-2.9027867E-3,-1.6434617E-2,1.0747073E-2,-1.3667514E-4,-3.3565152E-3,1.3395745E-2,6.176215E-5,2.8918294E-4,4.564167E-3,-1.7532809E-2,-1.54686095E-2,1.4206602E-3,-1.2494884E-5,-7.8261E-5,4.4822766E-5,-1.03295286E-4,2.182228E-4,8.5224245E-5,9.629527E-5,2.1823767E-5,-1.21412966E-4,8.662809E-6,-1.255332E-4,8.63702E-6,-4.578723E-5,-2.2486421E-4,6.681723E-5,-3.1297917E-5,8.357318E-5,7.3860015E-6,-3.9967916E-5,9.9980905E-5,2.856748E-4,1.2025623E-4,-5.645285E-5,1.290665E-4,-5.772503E-5,-2.4748928E-4,1.7125867E-4,-6.711447E-5,-1.1931762E-6,-1.8661047E-4,1.1759625E-4,-8.095399E-5,1.8183935E-4,-1.0222264E-4,2.071141E-4,-2.0797738E-4,-2.0368186E-4,-1.4078318E-5,-7.7802535E-5,-2.1211903E-4,-2.1997428E-5,1.0917217E-4],"categories":[],"categories_nodes":[],"categories_segments":[],"categories_sizes":[],"default_left":[0,0,0,0,0,0,0,0,0,0,0,0,0,0,0,0,0,0,0,0,0,0,0,0,0,0,0,0,0,0,0,0,0,0,0,0,0,0,0,0,0,0,0,0,0,0,0,0,0,0,0,0,0,0,0,0,0,0,0,0,0,0,0,0,0,0,0,0,0,0,0,0,0,0,0,0,0,0,0,0,0,0,0,0,0,0,0,0,0,0,0,0,0,0,0,0,0,0,0],"id":16,"left_children":[1,3,5,7,9,11,13,15,17,19,21,23,25,27,29,-1,31,33,35,-1,37,39,-1,41,43,45,47,49,51,53,55,-1,57,59,61,63,65,67,69,71,73,-1,-1,75,77,79,81,83,85,87,89,-1,-1,91,93,95,97,-1,-1,-1,-1,-1,-1,-1,-1,-1,-1,-1,-1,-1,-1,-1,-1,-1,-1,-1,-1,-1,-1,-1,-1,-1,-1,-1,-1,-1,-1,-1,-1,-1,-1,-1,-1,-1,-1,-1,-1,-1,-1],"loss_changes":[2.4749672E-3,2.9854176E-3,2.2482271E-3,1.9103908E-3,1.423337E-3,2.2418972E-3,9.001883E-3,2.4988335E-3,1.9028732E-3,1.6665302E-3,6.6566886E-4,2.4933983E-3,2.1400477E-3,5.1335674E-3,3.6542173E-3,0E0,4.1309127E-4,2.2568451E-3,1.1456414E-3,0E0,1.1322736E-3,2.938262E-4,0E0,3.2769685E-4,1.3576616E-3,1.5078103E-3,1.8896314E-3,2.8270173E-3,5.748742E-4,3.5480037E-3,1.8216547E-3,0E0,8.071191E-5,1.0324367E-3,1.2212927E-3,7.1056915E-5,2.9448816E-4,9.916632E-4,3.4800358E-4,1.6330555E-4,3.677777E-5,0E0,0E0,4.1917845E-4,2.5893096E-4,1.1567955E-3,1.0095623E-3,1.8967683E-3,1.7173532E-3,2.6740101E-3,1.7691059E-3,0E0,0E0,4.116474E-3,2.3945048E-3,1.8821785E-4,1.1242188E-3,0E0,0E0,0E0,0E0,0E0,0E0,0E0,0E0,0E0,0E0,0E0,0E0,0E0,0E0,0E0,0E0,0E0,0E0,0E0,0E0,0E0,0E0,0E0,0E0,0E0,0E0,0E0,0E0,0E0,0E0,0E0,0E0,0E0,0E0,0E0,0E0,0E0,0E0,0E0,0E0,0E0,0E0],"parents":[2147483647,0,0,1,1,2,2,3,3,4,4,5,5,6,6,7,7,8,8,9,9,10,10,11,11,12,12,13,13,14,14,16,16,17,17,18,18,20,20,21,21,23,23,24,24,25,25,26,26,27,27,28,28,29,29,30,30,32,32,33,33,34,34,35,35,36,36,37,37,38,38,39,39,40,40,43,43,44,44,45,45,46,46,47,47,48,48,49,49,50,50,53,53,54,54,55,55,56,56],"right_children":[2,4,6,8,10,12,14,16,18,20,22,24,26,28,30,-1,32,34,36,-1,38,40,-1,42,44,46,48,50,52,54,56,-1,58,60,62,64,66,68,70,72,74,-1,-1,76,78,80,82,84,86,88,90,-1,-1,92,94,96,98,-1,-1,-1,-1,-1,-1,-1,-1,-1,-1,-1,-1,-1,-1,-1,-1,-1,-1,-1,-1,-1,-1,-1,-1,-1,-1,-1,-1,-1,-1,-1,-1,-1,-1,-1,-1,-1,-1,-1,-1,-1,-1],"split_conditions":[-1.5237026E0,-7.093228E-1,2.0818746E0,-1.1365101E0,-1.3251747E0,-3.2603269E0,-2.4353402E0,4.8663774E-1,1.0708792E0,-8.2016766E-1,-1.554996E0,-3.3281076E-1,-1.8616239E0,-3.6806884E-1,-2.1597096E-1,2.1588866E-4,-1.44665465E-2,-4.0190447E-2,9.9067595E-3,1.560156E-4,1.3344361E-1,2.0331904E-2,1.4785919E-4,0E0,9.674063E-1,7.817338E-2,-1.5532936E0,-3.5777625E-1,-2.7794895E0,-1.4501774E0,-7.4710196E-1,-1.937515E-4,2.5073855E0,-3.5012804E-2,-2.9477391E0,1.1020408E-1,7.720386E-1,-3.0430736E-2,-1.8764967E0,-6.1045945E-1,1E0,-1.445715E-4,3.2029704E-5,-2.8860323E0,1.3015808E-1,-5.353846E-1,-7.0614827E-1,4.9188456E-1,3.5117712E0,1.2288646E0,-4.8087955E-1,6.176215E-5,2.8918294E-4,-4.2734227E-1,1.114693E0,3.992016E-2,-1.965885E-1,-1.2494884E-5,-7.8261E-5,4.4822766E-5,-1.03295286E-4,2.182228E-4,8.5224245E-5,9.629527E-5,2.1823767E-5,-1.21412966E-4,8.662809E-6,-1.255332E-4,8.63702E-6,-4.578723E-5,-2.2486421E-4,6.681723E-5,-3.1297917E-5,8.357318E-5,7.3860015E-6,-3.9967916E-5,9.9980905E-5,2.856748E-4,1.2025623E-4,-5.645285E-5,1.290665E-4,-5.772503E-5,-2.4748928E-4,1.7125867E-4,-6.711447E-5,-1.1931762E-6,-1.8661047E-4,1.1759625E-4,-8.095399E-5,1.8183935E-4,-1.0222264E-4,2.071141E-4,-2.0797738E-4,-2.0368186E-4,-1.4078318E-5,-7.7802535E-5,-2.1211903E-4,-2.1997428E-5,1.0917217E-4],"split_indices":[73,64,160,124,159,154,67,20,125,59,73,131,16,36,60,0,31,135,62,0,154,122,0,3,91,28,22,59,48,57,39,0,143,55,159,15,142,131,130,56,4,0,0,50,16,106,31,59,154,156,36,0,0,36,159,70,59,0,0,0,0,0,0,0,0,0,0,0,0,0,0,0,0,0,0,0,0,0,0,0,0,0,0,0,0,0,0,0,0,0,0,0,0,0,0,0,0,0,0],"split_type":[0,0,0,0,0,0,0,0,0,0,0,0,0,0,0,0,0,0,0,0,0,0,0,0,0,0,0,0,0,0,0,0,0,0,0,0,0,0,0,0,0,0,0,0,0,0,0,0,0,0,0,0,0,0,0,0,0,0,0,0,0,0,0,0,0,0,0,0,0,0,0,0,0,0,0,0,0,0,0,0,0,0,0,0,0,0,0,0,0,0,0,0,0,0,0,0,0,0,0],"sum_hessian":[5.781E3,2.07E2,5.574E3,1.56E2,5.1E1,5.418E3,1.56E2,1.5E1,1.41E2,3.1E1,2E1,2E1,5.398E3,5.8E1,9.8E1,2E0,1.3E1,1.25E2,1.6E1,2E0,2.9E1,1.7E1,3E0,4E0,1.6E1,3.6E1,5.362E3,4.8E1,1E1,6E1,3.8E1,3E0,1E1,1.7E1,1.08E2,6E0,1E1,2.1E1,8E0,1.3E1,4E0,3E0,1E0,7E0,9E0,2.4E1,1.2E1,1.5E1,5.347E3,3.5E1,1.3E1,2E0,8E0,8E0,5.2E1,7E0,3.1E1,3E0,7E0,9E0,8E0,7E0,1.01E2,3E0,3E0,8E0,2E0,9E0,1.2E1,2E0,6E0,1E0,1.2E1,3E0,1E0,3E0,4E0,5E0,4E0,2.1E1,3E0,6E0,6E0,1.1E1,4E0,5.343E3,4E0,8E0,2.7E1,1.1E1,2E0,5E0,3E0,4.4E1,8E0,4E0,3E0,2.3E1,8E0],"tree_param":{"num_deleted":"0","num_feature":"161","num_nodes":"99","size_leaf_vector":"1"}},{"base_weights":[-1.1061308E-4,4.9303644E-3,-2.329819E-4,8.374387E-3,-6.73966E-3,-9.394518E-3,-1.989732E-4,1.2525165E-2,-3.2216758E-3,-1.48249455E-2,1.0043606E-2,5.220938E-4,-2.5574274E-2,-2.2124022E-4,2.0835696E-2,5.243243E-3,2.0649422E-2,-1.4351686E-2,1.6295768E-2,5.5490755E-3,-2.114372E-2,-1.3075917E-4,1.6634157E-2,8.968342E-3,-9.205346E-3,-2.7518126E-4,-5.9836493E-5,-5.9749156E-5,-1.8837375E-3,2.6305002E-4,-3.2554188E-5,-1.7025709E-4,7.339057E-3,2.2336932E-2,1.1432262E-3,7.700126E-3,-1.8967658E-2,2.6116456E-4,6.953022E-3,1.8085905E-4,-5.754712E-4,-2.4579972E-2,1.6918153E-4,3.2352116E-3,2.6706271E-4,4.8050436E-4,1.3964943E-4,-1.8597252E-4,-4.5404867E-3,-3.2181597E-5,-1.2958441E-2,-4.9200826E-3,-5.721368E-4,4.459137E-5,2.0278804E-4,1.11301146E-4,2.5926178E-4,-4.939583E-5,4.8173566E-5,1.0226967E-4,5.9801357E-7,-2.2329393E-4,3.042993E-5,-3.4546767E-5,9.2634175E-5,-6.1625346E-5,2.3619283E-5,-8.621231E-5,-2.7599584E-4,-2.9821094E-5,5.5350694E-5,3.0405496E-5,-1.3863606E-5,-5.553657E-5,2.6268378E-6,9.946665E-5,-6.3274183E-7,3.837764E-5,-2.3104524E-4,1.4894178E-4,-5.7006677E-5,7.5363147E-7,-6.813965E-5],"categories":[],"categories_nodes":[],"categories_segments":[],"categories_sizes":[],"default_left":[0,0,0,0,0,0,0,0,0,0,0,0,0,0,0,0,0,0,0,0,0,0,0,0,0,0,0,0,0,0,0,0,0,0,0,0,0,0,0,0,0,0,0,0,0,0,0,0,0,0,0,0,0,0,0,0,0,0,0,0,0,0,0,0,0,0,0,0,0,0,0,0,0,0,0,0,0,0,0,0,0,0,0],"id":17,"left_children":[1,3,5,7,9,11,13,15,17,19,21,23,25,27,29,31,33,35,37,39,41,-1,43,45,47,-1,-1,49,51,-1,-1,-1,53,55,57,59,61,-1,63,-1,65,67,-1,69,-1,71,-1,-1,73,75,77,79,81,-1,-1,-1,-1,-1,-1,-1,-1,-1,-1,-1,-1,-1,-1,-1,-1,-1,-1,-1,-1,-1,-1,-1,-1,-1,-1,-1,-1,-1,-1],"loss_changes":[3.5918814E-3,5.6029134E-3,1.7691051E-3,5.1905485E-3,4.4912156E-3,3.382768E-3,2.65751E-3,4.565386E-3,6.5335226E-3,2.9495829E-3,1.8935816E-3,1.2328019E-3,1.3999129E-4,1.5192071E-3,8.762041E-4,2.1318304E-3,1.1923909E-3,2.080074E-3,8.2768616E-4,4.7110225E-4,2.6392806E-3,0E0,1.1282009E-3,3.325725E-4,2.2224296E-4,0E0,0E0,1.8340483E-3,1.9924035E-3,0E0,0E0,0E0,1.4001918E-3,1.0790564E-3,1.1319188E-4,7.661195E-5,1.2518526E-3,0E0,2.0032341E-4,0E0,9.661266E-5,5.330844E-4,0E0,8.800096E-5,0E0,2.3332334E-5,0E0,0E0,3.065745E-5,1.5982002E-3,1.9632424E-3,2.4203819E-3,1.4191093E-3,0E0,0E0,0E0,0E0,0E0,0E0,0E0,0E0,0E0,0E0,0E0,0E0,0E0,0E0,0E0,0E0,0E0,0E0,0E0,0E0,0E0,0E0,0E0,0E0,0E0,0E0,0E0,0E0,0E0,0E0],"parents":[2147483647,0,0,1,1,2,2,3,3,4,4,5,5,6,6,7,7,8,8,9,9,10,10,11,11,12,12,13,13,14,14,15,15,16,16,17,17,18,18,19,19,20,20,22,22,23,23,24,24,27,27,28,28,32,32,33,33,34,34,35,35,36,36,38,38,40,40,41,41,43,43,45,45,48,48,49,49,50,50,51,51,52,52],"right_children":[2,4,6,8,10,12,14,16,18,20,22,24,26,28,30,32,34,36,38,40,42,-1,44,46,48,-1,-1,50,52,-1,-1,-1,54,56,58,60,62,-1,64,-1,66,68,-1,70,-1,72,-1,-1,74,76,78,80,82,-1,-1,-1,-1,-1,-1,-1,-1,-1,-1,-1,-1,-1,-1,-1,-1,-1,-1,-1,-1,-1,-1,-1,-1,-1,-1,-1,-1,-1,-1],"split_conditions":[-2.0982122E0,5.802998E-1,-2.5670795E0,4.318182E-1,-3.833652E-1,-1.5691651E0,3.0618109E1,2.2140567E0,7.9545456E-1,6.6611326E-1,5.576437E-2,-6.8083185E-1,2.3076923E-1,1.2611533E0,1E0,-7.8109384E-1,1.7852839E0,-8.831421E-1,-1.5237026E0,1.7402021E0,1.5136861E1,-1.3075917E-4,-4.1367713E-1,7.132035E-1,-6E-1,-2.7518126E-4,-5.9836493E-5,5.4645004E0,-1.8168522E-1,2.6305002E-4,-3.2554188E-5,-1.7025709E-4,2.86351E0,-7.4539727E-1,0E0,6.1542124E-1,6.301746E-1,2.6116456E-4,-5.5164206E-1,1.8085905E-4,1.061337E-1,8.641482E-1,1.6918153E-4,-1.0104153E0,2.6706271E-4,0E0,1.3964943E-4,-1.8597252E-4,5.4723555E-1,-1.5691651E0,9.186782E-1,-2.2864485E0,1.6463351E0,4.459137E-5,2.0278804E-4,1.11301146E-4,2.5926178E-4,-4.939583E-5,4.8173566E-5,1.0226967E-4,5.9801357E-7,-2.2329393E-4,3.042993E-5,-3.4546767E-5,9.2634175E-5,-6.1625346E-5,2.3619283E-5,-8.621231E-5,-2.7599584E-4,-2.9821094E-5,5.5350694E-5,3.0405496E-5,-1.3863606E-5,-5.553657E-5,2.6268378E-6,9.946665E-5,-6.3274183E-7,3.837764E-5,-2.3104524E-4,1.4894178E-4,-5.7006677E-5,7.5363147E-7,-6.813965E-5],"split_indices":[157,86,16,62,36,58,93,19,62,102,135,31,14,50,0,126,149,27,73,19,19,0,34,87,23,0,0,49,159,0,0,0,118,16,3,10,9,0,10,0,29,120,0,18,0,5,0,0,24,58,19,159,159,0,0,0,0,0,0,0,0,0,0,0,0,0,0,0,0,0,0,0,0,0,0,0,0,0,0,0,0,0,0],"split_type":[0,0,0,0,0,0,0,0,0,0,0,0,0,0,0,0,0,0,0,0,0,0,0,0,0,0,0,0,0,0,0,0,0,0,0,0,0,0,0,0,0,0,0,0,0,0,0,0,0,0,0,0,0,0,0,0,0,0,0,0,0,0,0,0,0,0,0,0,0,0,0,0,0,0,0,0,0,0,0,0,0,0,0],"sum_hessian":[5.82E3,1.37E2,5.683E3,1.06E2,3.1E1,2E1,5.663E3,7.8E1,2.8E1,2.1E1,1E1,1.3E1,7E0,5.658E3,5E0,4.2E1,3.6E1,1.8E1,1E1,5E0,1.6E1,2E0,8E0,7E0,6E0,6E0,1E0,5.158E3,5E2,4E0,1E0,3E0,3.9E1,3.3E1,3E0,3E0,1.5E1,4E0,6E0,1E0,4E0,1.5E1,1E0,4E0,4E0,3E0,4E0,1E0,5E0,5.148E3,1E1,1.5E2,3.5E2,3.3E1,6E0,9E0,2.4E1,1E0,2E0,2E0,1E0,1.3E1,2E0,1E0,5E0,1E0,3E0,3E0,1.2E1,1E0,3E0,1E0,2E0,4E0,1E0,1.5E1,5.133E3,4E0,6E0,5E0,1.45E2,3.18E2,3.2E1],"tree_param":{"num_deleted":"0","num_feature":"161","num_nodes":"83","size_leaf_vector":"1"}},{"base_weights":[-2.823534E-5,1.0137694E-2,-7.404674E-5,1.5773E-2,-1.6685193E-2,-4.9182568E-6,-4.8097046E-3,-1.5226938E-4,2.6809901E-2,-5.0388757E-5,-2.2769779E-4,3.5193274E-3,-1.2538249E-4,-1.6718937E-2,-3.1353529E-3,1.4719666E-2,-1.7968139E-4,1.09961264E-4,3.045442E-4,1.4017137E-2,2.043611E-3,-3.6522564E-5,-4.5614582E-3,-1.9720611E-4,5.1480667E-5,-1.0987702E-2,-9.527606E-4,2.2975984E-4,-1.3280961E-4,1.826117E-2,-4.9136137E-3,-7.3539726E-3,3.0950464E-3,-8.012583E-3,2.0073181E-5,2.3184258E-4,-5.5749957E-3,-3.1686032E-3,-1.6717156E-2,8.623791E-3,-3.327049E-3,2.2853908E-4,-4.6750818E-5,2.067924E-5,-1.02572805E-4,2.3995039E-5,-1.6290341E-4,3.5046214E-5,-1.8142344E-4,-2.298535E-4,-3.890172E-5,-4.305377E-7,8.0081605E-5,-9.843931E-7,-9.371664E-5,-7.268674E-5,6.0877388E-5,1.2532378E-5,-1.9120109E-4,1.2462205E-4,7.5756857E-6,8.057081E-5,-4.5450855E-5],"categories":[],"categories_nodes":[],"categories_segments":[],"categories_sizes":[],"default_left":[0,0,0,0,0,0,0,0,0,0,0,0,0,0,0,0,0,0,0,0,0,0,0,0,0,0,0,0,0,0,0,0,0,0,0,0,0,0,0,0,0,0,0,0,0,0,0,0,0,0,0,0,0,0,0,0,0,0,0,0,0,0,0],"id":18,"left_children":[1,3,5,7,9,11,13,15,17,-1,-1,19,21,23,25,27,-1,-1,-1,29,31,33,35,-1,-1,37,39,-1,-1,41,43,45,47,49,51,-1,53,55,57,59,61,-1,-1,-1,-1,-1,-1,-1,-1,-1,-1,-1,-1,-1,-1,-1,-1,-1,-1,-1,-1,-1,-1],"loss_changes":[2.6991058E-3,4.193211E-3,1.888567E-3,3.8709254E-3,2.3958099E-4,2.414832E-3,1.6026207E-3,2.9140497E-3,4.1435566E-4,0E0,0E0,2.883811E-3,2.167875E-3,7.578996E-4,1.2577786E-3,1.6922358E-3,0E0,0E0,0E0,1.937611E-3,1.662999E-3,2.4346204E-3,3.1663543E-3,0E0,0E0,6.638166E-4,1.370204E-3,0E0,0E0,2.108308E-3,2.0774631E-4,1.52082E-3,1.3683282E-3,2.256091E-3,2.7011805E-3,0E0,2.1823086E-3,3.4786304E-4,4.1260035E-4,3.5288493E-4,7.0220174E-4,0E0,0E0,0E0,0E0,0E0,0E0,0E0,0E0,0E0,0E0,0E0,0E0,0E0,0E0,0E0,0E0,0E0,0E0,0E0,0E0,0E0,0E0],"parents":[2147483647,0,0,1,1,2,2,3,3,4,4,5,5,6,6,7,7,8,8,11,11,12,12,13,13,14,14,15,15,19,19,20,20,21,21,22,22,25,25,26,26,29,29,30,30,31,31,32,32,33,33,34,34,36,36,37,37,38,38,39,39,40,40],"right_children":[2,4,6,8,10,12,14,16,18,-1,-1,20,22,24,26,28,-1,-1,-1,30,32,34,36,-1,-1,38,40,-1,-1,42,44,46,48,50,52,-1,54,56,58,60,62,-1,-1,-1,-1,-1,-1,-1,-1,-1,-1,-1,-1,-1,-1,-1,-1,-1,-1,-1,-1,-1,-1],"split_conditions":[-4.485699E0,-2.5325102E-1,1.32E1,9.212944E-2,0E0,-1.5237026E0,-6.5891474E-1,6.1542124E-1,1.0177739E0,-5.0388757E-5,-2.2769779E-4,-2.0982122E0,7.2230654E0,1E0,1.8371086E-1,5.3333336E-1,-1.7968139E-4,1.09961264E-4,3.045442E-4,7.218964E-1,-1.1365101E0,-2.5670795E0,-3.5475295E0,-1.9720611E-4,5.1480667E-5,1.3519813E-1,-3.5810766E-1,2.2975984E-4,-1.3280961E-4,9.309427E-1,7.040359E-1,-1.4335361E-1,4.569158E-1,3.9378178E-1,3.8608646E0,2.3184258E-4,-4.1355237E-1,7.0512824E-2,2.3324749E-1,-6.468912E-1,-2.692075E-1,2.2853908E-4,-4.6750818E-5,2.067924E-5,-1.02572805E-4,2.3995039E-5,-1.6290341E-4,3.5046214E-5,-1.8142344E-4,-2.298535E-4,-3.890172E-5,-4.305377E-7,8.0081605E-5,-9.843931E-7,-9.371664E-5,-7.268674E-5,6.0877388E-5,1.2532378E-5,-1.9120109E-4,1.2462205E-4,7.5756857E-6,8.057081E-5,-4.5450855E-5],"split_indices":[50,66,11,133,3,73,77,10,65,0,0,157,65,8,141,23,0,0,0,56,124,16,157,0,0,62,57,0,0,119,34,68,148,121,85,0,154,62,30,108,60,0,0,0,0,0,0,0,0,0,0,0,0,0,0,0,0,0,0,0,0,0,0],"split_type":[0,0,0,0,0,0,0,0,0,0,0,0,0,0,0,0,0,0,0,0,0,0,0,0,0,0,0,0,0,0,0,0,0,0,0,0,0,0,0,0,0,0,0,0,0,0,0,0,0,0,0,0,0,0,0,0,0,0,0,0,0,0,0],"sum_hessian":[5.793E3,2.5E1,5.768E3,2.1E1,4E0,5.686E3,8.2E1,9E0,1.2E1,2E0,2E0,1.87E2,5.499E3,9E0,7.3E1,5E0,4E0,3E0,9E0,2.2E1,1.65E2,5.392E3,1.07E2,8E0,1E0,1.5E1,5.8E1,4E0,1E0,1.8E1,4E0,1.6E1,1.49E2,3.7E1,5.355E3,3E0,1.04E2,7E0,8E0,1.1E1,4.7E1,1.5E1,3E0,2E0,2E0,8E0,8E0,1.47E2,2E0,7E0,3E1,5.314E3,4.1E1,4.3E1,6.1E1,5E0,2E0,1E0,7E0,7E0,4E0,4E0,4.3E1],"tree_param":{"num_deleted":"0","num_feature":"161","num_nodes":"63","size_leaf_vector":"1"}},{"base_weights":[4.9559516E-5,-7.1010974E-5,6.0237097E-3,-4.4921428E-5,-1.8461784E-2,2.5753296E-4,4.8824144E-3,5.1058824E-3,-1.321679E-4,-4.270848E-3,-2.6122175E-4,1.7503597E-2,2.6821871E-3,1.0486174E-2,-5.6461263E-3,-8.360857E-5,-8.501488E-3,-6.3994084E-5,1.0574164E-5,-6.0831637E-5,1.9481592E-2,4.419407E-3,-1.654535E-2,1.3286481E-2,6.394311E-4,-2.2990303E-2,1.2985508E-4,1.5662007E-3,-2.908692E-4,-2.1491309E-4,-4.0046847E-3,5.4885404E-5,2.1212174E-2,1.729561E-2,2.1286062E-3,-2.386628E-2,3.6116277E-3,3.6979003E-5,1.6296348E-4,1.5453002E-4,-4.3517117E-5,-2.9767666E-4,-8.771024E-5,-2.3457562E-4,4.4125736E-5,1.9000361E-5,-1.6967475E-4,-3.4077922E-5,-1.883985E-6,-6.3930136E-5,6.827233E-5,2.4179433E-4,1.16286705E-4,-4.804023E-5,2.7651447E-4,-2.3874691E-4,3.929844E-5,-6.349094E-5,-2.60999E-4,-3.0072399E-5,8.4246814E-5],"categories":[],"categories_nodes":[],